<?xml version="1.0"?>
<opencv_storage>
<my_svm type_id="opencv-ml-svm">
  <svm_type>C_SVC</svm_type>
  <kernel><type>LINEAR</type></kernel>
  <C>1.</C>
  <term_criteria><epsilon>2.2204460492503131e-16</epsilon>
    <iterations>1000</iterations></term_criteria>
  <var_all>4235</var_all>
  <var_count>4235</var_count>
  <class_count>2</class_count>
  <class_labels type_id="opencv-matrix">
    <rows>1</rows>
    <cols>2</cols>
    <dt>i</dt>
    <data>
      -1 1</data></class_labels>
  <sv_total>1</sv_total>
  <support_vectors>
    <_>
      3.62767751e-04 -1.19429242e-04 1.58373019e-04 3.64817533e-04
      -1.88145888e-04 -1.96549968e-06 -1.85101031e-04 -3.61885468e-04
      -3.20983469e-04 -4.63772194e-05 -2.18117988e-04 -2.13893727e-04
      -6.63102692e-05 -6.86142521e-05 -1.20439683e-04 -3.27549133e-05
      -1.28490283e-05 2.81313532e-05 6.87493084e-05 -2.19454538e-04
      4.22594567e-05 1.90825904e-05 -1.79950075e-05 3.95236057e-05
      5.26101649e-05 -3.00348056e-05 -2.25395546e-04 -5.19986643e-05
      1.49105414e-04 1.77221271e-04 1.60660580e-04 1.90664985e-04
      -8.80559091e-05 -5.56636905e-06 1.29333042e-04 -8.28929624e-05
      -3.20441322e-04 -3.07762239e-04 -2.48310622e-04 -5.97034414e-05
      -1.24184618e-04 -2.83272209e-04 -3.15001444e-06 -1.16531060e-04
      -3.81099409e-04 -9.81950070e-05 -8.13023726e-05 -1.76056565e-04
      3.06708280e-05 -8.93059405e-05 -3.67757348e-05 -1.58947776e-04
      -1.12763999e-04 -7.01614117e-05 1.16328038e-05 -1.06348154e-04
      -1.86278630e-05 6.75089323e-05 -2.23876676e-04 -3.07318289e-04
      -2.84787558e-04 2.39076253e-05 1.55807822e-04 1.86498131e-04
      -3.69055255e-04 1.72538803e-05 -9.24537380e-05 4.69544648e-05
      -3.71425704e-05 -1.08566048e-04 5.49682081e-05 3.54889635e-04
      9.81748963e-05 1.24973420e-04 -5.08792182e-05 3.65666419e-05
      9.53202980e-05 -1.41143382e-05 -1.36174174e-04 8.16913307e-05
      -1.20841614e-04 -3.74462921e-04 7.42943594e-05 -2.71062509e-05
      -1.88874852e-04 -2.00113645e-05 -1.68831102e-04 -2.27658224e-04
      -1.84851873e-04 -9.20883613e-05 -7.33705820e-05 1.09102337e-04
      5.08759149e-06 1.10781781e-04 4.41088159e-05 -2.44386552e-04
      -2.36361234e-06 1.35818673e-05 1.22096040e-04 1.75648107e-04
      2.38697394e-04 2.57330365e-04 1.86478966e-04 5.13597915e-05
      2.82753244e-05 1.01370773e-04 -2.63285474e-04 1.94287757e-04
      2.08026177e-05 1.48138046e-04 2.71021825e-04 1.32374276e-04
      2.38319815e-04 3.97262047e-05 4.39228752e-05 -1.09578708e-04
      -6.17120386e-05 -1.31965789e-04 -8.13035513e-05 -2.21772589e-05
      7.59159548e-06 -7.67199163e-05 3.38179198e-05 -2.25890890e-05
      -5.80063497e-05 1.83180291e-05 1.45297905e-04 1.14757131e-05
      -9.43650011e-05 -6.79880613e-05 -1.88751379e-04 -5.81045861e-05
      2.94863130e-05 -8.50286233e-05 7.08275547e-05 2.48140044e-04
      3.14678560e-04 2.22665345e-04 7.09122833e-05 8.20896730e-06
      1.09518856e-04 6.34946555e-05 -1.95316934e-05 5.17918925e-05
      1.47479705e-05 8.57987197e-06 5.51600606e-05 1.70096624e-04
      3.91209673e-04 4.17369825e-04 7.14887792e-05 2.28297562e-04
      8.30940335e-05 -9.19407685e-05 -1.24992118e-06 1.08763023e-04
      -2.98888335e-04 -1.62382727e-04 -8.21082358e-05 -1.14621682e-04
      -1.65826961e-04 -3.54140066e-05 9.30760234e-06 -7.95231463e-05
      -1.00919031e-04 -9.01084204e-05 -1.49692612e-04 -1.07601983e-04
      -6.80368976e-05 -6.20279534e-05 -1.18340009e-04 -1.37020019e-04
      -1.17521675e-04 -1.03730024e-04 2.17997804e-04 2.16971806e-04
      5.12318002e-05 2.35069729e-05 2.27486362e-05 -1.63919431e-05
      -5.21918300e-05 -8.90643569e-05 -2.79840227e-04 6.01799184e-05
      -7.06663050e-05 -2.25226031e-05 -1.52039764e-04 -4.98874433e-05
      -5.29084900e-05 -7.32983171e-05 -8.24391755e-05 -7.54024513e-05
      -2.83084173e-05 -9.23841872e-05 -2.35884450e-04 -3.61023733e-04
      -3.34133569e-04 -2.27925848e-04 -2.32386519e-04 -2.99540639e-04
      -1.64294222e-04 -4.53666617e-05 -3.21294618e-04 1.05571444e-05
      -1.23851933e-04 -2.99029023e-04 -8.69673604e-05 5.45025869e-05
      -2.80815846e-04 3.70713751e-05 -5.47437558e-05 -7.14451608e-06
      -3.45118860e-05 -9.11583847e-05 -1.36424351e-04 5.96703321e-05
      -2.92798737e-04 -2.29985075e-04 -6.90307643e-05 -1.07573564e-04
      1.29397988e-04 7.61963602e-05 -1.40823913e-05 1.46016988e-04
      -3.81560239e-05 1.73796958e-04 6.04281752e-07 -2.21122900e-04
      7.27761508e-05 2.82773632e-04 -2.88894458e-04 -1.94589913e-04
      -2.17032939e-05 -1.72064305e-04 1.26533327e-04 2.60819070e-04
      3.45992041e-04 4.95295244e-05 7.13890186e-05 -8.23320443e-05
      1.28813102e-04 8.32322330e-05 1.19967845e-04 1.23024278e-04
      -1.83003740e-05 5.80972519e-05 1.20564211e-04 2.62498914e-04
      2.21061026e-04 1.58541123e-04 1.69391744e-04 -4.62655225e-06
      -4.26671704e-07 -3.20658255e-05 -3.44434557e-05 -6.37871417e-05
      -5.94740886e-05 -3.59650476e-05 -3.12491175e-05 4.08267842e-05
      -4.52914792e-05 6.45865148e-05 -3.32802956e-05 -2.67138112e-05
      1.39871205e-04 9.52568153e-05 2.02913143e-04 1.65975725e-04
      2.00175535e-04 1.87138503e-04 1.81721305e-04 2.05658784e-04
      1.87488913e-04 7.31657201e-05 -1.90007020e-04 -1.80517338e-04
      -1.73606881e-04 -1.56228387e-04 -1.37928393e-04 -2.07377379e-05
      -1.70934756e-04 -5.79115222e-05 -4.08865417e-05 -2.73234909e-04
      -1.05393601e-05 1.93082287e-05 -7.31144683e-05 -2.18374935e-05
      6.85537379e-05 -9.38414159e-05 -1.33356196e-04 -2.53098697e-04
      -5.23845229e-05 -9.66812968e-06 -2.66115996e-04 4.25313156e-05
      5.95705787e-05 1.35824623e-04 1.51731263e-04 9.28401107e-07
      1.81609270e-04 -1.60821874e-05 2.28170626e-04 2.40974754e-04
      -9.67306823e-06 2.45213945e-04 4.82340547e-04 -7.49221181e-06
      1.01456828e-06 1.11465415e-04 -5.05879252e-05 3.30514507e-04
      3.55690398e-04 1.93357220e-04 -1.13565831e-04 1.72214975e-04
      1.61117496e-04 2.42675160e-04 1.93190775e-04 9.64268038e-05
      1.01157733e-04 1.01732061e-04 5.47372547e-05 1.22488040e-04
      2.41732232e-05 -3.76084281e-05 1.89323709e-05 -1.81382784e-04
      -2.38463748e-04 -3.00180516e-04 -2.84586509e-04 -2.10321159e-04
      -3.26152338e-04 -1.98552938e-04 -2.78750202e-04 -1.47527971e-04
      -6.72779206e-05 -4.10025277e-05 -5.31057995e-05 1.62550205e-05
      4.66921992e-05 -1.00941688e-04 -6.69123474e-05 -1.43248733e-04
      -8.23301743e-05 -7.19373638e-05 3.21644038e-05 6.21804356e-05
      -2.16585850e-05 -2.70704495e-05 1.51983204e-05 -1.63715104e-05
      3.34481992e-05 2.23873121e-05 1.00566267e-05 -4.39157666e-05
      -3.20910249e-06 -6.54977557e-05 -1.39034077e-04 -7.72009444e-05
      -1.45145968e-04 2.95308273e-05 -5.47498348e-05 5.41560839e-05
      7.82793286e-05 1.43729238e-04 8.60586588e-05 5.76584316e-05
      3.94466952e-05 1.71127933e-04 6.78939250e-05 2.26096799e-05
      -2.75008133e-05 3.85374333e-05 5.68634605e-05 1.03349521e-04
      -1.47343075e-04 1.13416485e-04 -2.36275911e-04 -2.52333230e-05
      -3.60467602e-05 4.85349410e-05 -9.94946386e-05 6.61239028e-05
      -8.17033833e-06 -7.53659406e-05 2.09092861e-04 -9.54939678e-05
      2.69554206e-04 1.32423069e-04 6.35607648e-05 -1.49292755e-04
      -1.35217299e-04 1.42350342e-04 1.11133595e-04 7.24611600e-05
      9.12941905e-05 9.19193117e-05 8.60592627e-05 1.34783522e-06
      5.75710546e-05 6.27991394e-05 -5.55242405e-05 -5.64430557e-05
      -4.70869600e-05 -3.84507111e-05 -3.73285366e-05 -1.57975319e-05
      -7.46272963e-06 -4.09432687e-05 2.79685155e-05 -8.88305003e-05
      2.84095199e-06 1.56340911e-06 -6.36284130e-06 3.81650098e-05
      9.86871783e-06 6.67322092e-05 7.24102938e-05 8.28191260e-05
      -4.67791288e-05 -8.38404812e-05 -1.46305014e-04 -1.96874316e-04
      -7.14871421e-05 -2.09085716e-04 -1.56702197e-04 -1.42026358e-04
      1.23429869e-04 4.26831393e-05 8.35645988e-05 1.82250151e-04
      -1.33431877e-05 8.38783380e-05 8.87432107e-05 -1.41698518e-04
      -4.26776278e-05 -8.08103650e-05 -3.62353632e-04 -6.23560336e-05
      -1.93154174e-05 1.45454789e-04 6.77121934e-05 4.83492076e-05
      8.14231316e-05 9.47192821e-05 1.64125522e-05 -1.38581338e-04
      -1.26347331e-05 4.33762871e-05 4.71144413e-05 8.42958470e-05
      -9.18950682e-05 -1.65412392e-04 -1.74138244e-04 -3.04638495e-04
      -1.27210325e-04 -1.39145399e-04 -1.72159780e-04 -2.97732440e-05
      3.49951988e-05 -6.28125796e-04 -1.38531352e-04 1.05389599e-05
      -1.79125796e-04 2.23843919e-04 2.45325937e-04 2.12897692e-04
      2.22266317e-04 -2.59231601e-05 1.42099077e-06 1.82015254e-04
      1.57875311e-05 -2.47313274e-05 -2.46385571e-05 1.20926779e-05
      1.17097452e-05 6.31268704e-05 5.93411678e-05 -2.00276427e-05
      3.59488240e-06 -3.29166178e-05 -1.33806476e-04 -1.76186823e-05
      -2.65631134e-05 2.62078502e-05 -7.32866238e-06 2.66504921e-05
      -7.28914601e-05 -4.99647176e-05 -5.60666194e-05 -8.46135808e-05
      -6.13228476e-05 -7.50596155e-05 -7.08797379e-05 -6.10615825e-05
      -7.91099010e-05 -8.20688656e-05 -7.41456897e-05 -3.68644869e-05
      -8.78571009e-05 7.78983394e-06 -8.51973482e-07 -1.07328797e-05
      1.13966125e-05 6.02073533e-06 -3.84267923e-06 3.17826889e-05
      2.84229718e-05 -7.25258133e-06 6.06960566e-05 2.96504422e-05
      2.75261373e-05 3.00166744e-06 -7.92583087e-05 9.59981844e-05
      4.47224993e-05 -5.79068328e-05 -1.03961393e-05 5.61644265e-05
      -4.28452186e-05 -4.65406520e-05 -5.19012792e-05 1.41739409e-04
      -1.05583516e-04 -8.27096665e-05 -4.68206781e-05 -1.04860250e-04
      7.23972989e-05 -3.03669454e-04 -1.44721780e-04 -2.21811060e-04
      -2.55404681e-04 -2.81075365e-04 -1.88531820e-04 3.04233999e-05
      1.12128175e-04 2.85764690e-04 -5.99035237e-04 -1.20749617e-04
      1.05235820e-04 6.94530390e-05 2.51336256e-04 2.31449885e-04
      8.71094308e-05 2.76232866e-04 -1.21105324e-04 1.50760272e-04
      1.33230555e-04 3.47114226e-04 2.30641221e-04 2.30704449e-04
      9.17941943e-05 2.13316162e-04 3.28400987e-04 2.18371832e-04
      2.08438607e-04 -2.36844098e-05 -4.39722726e-06 -4.02910700e-06
      1.21901103e-04 1.04370141e-04 -7.80657429e-05 3.65728411e-05
      3.86233405e-05 6.26697365e-05 3.59109472e-05 1.03543280e-05
      1.52749162e-05 1.44146043e-05 6.70205627e-05 8.44949900e-05
      7.29799649e-05 7.91770581e-05 8.46276671e-05 6.42130326e-05
      -1.14973609e-05 -1.12580870e-04 -8.44870156e-05 -8.27223776e-05
      -6.07790025e-05 -5.92912511e-05 -5.59441032e-05 -8.14387167e-05
      -8.26939722e-05 -7.10497843e-05 -1.59467236e-04 -1.67276958e-04
      -1.19927630e-04 -1.01316225e-04 -1.31183639e-04 5.93220284e-05
      9.83333521e-05 1.16713119e-04 3.12768907e-06 7.77788664e-05
      1.46456383e-04 -9.67822598e-06 1.29069071e-04 -5.74206169e-05
      -9.21985993e-05 -3.56031414e-05 -1.54464826e-04 -5.31884543e-05
      8.30076388e-05 -4.62464450e-05 1.03212114e-04 -2.09558202e-04
      1.48204606e-04 -1.39888434e-04 -2.10976345e-04 1.54844543e-04
      -4.25001817e-05 -1.36709510e-04 2.37642045e-04 -1.61728298e-04
      -1.59358737e-04 3.70638045e-05 -1.16245028e-04 4.82877549e-05
      1.12089743e-04 1.84397999e-04 1.13337250e-04 1.24346450e-04
      5.45338953e-05 2.10708331e-05 9.62041377e-05 7.02411344e-05
      6.23273882e-05 -1.64097419e-05 -2.08004421e-05 -4.55623831e-06
      -1.74710094e-05 -1.87111564e-05 -1.69277373e-05 -1.64368103e-05
      4.32995330e-06 8.14581767e-07 -1.75546793e-05 -4.06670949e-07
      8.52089870e-05 8.17520777e-05 1.02913153e-04 1.05442778e-04
      8.12742437e-05 7.72818021e-05 8.96530328e-05 6.41899387e-05
      8.16974425e-05 8.16732500e-05 1.01205034e-04 1.06937834e-04
      6.73632821e-05 1.04312414e-04 6.25041866e-05 -3.58383295e-05
      1.22967671e-04 1.39894619e-04 1.29597582e-04 1.44586142e-04
      9.08863440e-05 8.19347115e-05 7.90978738e-05 1.26120285e-04
      1.30830202e-04 2.79926462e-05 6.88210712e-05 3.11397889e-05
      1.04196470e-05 -2.91333708e-05 -2.56070525e-05 -5.86593087e-05
      -3.92500988e-05 1.73772394e-04 1.08126027e-04 1.06300031e-04
      -1.19700026e-05 5.92844590e-05 3.08694474e-08 -5.35969375e-05
      1.71536121e-05 2.77899344e-05 -3.17140148e-05 -2.25075302e-04
      -1.42208111e-04 -7.24789570e-05 -2.13398831e-04 -1.18374282e-05
      -3.26340902e-04 -3.29449860e-04 -3.55559139e-04 -2.26077143e-04
      -3.97349620e-04 -3.28788679e-04 -3.39633298e-05 -3.02710599e-04
      -1.23036967e-04 7.24775236e-05 8.18922563e-05 2.19630499e-04
      5.73452926e-05 4.34658468e-05 9.76892989e-05 -9.05391914e-07
      -2.96422677e-05 -7.64645210e-06 -2.85364385e-05 -4.40497934e-05
      -3.11523290e-05 -3.78833720e-05 -4.19581374e-05 3.41194645e-05
      -4.35420952e-05 3.26426816e-05 4.98752815e-05 3.81165519e-05
      5.91349526e-05 7.15963688e-05 -2.30963888e-05 1.07995074e-05
      -7.17674357e-06 -2.79772630e-05 -2.76836527e-05 -2.64964856e-05
      -2.48807664e-05 -1.74292491e-05 -1.49567086e-05 -7.93135587e-06
      -9.18930618e-06 -7.35341291e-06 8.89561761e-06 5.04988966e-05
      4.69757251e-05 1.13370406e-04 9.97463430e-05 8.16509128e-05
      1.05527266e-04 8.23721639e-05 6.22079388e-05 7.60468392e-05
      8.94657787e-05 8.65148177e-05 7.84691510e-05 9.86294472e-05
      1.33157897e-04 8.47905540e-05 3.33916141e-05 -1.61230892e-05
      -2.11012521e-05 -1.45477388e-05 4.27392588e-05 2.18003993e-06
      -2.25462463e-06 1.53090718e-04 2.49855831e-04 2.58578191e-04
      2.81190063e-04 3.90144181e-04 3.50630173e-04 3.41023333e-05
      -4.52146232e-05 -3.85879597e-04 5.71062119e-05 -2.47080228e-04
      -1.59903720e-04 -8.08557070e-06 4.40697513e-05 1.20311473e-04
      -2.41170019e-05 1.03246002e-05 -2.07307661e-04 -1.00211160e-04
      -1.41483615e-04 2.57369247e-05 -3.45132357e-05 1.24364524e-04
      2.15650289e-04 2.22273229e-04 1.58440584e-04 1.78795366e-04
      7.43278506e-05 3.41880477e-05 4.91343671e-05 5.18645429e-05
      3.08490489e-05 4.47814855e-05 3.84853083e-05 -4.24016871e-05
      -4.28881685e-05 -4.15053546e-05 -4.52589993e-05 -1.80445113e-05
      -3.98651464e-05 -1.70909243e-05 -2.32729781e-05 -1.55451817e-05
      5.95238998e-06 6.91947116e-06 -1.00249390e-05 3.94911876e-06
      7.07412037e-05 4.58089817e-05 5.18459638e-05 6.29891583e-05
      4.36528098e-05 4.23293350e-05 -2.55880750e-05 1.11259824e-05
      -2.58148793e-05 -2.77817835e-05 3.05831127e-05 -1.20597076e-06
      4.04132925e-06 1.34961647e-05 -1.01773421e-05 -1.25219631e-05
      -6.02165665e-06 -6.64566642e-07 8.93723791e-06 2.30954015e-06
      2.43751801e-05 3.44123400e-05 9.89451473e-06 2.62474587e-05
      1.12982852e-04 5.23129420e-05 1.24976475e-04 1.35783092e-04
      1.47096493e-04 1.18314958e-04 1.56991911e-04 1.88413134e-04
      1.14822629e-04 5.92949436e-05 9.79385586e-05 -4.82859359e-05
      4.68331709e-05 -1.49256346e-04 -9.54026036e-05 1.24951475e-05
      -2.06115190e-04 -2.35330182e-04 1.31049732e-04 -2.35026164e-04
      2.23622847e-04 8.92192911e-05 9.84122307e-05 -1.13134840e-04
      -2.50897574e-05 -2.14863117e-04 1.10592780e-04 -2.93297289e-05
      1.20466852e-04 2.14866683e-04 2.19838708e-04 1.66085098e-04
      9.51789116e-05 9.34070122e-05 5.51763223e-05 3.72333307e-05
      3.65966152e-05 4.42408382e-05 3.86273859e-05 3.36762496e-05
      3.47359055e-05 3.92848960e-05 3.29542636e-05 3.30624607e-05
      5.81980457e-05 3.68568799e-05 7.35792346e-05 3.74034607e-05
      5.25418436e-05 5.42939524e-05 6.50672810e-05 4.44378347e-05
      3.11899603e-05 3.26815170e-05 7.17532093e-05 8.65412512e-05
      5.94010380e-05 4.31780427e-05 4.76514979e-05 4.19254975e-05
      8.74145480e-05 -2.49905916e-05 6.22597363e-05 1.10785193e-04
      7.86386154e-05 7.92268256e-05 1.14307470e-04 6.89637818e-05
      5.46850024e-05 6.96601055e-05 7.24145502e-05 8.50656288e-05
      7.01163008e-05 1.07599160e-04 8.63064924e-05 2.63168977e-06
      9.65410982e-06 1.54315130e-05 -1.71570955e-05 -1.62547294e-05
      1.09624270e-05 2.86597806e-05 -3.18688421e-06 6.14263481e-05
      1.00156554e-04 4.54583060e-05 -1.17324071e-05 2.31328595e-04
      2.18674741e-05 2.73031546e-05 -5.37485394e-05 -1.01708407e-04
      -9.45657957e-05 -3.17284634e-04 -1.74116780e-04 7.49610408e-05
      -2.90867989e-04 1.60055279e-04 2.07562844e-04 5.34077953e-05
      -1.68946717e-04 5.64326219e-05 -2.67110910e-04 -5.64792099e-05
      1.08853797e-04 1.22997677e-04 1.34515372e-04 1.02406921e-04
      -1.63120694e-05 8.34561579e-05 7.77778478e-05 2.27684632e-05
      2.30588921e-05 2.13994426e-05 2.86066170e-05 9.02215252e-05
      9.13077674e-05 8.39323729e-06 1.49015104e-05 1.50267297e-05
      6.00703197e-06 1.48781364e-05 4.20680335e-05 1.42259396e-05
      1.33695839e-05 2.83019326e-05 3.03619745e-05 6.41658844e-05
      6.03656736e-06 -4.04300778e-07 7.64254128e-06 1.03152183e-06
      5.25650903e-05 3.00883512e-05 2.06207878e-05 3.49292641e-05
      2.73236510e-05 4.37523049e-05 2.60377183e-05 1.76647718e-05
      6.54656978e-05 3.06503171e-05 4.05343490e-05 8.15361855e-05
      3.28808856e-05 3.05350841e-05 5.07438490e-05 4.38394127e-05
      4.62027274e-05 4.50250845e-05 6.45455875e-05 5.80149390e-05
      -3.82893013e-05 -3.04679907e-05 -3.69087174e-05 -4.15388640e-05
      -4.93937041e-05 -2.33619503e-05 -3.58194484e-05 5.93000041e-05
      6.74070325e-05 1.32078334e-04 8.41538495e-05 3.30923172e-06
      1.68899409e-04 1.85544486e-04 -1.09310822e-05 -1.72314220e-04
      2.28663723e-07 1.82052187e-04 -2.51187914e-04 -1.14827759e-04
      3.11090162e-06 5.52378187e-05 2.94714380e-04 1.13822069e-04
      5.33776401e-05 -5.52856909e-05 -2.57043575e-04 -1.81353957e-04
      -1.19671684e-04 -1.98906157e-04 6.54042524e-05 1.90908468e-04
      -1.19288568e-04 -5.93465302e-05 1.00707577e-04 5.96257778e-05
      8.83157736e-06 8.16524334e-06 6.00617977e-06 2.65385443e-05
      1.15167486e-05 8.33495687e-06 8.27925396e-06 8.55776307e-06
      1.50031010e-05 8.51251571e-06 2.96773997e-05 3.51480485e-05
      1.85939807e-05 1.86796296e-05 6.39945429e-05 3.55621778e-05
      2.52490445e-05 3.68166038e-05 1.23441432e-05 2.77828422e-05
      2.61102141e-05 5.00284186e-05 5.95495749e-06 1.32121568e-05
      3.02734607e-05 2.61633177e-05 4.56484995e-05 3.11823096e-05
      3.66318964e-05 8.72875244e-05 4.56632006e-05 4.48656720e-05
      5.64761067e-05 2.33119445e-05 2.34598501e-05 5.79434636e-05
      4.23109232e-05 3.71486203e-05 4.59075782e-05 5.44183495e-05
      3.94068811e-05 3.83932820e-05 4.80748677e-05 3.86405991e-05
      3.24302746e-05 3.42196727e-05 3.67265857e-05 4.36959854e-05
      3.47131827e-05 5.45972725e-05 1.02392034e-04 4.32206070e-05
      -8.78421051e-05 1.72845044e-04 -7.99023765e-05 -3.07085065e-05
      -1.90434788e-04 -7.54594075e-05 1.09909946e-04 -2.74503363e-05
      -2.95816135e-04 1.27497173e-04 -3.01036725e-05 -4.66981255e-05
      4.35835318e-06 -1.43224852e-05 -4.12759582e-05 7.82168445e-06
      4.28311578e-05 -3.20433355e-05 -2.02754061e-04 8.72987857e-06
      4.02140577e-04 -9.47419903e-05 -5.11491635e-05 1.99196002e-04
      7.43988785e-05 3.99069759e-05 2.71717490e-05 9.74202158e-06
      2.54914321e-05 1.50756005e-05 1.24464277e-05 1.18719236e-05
      1.21864705e-05 1.90499795e-05 1.17813097e-05 3.02518565e-05
      1.83120719e-05 1.82887470e-05 1.85156277e-05 2.93484154e-05
      2.53108174e-05 2.41981870e-05 1.21403964e-05 4.47746643e-05
      3.82681574e-05 2.54229071e-05 2.54519400e-05 2.65199469e-05
      5.54413200e-05 2.58481741e-05 1.72461423e-05 2.84067155e-05
      1.93002707e-05 6.47123234e-05 8.62209126e-05 5.45578187e-05
      4.93151711e-05 6.69974543e-05 2.60763118e-05 2.00133745e-05
      3.91588292e-05 4.58493560e-05 4.68850412e-05 3.65071610e-05
      4.48228238e-05 2.62403246e-05 2.05500746e-05 2.88029078e-05
      3.30851290e-05 3.43158172e-05 2.94974488e-05 2.26942084e-05
      3.23905733e-05 3.43077118e-05 3.00106894e-05 9.23449625e-05
      3.70375892e-05 -1.03725361e-05 1.06368905e-04 1.14346636e-04
      5.26252661e-05 -1.56507682e-04 1.98965754e-05 1.61721491e-05
      1.47033890e-04 -1.49960528e-04 1.38592412e-04 5.23058006e-05
      2.28759862e-04 8.46200492e-05 9.68528184e-06 6.75794809e-06
      -1.49937390e-04 -8.07283723e-05 -7.15837959e-05 -1.49458137e-04
      7.81233539e-05 2.68078787e-04 -1.23563266e-04 -6.66381093e-05
      9.49276655e-05 5.87899704e-05 2.11995248e-05 3.35275217e-05
      2.81995090e-05 3.46522138e-05 9.67440610e-06 1.19440056e-05
      1.30414855e-05 1.21062194e-05 1.20170989e-05 1.72163782e-05
      3.86972570e-05 2.20420952e-05 1.68367424e-05 1.67480102e-05
      3.31507727e-05 3.60011436e-05 3.14678255e-05 3.50166665e-05
      1.84344208e-05 4.42538112e-05 4.06044965e-05 3.92928923e-05
      1.88786544e-05 1.67626094e-05 3.85022759e-05 1.19863671e-05
      2.62891808e-05 1.74068373e-05 4.09714412e-05 8.08778786e-05
      5.48567186e-05 4.25376129e-05 5.37221495e-05 1.82218391e-05
      1.82822951e-05 4.09826025e-05 4.39795840e-05 3.95644565e-05
      3.71746210e-05 5.11781727e-05 3.54607146e-05 2.06009699e-05
      3.17701597e-05 3.31336814e-05 2.10844028e-05 2.92860459e-05
      2.48823017e-05 3.28191018e-05 2.86395862e-05 2.52680093e-05
      9.36063807e-05 3.79089506e-05 -2.05783745e-05 1.08265260e-04
      -2.53040744e-05 5.30099242e-05 -1.36623334e-04 -9.82857455e-06
      1.53946312e-04 3.69119283e-04 -5.19899586e-05 1.07407490e-04
      2.97861436e-04 1.54089794e-04 2.06296572e-05 9.63235143e-05
      -6.44192187e-05 -1.28585089e-04 -3.26289228e-05 -1.31604538e-04
      -2.57086096e-04 -9.08608672e-06 1.99089744e-04 -2.95976279e-05
      -3.99025266e-05 1.94996959e-04 1.52026463e-04 8.86722592e-06
      3.89801098e-05 3.42429412e-05 3.42839849e-05 1.22624715e-05
      1.83404954e-05 2.45340084e-06 3.04713967e-06 2.34917729e-06
      2.95456102e-05 2.56818976e-06 7.26027838e-06 7.62164518e-06
      1.44936384e-05 3.42473941e-05 5.85196722e-05 5.61520392e-05
      5.56215527e-05 1.17293048e-05 1.00734851e-05 9.69479061e-06
      3.31500014e-05 2.21140617e-05 1.28989259e-05 3.26062654e-05
      2.02240299e-05 2.89892887e-05 1.75677542e-05 3.36614830e-05
      6.75937335e-05 3.78495351e-05 4.94408305e-05 6.06902540e-05
      2.03220097e-05 2.00881277e-05 2.84132475e-05 5.31848164e-05
      5.15982538e-05 5.20713074e-05 6.42169034e-05 2.20466318e-05
      1.48121107e-05 2.39020828e-05 3.65301275e-05 3.15902980e-05
      2.86951217e-05 3.21989064e-05 3.89818815e-05 3.07045993e-05
      2.89456984e-05 9.84185535e-05 4.08506094e-05 2.42658189e-05
      8.32244768e-05 -4.31467924e-05 6.30640261e-06 -2.30952021e-04
      -7.36421407e-06 1.65858452e-04 2.22516319e-04 1.71457796e-04
      1.38163901e-04 1.59171163e-04 1.26829444e-04 -6.32302472e-05
      -9.53301787e-06 -1.51295724e-04 2.74097965e-05 -2.07389548e-05
      3.62971659e-05 -1.31856708e-04 6.05868190e-05 1.74547327e-04
      -1.05832434e-04 8.23420414e-05 2.66228948e-04 1.23318474e-04
      1.63356846e-04 2.90973749e-05 3.09935131e-05 3.51214803e-05
      3.36515914e-05 1.25223487e-05 1.75557125e-05 1.72508480e-05
      2.95650316e-05 2.41790731e-05 2.46514423e-06 7.39878442e-06
      9.29862654e-06 9.47251829e-06 3.22781161e-05 2.76774317e-05
      2.95083719e-05 5.22911296e-06 3.52252537e-05 4.20311117e-05
      4.28917010e-05 1.28510910e-05 2.86547984e-05 1.07283422e-05
      2.85113747e-05 2.55769337e-05 2.91947381e-05 3.82786857e-06
      3.27846064e-05 6.16995821e-05 3.55147677e-05 3.29469694e-05
      4.44558973e-05 8.77930233e-06 1.39915483e-05 1.68542556e-05
      3.57997487e-05 3.20590698e-05 4.86241188e-05 5.21353941e-05
      3.17026279e-05 2.13665171e-05 2.13015646e-05 1.57906434e-05
      2.71492045e-05 3.55141528e-05 3.86642096e-05 4.30307628e-05
      3.05567482e-05 1.68550705e-05 9.21204191e-05 5.17391672e-05
      -1.44996111e-05 7.35029389e-05 2.47292464e-05 -2.16899789e-05
      -1.51863496e-04 -1.54987356e-04 2.21610870e-04 1.68353537e-04
      1.77422626e-04 1.44672595e-04 1.87485639e-04 4.54463079e-05
      -6.26808687e-05 -1.22335423e-05 -5.24005736e-05 9.34622076e-05
      -1.46844497e-04 -8.48687414e-05 -2.10756203e-04 -3.54739568e-05
      3.62342253e-05 -1.13754948e-04 -4.10574430e-05 2.85279413e-04
      2.22308547e-04 1.83693221e-04 5.54994658e-05 5.68954929e-05
      5.56892483e-05 5.79951084e-05 3.42036728e-05 3.41174164e-05
      3.41084888e-05 5.58330430e-05 8.32657588e-06 2.87166472e-06
      7.39570169e-06 9.40841528e-06 3.64369953e-05 5.13880586e-05
      4.89472986e-05 2.04112930e-05 2.62283947e-06 2.65347779e-07
      1.31019397e-05 9.28600366e-06 7.03773139e-06 2.44796574e-05
      2.35795196e-05 2.87473431e-05 2.46100768e-07 9.42815041e-06
      2.67787982e-07 3.67165630e-05 5.62024907e-05 3.73242801e-05
      3.81695609e-05 4.43579484e-05 8.53120946e-06 8.86480302e-06
      1.12339058e-05 4.22142984e-05 2.83969330e-05 4.51670276e-05
      3.04154946e-05 1.45861477e-05 2.14455922e-05 2.13702915e-05
      2.33592818e-05 2.02360789e-05 2.66763909e-05 2.53011367e-05
      4.59119765e-05 3.41911946e-05 3.77444994e-05 9.60207617e-05
      4.15182039e-05 -3.65593987e-05 7.69295293e-05 1.25106044e-05
      -7.35108333e-05 -9.56297590e-05 -3.36536381e-04 3.42073065e-04
      1.30910761e-04 8.81135711e-05 1.37001873e-04 2.06938814e-04
      1.77930197e-05 8.15611384e-06 -3.24233333e-05 -4.09903187e-05
      -8.56006372e-05 -1.16356547e-04 -9.38267985e-05 -1.43645957e-04
      -1.07137857e-04 4.14446440e-05 -1.19099197e-04 9.86243613e-05
      1.69432562e-04 1.54575624e-04 2.92065288e-05 2.80955355e-05
      5.49312026e-05 5.44182731e-05 5.81482745e-05 6.33194140e-05
      3.90615205e-05 6.12033327e-05 6.11099022e-05 9.44382919e-06
      4.19105254e-06 7.52727055e-06 9.27543078e-06 9.91152319e-06
      2.43863324e-05 4.49600775e-05 4.89500562e-05 3.13369455e-05
      2.94791334e-05 7.67192523e-06 5.24709249e-05 2.01634539e-05
      2.00800770e-07 4.03947723e-07 2.89090913e-05 1.67546605e-05
      2.50990815e-05 1.67883154e-05 5.73266334e-06 5.06278957e-05
      2.97525949e-05 3.82404651e-05 4.97121800e-05 1.39493841e-05
      2.70380169e-05 1.13339165e-05 3.04320947e-05 3.05936737e-05
      4.14486167e-05 2.70202054e-05 1.56066944e-05 2.44702514e-05
      1.94855147e-05 1.99182177e-05 1.82206695e-05 2.95847967e-05
      2.49384593e-05 3.45498520e-05 2.39360670e-05 2.42248079e-05
      9.44731073e-05 5.34128194e-05 2.78551252e-05 2.63888160e-05
      4.57664864e-05 -5.79094594e-05 -3.17342419e-05 -8.75527403e-05
      3.66064865e-04 2.72731722e-05 -4.44999523e-06 5.27188568e-05
      -3.15565158e-05 6.95459221e-07 -6.59313737e-05 -1.33431473e-04
      -1.05927909e-04 -1.34178452e-04 5.64880393e-05 -1.53537156e-04
      -2.61370529e-04 6.60684600e-06 -3.62338396e-05 -1.02550977e-04
      -9.72562993e-05 1.00354591e-04 -1.69491774e-04 3.08480157e-05
      3.18234779e-05 5.40739202e-05 5.60860171e-05 5.73665966e-05
      6.32758674e-05 6.39556602e-05 5.37050291e-05 3.17289378e-05
      1.03596858e-05 4.55165582e-06 7.57166617e-06 9.27252040e-06
      9.67577398e-06 2.04045809e-05 1.86860016e-05 1.62132401e-05
      3.30946682e-06 4.72929827e-07 3.63602267e-05 2.48123379e-05
      2.34311228e-05 1.66865048e-05 6.42234284e-08 1.26673594e-05
      2.87652114e-07 9.15722194e-06 1.65734928e-05 5.59512318e-06
      5.05617245e-05 2.44644034e-05 3.26828304e-05 3.70849266e-05
      1.22202900e-05 1.74041470e-05 3.64167249e-06 2.29365669e-05
      3.38863465e-05 4.36304399e-05 1.59006759e-05 1.27283647e-05
      2.17297038e-05 1.96191249e-05 1.95371904e-05 2.19641570e-05
      1.44873311e-05 2.52833197e-05 3.42227322e-05 2.29006600e-05
      2.41325943e-05 1.06387401e-04 4.71470339e-05 3.72384784e-05
      1.41833571e-05 4.90377497e-05 -7.28418090e-05 2.07041994e-05
      -8.08310870e-05 2.13218445e-04 9.14952980e-05 -1.28515050e-04
      -1.21449935e-04 -2.92632667e-05 -1.10507281e-04 -1.98219714e-04
      -2.13588268e-04 -4.85205273e-05 -7.18673846e-06 -2.61106416e-05
      -1.74940913e-04 -2.83600733e-04 -2.99812178e-04 -3.14850263e-06
      -1.07689739e-04 -1.90678984e-05 -8.97535356e-05 -2.11878214e-04
      2.85201586e-05 2.75514140e-05 3.12447919e-05 5.38273671e-05
      5.74620535e-05 6.32294323e-05 8.43048474e-05 5.35213840e-05
      2.68743315e-05 3.18914681e-05 5.18693014e-06 9.68106906e-06
      7.32236458e-06 9.22612981e-06 2.22165727e-05 1.74525685e-05
      1.61773969e-05 1.16301601e-06 1.27647195e-06 8.22110633e-06
      8.07418564e-06 1.66527498e-05 1.66804093e-05 1.64457088e-05
      2.89203726e-05 1.63708482e-05 9.08351376e-06 1.65448455e-05
      7.58386633e-08 5.07624354e-05 2.46831733e-05 2.51026941e-05
      4.34533540e-05 4.66899564e-06 4.61563604e-06 1.33479953e-05
      2.29299058e-05 1.90511073e-05 4.66653619e-05 1.63652840e-05
      1.09379553e-05 1.02347849e-05 1.94967342e-05 1.21578405e-05
      6.91206105e-06 2.22368890e-05 2.10769394e-05 2.81756948e-05
      2.02437677e-05 2.46813252e-05 8.47555712e-05 5.16299478e-05
      2.28014142e-05 2.13722660e-06 3.33324933e-05 -1.27561871e-04
      -8.06930439e-06 -6.61391678e-05 8.60776854e-05 -8.54619648e-05
      1.30569926e-04 -4.92017643e-05 -7.68770842e-05 -7.53212953e-05
      -5.27682751e-05 -2.16209024e-04 2.72411180e-05 7.70435727e-05
      -2.17378165e-05 -1.24586563e-07 -9.73138958e-05 -1.61007425e-04
      9.10087547e-05 4.47962811e-05 1.57227667e-04 8.74697434e-05
      -6.56495322e-05 6.31147850e-05 5.83836409e-05 3.16144469e-05
      3.41805426e-05 3.38163627e-05 3.94632116e-05 6.07258262e-05
      2.69110478e-05 2.62834546e-05 2.66812403e-05 4.42951205e-06
      9.37578898e-06 8.10290658e-06 2.66893076e-05 2.16168010e-05
      1.62688393e-05 1.63169116e-05 1.63740006e-05 1.63182940e-05
      9.74693876e-07 7.70605493e-06 7.17005469e-06 7.15414126e-06
      2.34442055e-07 1.94288004e-05 1.67156977e-05 2.52744394e-05
      1.64897774e-05 2.29810539e-07 5.59656983e-05 2.42775568e-05
      2.54935112e-05 4.45461774e-05 1.03075954e-05 3.76941193e-06
      1.86474535e-05 3.24469802e-05 3.37386009e-05 2.27367836e-05
      3.31796514e-07 1.21297107e-05 1.79239178e-05 1.92808075e-05
      1.21459698e-05 8.65380025e-06 7.51809193e-06 7.07849449e-06
      2.50018384e-05 2.31905669e-05 2.92080658e-05 9.63460843e-05
      -1.74491470e-05 2.24748328e-05 6.84872866e-05 -1.71557491e-04
      1.78548380e-05 -1.31190818e-05 -9.93172507e-05 -7.45476646e-05
      -1.68943196e-04 -6.84918132e-06 1.24572878e-04 -7.51264015e-05
      -6.39554928e-05 -2.02912910e-04 -2.80870852e-04 -3.99245182e-05
      -7.77916575e-05 5.75895456e-06 4.34698850e-05 -7.46810620e-05
      1.01826074e-04 -7.41110125e-06 -4.51527846e-08 5.97254584e-05
      3.49298389e-05 -1.41495286e-04 5.67292045e-05 5.59943473e-05
      5.75897575e-05 5.71380806e-05 5.78845611e-05 2.92697969e-05
      8.01167153e-06 4.25157032e-06 2.57316879e-06 2.67538289e-05
      2.84041707e-05 9.31540490e-06 7.60982311e-06 2.08049241e-05
      1.74802462e-05 1.72710934e-05 1.71710362e-05 1.65692254e-05
      1.61831558e-05 3.86122885e-08 7.41568465e-06 1.51161359e-07
      1.82255633e-08 1.63289556e-07 1.28674810e-05 1.16341807e-08
      9.30177430e-06 9.20604816e-06 2.98275645e-05 5.59625987e-05
      2.43717259e-05 2.51530782e-05 3.67455032e-05 1.44108108e-05
      8.67234485e-06 1.40787015e-05 2.31235390e-05 2.57536631e-05
      2.98852829e-05 2.21734008e-05 2.19151516e-05 1.17054615e-05
      2.15756827e-05 2.19950944e-05 6.32828687e-06 6.22956486e-06
      7.99559893e-06 1.49819844e-05 5.25638552e-06 9.13576969e-06
      8.49815842e-05 -3.48765388e-05 2.39498640e-05 1.42305798e-04
      7.16434224e-05 -1.98360620e-04 1.79746799e-04 4.76578534e-05
      -8.12583021e-05 5.62432615e-05 1.06430256e-04 1.63930072e-05
      1.11492096e-04 -4.68790931e-05 7.06134524e-05 -2.52844620e-04
      -1.48072853e-04 -1.54008972e-04 3.80138808e-05 -6.90730449e-05
      -1.59135016e-04 -2.84859096e-04 1.42388526e-05 4.76386813e-05
      5.62927598e-05 2.19447829e-05 -1.14588875e-04 8.56123370e-05
      8.46007169e-05 8.53523161e-05 5.31376754e-05 5.26256590e-05
      4.83625263e-05 5.78622785e-05 3.39027793e-05 8.01602528e-06
      1.23751279e-05 3.34015349e-05 5.79799053e-05 7.33506977e-06
      2.06694094e-05 1.60180680e-05 1.60795389e-05 1.73251465e-05
      1.61155222e-05 1.62723336e-05 4.23649254e-07 1.25058896e-05
      1.24434309e-05 4.91843309e-07 2.02377535e-07 1.23836980e-05
      4.11360162e-07 9.19390004e-06 1.42517283e-05 2.48368451e-07
      5.08721532e-05 2.41832804e-05 2.54303777e-05 4.04324819e-05
      1.41475284e-05 2.36439264e-05 1.81465457e-05 3.27294656e-05
      2.11723709e-05 1.85130430e-05 1.34778811e-05 1.71411812e-05
      1.14485947e-05 1.94551067e-05 1.46346074e-05 1.36409717e-05
      1.32029945e-05 5.62026435e-06 1.77645034e-05 8.19990419e-06
      1.00051648e-05 2.21481969e-05 -3.18503371e-05 1.46599932e-05
      5.77540559e-05 1.44666410e-04 -9.27270885e-05 6.35675024e-05
      9.92929345e-05 6.06777503e-05 1.13125781e-04 8.31579237e-05
      1.14796312e-04 -6.15505269e-05 -1.06488187e-04 1.35247508e-04
      -7.28159794e-05 -1.51620057e-04 1.98113212e-05 -4.42925339e-05
      -1.48879015e-04 -1.93015847e-04 -2.08512676e-04 3.51852468e-05
      5.35220934e-05 6.14138844e-05 2.26635857e-05 -1.15032672e-04
      8.49303251e-05 8.47211704e-05 5.29733043e-05 5.26726653e-05
      7.43420096e-05 8.05091549e-05 5.31330443e-05 3.19042701e-05
      2.92397999e-05 3.44139880e-05 3.16991645e-05 5.76986968e-05
      3.50916962e-05 3.00156971e-05 4.25226135e-05 4.22811463e-05
      4.25735998e-05 4.28008098e-05 4.36975315e-05 1.05610320e-06
      2.51058427e-05 1.24331245e-05 1.25818287e-05 1.28011588e-05
      2.49525201e-05 1.25468396e-05 9.36801007e-06 9.42200677e-06
      2.95969330e-05 5.05011667e-05 2.99833828e-05 2.52914888e-05
      4.05732171e-05 1.09514640e-05 6.72361330e-06 1.86726484e-05
      3.74178017e-05 3.67011999e-05 2.77043109e-05 1.57206450e-05
      1.93121050e-05 9.24467349e-06 2.17352463e-05 1.48425752e-05
      1.33274525e-05 6.67867255e-07 5.20720459e-06 2.50224966e-05
      1.05739546e-05 9.88426746e-06 2.22178769e-05 -3.72168870e-05
      7.22900440e-05 1.63101431e-05 5.35543631e-06 2.59640419e-05
      1.50583539e-04 6.37057165e-05 -2.79786691e-05 -1.50707594e-04
      -2.93536123e-05 -9.39449528e-05 -5.23766175e-06 -6.20428837e-05
      5.32474296e-05 -3.90661298e-05 -6.95458948e-05 -7.89587066e-05
      -1.37688121e-05 6.00281510e-06 -8.44341339e-05 3.98712546e-05
      4.31497865e-05 5.42930939e-05 5.84060181e-05 -5.29004210e-05
      -1.15377938e-04 5.35276777e-05 5.30615689e-05 5.26451113e-05
      5.30129546e-05 7.44991630e-05 5.26656295e-05 5.25219075e-05
      3.28261885e-05 2.86873055e-05 3.86412175e-05 3.22163687e-05
      3.36990051e-05 3.52412462e-05 4.57047936e-05 4.30889049e-05
      4.27163723e-05 4.25897451e-05 4.25923681e-05 4.28624880e-05
      2.74181511e-05 3.89742017e-05 3.86915526e-05 3.87817854e-05
      4.37517047e-05 5.12129445e-05 3.90398200e-05 3.51551898e-05
      3.52714669e-05 5.60995104e-05 5.06516299e-05 2.98773284e-05
      3.05533977e-05 7.26657890e-05 1.49788675e-05 1.20979776e-05
      9.06188779e-06 2.33112114e-05 2.29624184e-05 1.82563617e-05
      6.24979930e-06 9.46609634e-06 2.22168164e-05 1.48179524e-05
      9.33069896e-06 9.86471969e-06 1.43736543e-06 -1.33105926e-08
      1.81214054e-05 7.42620068e-06 5.90693207e-06 1.93655505e-05
      -3.87931977e-05 7.33804482e-05 -2.03261097e-05 1.31595938e-04
      1.18575792e-06 8.28731063e-05 7.51230473e-05 -6.94067639e-05
      -1.57758448e-04 -1.64470388e-04 -3.23270906e-05 5.29893077e-05
      -5.12282713e-05 -3.74298106e-05 1.08013064e-05 5.15341235e-05
      -1.81386626e-04 -4.51093401e-05 -8.24274321e-05 -1.04532017e-04
      -6.63071696e-05 3.01727614e-05 -2.59318149e-05 -8.41306392e-05
      -4.68936087e-05 -1.23258316e-04 7.59673712e-05 7.53029526e-05
      7.54260254e-05 7.83111973e-05 1.00054895e-04 7.52983033e-05
      7.52631240e-05 6.43140447e-05 5.45635994e-05 6.19249913e-05
      6.12423173e-05 5.76599523e-05 5.31290716e-05 6.72391325e-05
      6.50350994e-05 6.57194396e-05 6.50425136e-05 6.49447393e-05
      6.49029316e-05 4.90174061e-05 3.89257184e-05 2.67469331e-05
      3.86584143e-05 3.87632826e-05 5.12514307e-05 3.89273409e-05
      3.54348231e-05 3.54760705e-05 5.13331033e-05 7.70017505e-05
      5.08386038e-05 5.46965348e-05 7.22261830e-05 3.59464466e-05
      3.80498241e-05 3.81445279e-05 5.82940665e-05 4.47561360e-05
      4.85974851e-05 3.53893192e-05 8.95951689e-06 2.19887079e-05
      4.07106090e-05 5.51650828e-06 1.35254886e-05 1.22467873e-05
      2.77764087e-07 2.27116361e-05 -2.07418520e-06 7.91557522e-06
      1.86221678e-05 -3.74589108e-05 7.17215153e-05 -4.34910908e-06
      1.33809852e-04 7.30008333e-06 1.08949644e-05 1.18821081e-04
      -1.43889702e-04 -1.87199112e-04 -1.94022417e-04 -4.57010538e-05
      -8.69718860e-05 -7.01486861e-05 1.17322292e-04 1.14260954e-04
      8.20238274e-05 -7.87329263e-05 1.08566073e-05 3.68628425e-05
      -6.84303886e-05 -1.75927576e-04 -9.42447950e-05 -1.20524215e-04
      8.07391043e-05 1.96665701e-06 -5.29916397e-05 4.72282009e-05
      4.97861292e-05 4.70077975e-05 4.68721591e-05 7.13814734e-05
      4.68080143e-05 4.67557729e-05 3.28668611e-05 2.77402905e-05
      2.49243913e-05 3.50401860e-05 3.41329651e-05 2.59890421e-05
      3.96089454e-05 6.56948541e-05 6.50016736e-05 6.50118018e-05
      6.51840310e-05 6.50369620e-05 4.88781116e-05 6.13925513e-05
      4.90242273e-05 4.91408537e-05 6.11089636e-05 7.36666698e-05
      6.12078657e-05 6.32926167e-05 6.37222183e-05 7.80970440e-05
      1.04745588e-04 7.31692635e-05 7.73263237e-05 7.84918084e-05
      5.87976938e-05 6.73903050e-05 6.03471199e-05 8.03423754e-05
      6.77322969e-05 7.06571009e-05 3.59228543e-05 3.89556553e-05
      4.87237230e-05 4.40281110e-05 3.17502563e-05 3.14542885e-05
      3.22270571e-05 2.97403094e-05 4.04993989e-05 2.98019058e-05
      3.64092994e-05 4.58362592e-05 -6.86967905e-06 1.06657943e-04
      -2.54087372e-05 1.28192565e-04 2.75720140e-05 2.30336882e-05
      3.91329668e-05 -4.27677078e-05 -7.36038492e-05 -1.00005891e-05
      -1.06179432e-05 -2.30839738e-04 -8.80760490e-05 -1.13477308e-05
      -6.96300194e-05 1.19707795e-04 -1.52704626e-04 -1.04525658e-04
      -1.63423956e-05 -1.34180504e-04 -1.40359014e-04 2.46269974e-05
      4.49037034e-05 -3.54994918e-05 -1.59711126e-05 -1.12076232e-04
      7.70146507e-05 7.25156569e-05 7.88177567e-05 9.39326055e-05
      7.46460428e-05 7.23349513e-05 2.40460759e-05 9.98986889e-06
      5.30629541e-06 2.75806929e-06 1.21421481e-05 8.79469007e-06
      3.27772523e-06 1.60462969e-05 1.62248452e-05 1.70369476e-05
      1.63096975e-05 1.62253018e-05 1.64908270e-05 1.16016167e-06
      1.25112083e-05 2.64382578e-07 3.30156752e-07 1.27151125e-05
      1.26202303e-05 1.64178573e-07 1.44011337e-05 9.33395404e-06
      3.46658339e-06 1.11084242e-04 7.34801288e-05 7.72266794e-05
      8.07844845e-05 5.35482977e-05 5.26632975e-05 7.06829305e-05
      8.29455894e-05 5.82748071e-05 6.71716843e-05 5.46979718e-05
      5.79856533e-05 6.71243179e-05 6.27977061e-05 5.35819418e-05
      5.09126658e-05 5.12272964e-05 5.73373436e-05 6.75262927e-05
      4.83400727e-05 5.76783787e-05 5.71845048e-05 1.41611908e-05
      1.89991886e-04 3.42095627e-05 1.74626621e-04 1.57537957e-04
      -1.63173172e-04 4.32595625e-05 -7.22266632e-05 4.28063358e-05
      -1.98521448e-04 1.18695869e-04 -1.20881130e-04 -1.55361879e-04
      1.12682792e-04 4.71571111e-05 -5.40313777e-05 -9.78452154e-05
      -1.84546851e-04 -2.58947053e-04 -1.67503822e-04 -1.45594895e-04
      -2.65184644e-05 -7.12365654e-05 -1.46391074e-04 -8.50594661e-05
      8.63785972e-05 4.37738963e-05 2.45175161e-05 3.07973969e-05
      6.18212362e-05 3.42192325e-05 2.70273449e-05 2.44323564e-05
      1.20881751e-07 1.53688197e-05 5.04834316e-05 5.04176351e-05
      6.69876972e-05 5.03553674e-05 6.40630678e-05 6.39934515e-05
      6.42161394e-05 1.60424479e-05 6.47029810e-05 1.62441447e-05
      1.26550276e-06 1.27840649e-05 3.94799230e-07 4.89334809e-07
      1.27631092e-05 1.31363458e-05 1.95095652e-07 8.97455539e-06
      1.57362665e-05 2.27360142e-05 7.27877559e-05 5.34247338e-05
      6.31726289e-05 3.71380956e-05 5.42106864e-06 4.02381693e-06
      1.66552109e-05 3.15416401e-05 8.50925517e-06 1.87089572e-05
      5.72695535e-06 5.01615477e-06 1.86041252e-05 1.37050836e-06
      4.10630810e-06 2.85549104e-05 2.73007190e-05 2.65340113e-05
      3.72412105e-05 2.56645872e-05 5.90735181e-05 5.89692609e-05
      8.65779293e-06 1.80181392e-04 1.83331886e-05 1.54667767e-04
      4.38436618e-05 -9.73752976e-05 -7.60770490e-05 -1.73193432e-04
      2.30356090e-06 -1.65122838e-04 -3.20038248e-06 -1.97647722e-04
      -5.94245539e-05 1.64791345e-04 4.31125591e-05 1.23965918e-04
      4.28680551e-06 -1.39741096e-04 1.09070461e-04 -1.54780646e-04
      -3.89678498e-05 -1.83012853e-05 -5.99534869e-05 -1.20086908e-04
      -6.46574845e-05 1.19539771e-04 7.65519726e-05 6.92220856e-05
      4.66262863e-05 7.47461963e-05 5.74368714e-05 4.65949925e-05
      4.68865364e-05 2.52027057e-05 3.58110992e-05 2.49564746e-05
      2.74447139e-05 2.98560226e-05 2.61950881e-05 3.97238800e-05
      3.84346240e-05 3.87638574e-05 4.00221688e-05 3.96716605e-05
      1.76984686e-05 4.61228865e-07 1.26828136e-05 4.81842580e-05
      5.13648956e-05 6.38525453e-05 6.08569098e-05 5.15508655e-05
      6.22705120e-05 6.89318622e-05 8.04773372e-05 1.23838530e-04
      1.02350888e-04 5.83066212e-05 3.72537834e-05 7.49657420e-06
      4.05894707e-06 1.38383075e-05 1.80893458e-05 4.52040285e-06
      1.32232817e-05 2.34755385e-06 5.02657713e-06 1.82950080e-05
      1.07323376e-06 4.59729745e-06 2.30533055e-06 3.26961481e-06
      2.63539050e-06 1.12424123e-05 1.60238983e-06 3.33601929e-05
      3.86874672e-05 -8.51637196e-06 9.84714789e-05 1.70589729e-07
      7.70165570e-05 8.97797072e-05 -1.31967186e-04 -3.07924376e-04
      -1.74052315e-04 -4.37288327e-05 7.20900862e-05 -1.44586287e-04
      -1.11262030e-04 -2.67809719e-05 1.56854687e-04 7.63779171e-05
      -5.12701044e-05 -5.54874714e-05 -1.37892508e-04 1.29371154e-04
      6.66117194e-05 -1.53853587e-04 -5.27938755e-06 -5.40725014e-05
      -1.37365219e-04 -9.21579849e-05 4.94476699e-05 3.09963834e-05
      4.32418346e-05 2.44013681e-05 4.72913816e-05 3.41877458e-05
      1.18741018e-05 1.93881576e-07 2.67609471e-06 1.30795752e-05
      3.18097182e-06 4.17101364e-06 3.07402593e-06 6.85256509e-08
      1.71148276e-05 1.75846726e-05 1.65519232e-05 1.62342858e-05
      1.71827614e-05 1.73044318e-05 3.12571729e-07 1.28910360e-05
      5.67072675e-07 3.21026687e-06 1.57034119e-05 1.89951061e-05
      3.98911379e-06 1.39975355e-05 2.82940473e-05 1.25977313e-05
      2.48256802e-05 5.05714052e-05 2.49959685e-05 3.91176945e-05
      4.85308010e-06 5.18987727e-05 5.17917179e-05 1.07397114e-04
      5.20471331e-05 6.24401946e-05 4.99288399e-05 5.29197896e-05
      1.11862217e-04 9.49397363e-05 9.47777880e-05 5.21211368e-05
      4.76435480e-06 3.36925109e-06 1.20244495e-05 1.05721210e-05
      3.32460113e-05 1.68391834e-05 -5.18826346e-05 1.44904290e-04
      -4.60962337e-06 7.05923012e-05 6.09117851e-05 -3.44592117e-05
      -2.96836661e-04 -1.77197744e-05 7.46865851e-07 -1.06740750e-04
      -4.35799375e-05 3.29239701e-05 -6.30268914e-05 9.69426474e-05
      -6.25085740e-05 1.08554550e-05 -2.73080732e-05 -2.66106043e-04
      -6.59345969e-05 -2.62210640e-04 2.21810245e-04 3.70761263e-05
      -2.22233008e-04 -1.60514188e-04 -7.54454159e-05 3.70270136e-05
      4.00664903e-05 3.25530891e-05 2.81499761e-05 2.33231422e-05
      8.10532219e-06 1.74878824e-06 1.69497559e-06 2.42595233e-05
      4.74160015e-06 3.30030412e-06 2.83457866e-05 2.69362808e-05
      2.44449240e-07 1.65608399e-05 1.64522826e-05 1.63091227e-05
      1.60899181e-05 1.63167442e-05 9.06321759e-07 6.52251344e-07
      1.25089118e-05 3.70247176e-06 1.33474668e-05 2.59541503e-05
      1.96318124e-05 1.57497889e-05 1.55733214e-05 1.45569757e-05
      5.71664386e-05 5.34573301e-05 5.15178290e-05 4.70253035e-05
      3.89596462e-05 6.04633860e-05 4.95688910e-05 3.81836708e-06
      4.14674196e-06 4.73361388e-06 1.43747793e-05 1.87873707e-06
      5.16006912e-06 1.79747713e-05 1.16789067e-06 2.84300404e-06
      1.78617029e-06 4.27945224e-06 5.14899148e-05 7.01190511e-05
      5.91857352e-05 6.34414610e-05 6.80861776e-05 -3.31707588e-06
      1.31085486e-04 3.03297547e-05 1.20525379e-04 -1.74016932e-05
      3.87857945e-05 -2.21061229e-04 -9.10829403e-05 2.82633009e-05
      -1.41341239e-04 -5.88132461e-05 7.71392843e-06 8.78086285e-05
      -4.04742495e-05 -1.94791530e-04 -4.70377529e-07 -4.41892807e-05
      9.88494867e-06 5.05895259e-05 -2.01335279e-04 1.88899823e-04
      2.26157907e-04 -7.00521559e-05 -6.16920261e-06 1.93420419e-05
      1.61946606e-04 1.74202098e-04 1.68323691e-04 3.45457465e-07
      2.21492810e-05 6.64860352e-07 1.52654138e-06 2.52356585e-06
      2.57372576e-05 2.70674755e-05 3.54046665e-06 2.94157544e-05
      2.75848106e-05 2.51465044e-05 1.69991799e-05 1.72426044e-05
      1.74800043e-05 1.80322804e-05 4.06297295e-05 1.60222567e-06
      1.18605692e-06 1.72645996e-05 8.01931310e-06 1.08464692e-05
      2.41911694e-05 8.15027215e-06 1.67073158e-05 1.05215386e-05
      1.03064522e-05 7.31573309e-05 4.16795956e-05 1.03213730e-04
      2.47646658e-05 3.44533619e-05 1.50361084e-05 3.74172737e-06
      3.77224887e-06 5.12014094e-06 4.86578392e-06 1.74952511e-05
      2.00154363e-06 4.93478819e-06 1.83945067e-05 9.95804612e-07
      5.40849896e-06 4.30356704e-06 4.48117135e-06 3.25268456e-06
      1.71728752e-05 1.09074444e-05 2.73058813e-05 2.29695943e-05
      3.39128128e-05 8.60022847e-05 -7.70757254e-07 8.16774918e-05
      -6.84369516e-05 -1.93785672e-04 -2.28227160e-04 -1.02676619e-04
      5.22730406e-05 -1.48433086e-04 -2.70980410e-04 -7.82764473e-05
      -2.80225358e-05 -5.60945555e-05 -2.04614364e-04 7.71436826e-05
      -9.31598188e-05 -1.29508669e-04 5.60363987e-05 2.75347284e-05
      1.40045624e-04 1.99238842e-04 7.33391789e-05 -3.82186636e-06
      2.26007378e-05 1.62383381e-04 1.73549648e-04 1.68832848e-04
      1.71826672e-04 1.93703178e-04 6.72326507e-07 1.77851393e-06
      8.49370338e-07 2.51345500e-05 2.70683304e-05 2.67475589e-05
      4.63550077e-06 2.84488033e-05 2.45450337e-05 4.63327560e-05
      2.37668391e-05 2.44924977e-05 2.36312135e-05 2.45491065e-05
      6.61316835e-06 1.24693133e-05 7.15912165e-06 1.66499667e-05
      1.70695366e-05 2.90424341e-05 6.82694190e-06 5.22118862e-05
      6.51188093e-05 6.12994554e-05 3.95142015e-05 2.58983418e-05
      5.72576973e-05 2.49263576e-05 3.45500193e-05 4.58038994e-06
      4.21914319e-06 9.53302242e-06 5.21532093e-06 4.98097370e-06
      2.01839794e-05 7.78040248e-06 1.09622970e-05 1.81470314e-05
      9.82968322e-06 1.02381700e-05 3.78778645e-06 1.05261761e-05
      1.03097655e-05 2.90866446e-05 2.60624765e-05 3.18447310e-05
      2.15214859e-05 3.24537214e-05 9.37946897e-05 -1.41338751e-06
      7.63636781e-05 6.41562074e-05 -2.25612035e-04 -7.67277088e-05
      -3.36880839e-05 2.68922722e-05 -1.38172574e-04 -2.23200594e-04
      -1.66089492e-04 -6.95385097e-05 -1.82949407e-05 -2.96342070e-04
      1.55588961e-04 1.42933350e-04 -2.07830690e-05 1.32143643e-04
      -1.52280409e-04 4.80903574e-04 6.55474196e-06 -3.55230004e-05
      -1.30343033e-05 4.53865723e-05 1.91506828e-04 1.60359879e-04
      1.73004679e-04 1.60298907e-04 1.84070406e-04 1.81780430e-04
      1.82018237e-04 2.17434354e-05 5.57872056e-07 3.53880278e-05
      3.63751169e-05 3.69632216e-05 2.50041612e-05 3.97771691e-05
      5.49050965e-05 4.61042946e-05 3.80025667e-05 3.87418186e-05
      2.42288970e-05 1.39769654e-05 6.89579065e-06 1.66869904e-05
      1.20564882e-05 1.33603271e-05 2.96383932e-05 7.17773719e-06
      6.42940722e-05 2.83976642e-05 1.62630058e-05 3.31621632e-05
      4.04341190e-05 5.38884560e-05 2.97376337e-05 2.49910063e-05
      2.44644116e-06 4.62209584e-07 1.17750178e-05 1.01648629e-05
      9.91272100e-06 1.98520866e-05 7.73767169e-06 1.09199318e-05
      2.70080873e-05 8.00941962e-06 1.10474730e-05 1.00537673e-05
      2.25514341e-05 2.09150712e-05 2.58014788e-05 3.99324163e-05
      3.65099186e-05 2.96371527e-05 3.78824589e-05 1.78603586e-04
      8.05463696e-06 8.87737478e-05 3.84339910e-05 -2.29164347e-04
      -3.45689114e-05 6.31540315e-05 3.57593308e-05 -2.32907070e-04
      -2.48874043e-04 -6.66588239e-05 4.81755706e-05 -1.06247426e-04
      -2.57832609e-04 4.81001553e-05 2.90274165e-05 -1.74541448e-04
      6.61972581e-06 -1.90591192e-04 1.06616950e-04 8.70178701e-05
      -2.62351932e-05 9.83209320e-05 1.34314861e-04 5.34071296e-05
      3.10193172e-05 4.61612399e-05 3.06630282e-05 5.21556285e-05
      3.05660687e-05 3.09907628e-05 5.45363037e-05 5.41695117e-05
      3.62134888e-05 3.78127515e-05 3.70283306e-05 3.34141951e-05
      3.43581269e-05 2.60504803e-05 4.93330517e-05 3.23746171e-05
      3.30125076e-05 2.70163491e-05 2.51836409e-05 1.62908455e-05
      3.42887397e-05 6.11880096e-05 5.50385230e-05 2.85734222e-05
      1.00304815e-05 9.98465475e-06 2.43450122e-05 2.45946067e-05
      3.67082685e-05 3.47617570e-05 5.64535403e-05 3.93374830e-05
      3.69470945e-05 1.27688591e-05 1.48974959e-05 1.28014080e-05
      7.12022847e-06 2.49034038e-05 3.48778631e-05 2.22661547e-05
      1.60981181e-05 3.20467589e-05 7.63952357e-06 2.15261043e-05
      1.00673142e-05 2.02679494e-05 2.18247642e-05 3.88535118e-05
      3.50037517e-05 3.45920962e-05 1.70252661e-05 4.36758746e-05
      1.86639707e-04 1.92775027e-04 6.73914474e-05 9.57115990e-05
      -3.53947689e-04 6.45015316e-05 -3.32456621e-05 5.90146192e-05
      -1.60618656e-04 -1.83588374e-04 9.82061756e-05 -8.50815777e-05
      -8.67585914e-05 -4.05459112e-04 2.79352360e-04 1.40553457e-04
      -7.53866116e-05 1.91402607e-04 -6.69714645e-05 1.01711594e-04
      1.11415451e-04 -1.84513730e-04 3.96731848e-05 1.49975443e-04
      5.30385769e-05 5.46980082e-05 6.46052722e-05 5.31630139e-05
      7.40003888e-05 5.26222429e-05 5.46851516e-05 7.52167180e-05
      7.75697044e-05 6.56830307e-05 6.56435732e-05 3.81645732e-05
      3.47923087e-05 5.03643714e-05 4.87285870e-05 5.57447638e-05
      3.26808367e-05 3.25259789e-05 4.46484228e-05 1.86053458e-05
      6.42847954e-05 7.61641350e-05 1.84846322e-05 2.53693652e-05
      2.84706257e-05 1.55119287e-05 1.00530351e-05 1.87723745e-05
      1.88417034e-05 3.61009661e-05 3.39784965e-05 5.64021611e-05
      3.68531146e-05 3.68966903e-05 1.79543804e-05 1.29070013e-05
      1.96921010e-05 6.77997887e-05 3.57745666e-05 2.61675596e-05
      1.62735450e-05 4.02964397e-05 4.79532246e-05 1.15219427e-05
      2.59070421e-05 2.45025203e-05 2.48907163e-05 2.44453877e-05
      3.79294543e-05 2.00902978e-05 2.95020418e-05 4.19649150e-05
      6.98125659e-05 1.56081151e-04 2.02508192e-04 6.67301720e-05
      1.12682246e-04 -2.44246476e-04 9.42100814e-05 5.73287325e-05
      -1.37369469e-04 -9.55691285e-05 -3.05535155e-04 -5.37673441e-05
      -5.34194369e-05 -5.28267483e-05 -2.50551064e-04 9.61070036e-05
      -5.14831263e-05 -1.02269893e-04 2.44198076e-04 -1.31275752e-04
      1.61841861e-04 1.59318981e-04 -1.22427024e-04 1.74960660e-04
      2.88242998e-04 5.11141370e-05 5.24051793e-05 3.44641849e-05
      5.25760152e-05 5.24176867e-05 5.21701477e-05 5.20714348e-05
      7.53837012e-05 8.47132542e-05 7.79480324e-05 7.76854577e-05
      6.69880610e-05 5.40914662e-05 2.36272299e-05 4.69018050e-05
      1.75150726e-05 1.78892751e-05 1.63793095e-06 4.62765165e-05
      5.50066579e-05 9.19724971e-06 3.09438728e-05 1.83381253e-05
      1.84403652e-05 2.23726165e-05 1.53214005e-05 9.71910868e-06
      1.91722975e-05 1.85765402e-05 3.64723965e-05 4.00651224e-05
      5.69405747e-05 3.46705165e-05 3.55343800e-05 1.85077060e-05
      1.24030003e-05 2.03493146e-05 2.19325721e-05 8.64964532e-05
      3.74152951e-05 1.87397709e-05 2.61295827e-05 4.89524609e-05
      2.34787949e-05 2.50621360e-05 2.45858173e-05 2.66708703e-05
      2.88468127e-05 4.04429702e-05 2.90521984e-05 1.03502862e-04
      1.15615781e-04 6.71597736e-05 1.32413305e-04 8.94180994e-05
      6.15846729e-05 1.49678992e-04 -2.48707569e-04 7.46334554e-05
      2.13994008e-06 -1.54696463e-05 -1.91686515e-04 -3.68918729e-04
      2.23162806e-05 -4.82622090e-05 3.90257774e-05 -3.41530918e-04
      6.96055795e-05 -1.20525321e-04 -7.59653776e-05 1.51848159e-04
      -1.66149970e-04 9.40097016e-05 1.27598454e-04 -2.36426582e-04
      1.67899911e-04 1.97853326e-04 7.72685962e-05 7.70705956e-05
      6.77579301e-05 7.72144776e-05 7.68953541e-05 7.75577864e-05
      7.76893867e-05 7.77031892e-05 8.71419106e-05 1.02575999e-04
      1.02675185e-04 1.04172366e-04 1.03472332e-04 8.19970446e-05
      9.46493019e-05 7.30212050e-05 7.31555119e-05 1.02153652e-04
      1.01986247e-04 5.55926053e-05 6.43073872e-05 7.66737940e-05
      6.43309759e-05 6.45165564e-05 6.79548320e-05 6.08076662e-05
      5.61587440e-05 6.43758685e-05 7.05883649e-05 8.70916265e-05
      8.53017336e-05 1.07955500e-04 8.27967815e-05 8.26460891e-05
      6.35582328e-05 6.39478094e-05 6.91979949e-05 7.61249394e-05
      1.41594326e-04 1.18595664e-04 7.89301484e-05 8.04030133e-05
      9.44381391e-05 7.80410410e-05 8.08195691e-05 6.92575923e-05
      6.81629026e-05 7.20065073e-05 1.70337225e-04 1.66629819e-04
      1.65069636e-04 1.72169646e-04 1.10085573e-04 9.48184388e-05
      2.00368144e-04 8.06176758e-05 5.21152615e-05 -1.55041649e-04
      4.15403847e-05 4.30485998e-05 -4.37933159e-06 -1.91107029e-04
      -4.52311244e-04 -3.04719200e-04 -2.07688907e-04 6.90851884e-05
      -2.62686983e-04 -1.73140397e-05 7.60655457e-05 1.68845727e-05
      6.05720270e-05 -5.58880929e-05 2.67497438e-04 -1.79176073e-04
      -3.11477634e-04 8.67404597e-05 1.22095938e-04 -5.33480772e-07
      9.37241794e-07 8.96978520e-07 4.80699612e-07 1.52534733e-06
      2.23627030e-05 1.30950082e-06 1.89143998e-06 1.04384380e-05
      3.48571712e-06 2.57560478e-05 2.60221113e-05 2.49018376e-05
      2.68221702e-05 1.62136075e-05 1.66580066e-05 6.22115040e-05
      4.72574138e-05 4.01600744e-07 8.09185849e-07 1.35593638e-07
      2.13330277e-05 9.25932272e-06 7.97057851e-08 1.25099050e-05
      6.80668606e-08 5.52816118e-06 9.32939474e-06 1.03433949e-05
      2.64180017e-05 2.52127920e-05 5.21618713e-05 2.73914102e-05
      2.76497776e-05 8.10477195e-06 9.60918169e-06 6.37266521e-06
      9.81374615e-06 8.15456224e-05 6.97257783e-05 1.98905855e-05
      1.54966092e-05 2.82767323e-05 8.47588865e-07 3.24166831e-06
      2.53363282e-06 1.54489517e-05 2.63710699e-05 1.00449281e-04
      9.03086257e-05 8.27648983e-05 1.00298756e-04 5.66012823e-05
      2.64129994e-05 -1.85754339e-04 7.11826169e-06 -9.70914243e-06
      -2.00882292e-04 1.71837688e-04 -3.14391436e-05 1.85396621e-05
      -7.29400563e-05 -4.26575512e-04 -3.52967822e-04 -2.74754075e-05
      -1.40763324e-04 -1.89207916e-04 -1.44840988e-05 1.56148963e-04
      3.91585309e-05 6.15183308e-05 -8.23730152e-05 -1.20404286e-04
      -2.04436845e-04 -2.83648405e-04 2.05491906e-05 1.95670014e-04
      1.26141245e-07 7.08945720e-07 8.85872453e-07 8.81297638e-07
      8.74309421e-07 2.22680446e-05 5.66868039e-07 1.40334714e-06
      1.03747225e-05 2.90626986e-06 4.07968673e-06 2.16621993e-06
      1.05729123e-05 2.12514478e-05 1.72768250e-05 1.64838311e-05
      6.21590734e-05 7.94127402e-07 1.07228027e-06 6.39834070e-07
      9.39901838e-07 1.28945976e-05 1.15738089e-07 5.57728697e-07
      1.28270794e-05 9.82963613e-08 6.42299528e-06 9.52680875e-06
      1.05483650e-05 2.67601499e-05 2.45891424e-05 5.24741372e-05
      2.78853531e-05 3.27198104e-05 4.09184440e-06 9.07658887e-06
      5.93559480e-06 1.47020255e-05 4.19828320e-05 1.00379970e-04
      6.83132166e-05 1.68913248e-05 1.36329054e-05 1.01928379e-06
      3.46557385e-06 1.45164004e-05 1.71220454e-05 2.16678109e-05
      9.60097968e-05 1.00299374e-04 1.02021993e-04 1.16964897e-04
      1.17123498e-04 1.87268924e-05 -1.07038104e-04 -3.40281949e-05
      5.49410252e-05 -1.41590581e-05 2.36246808e-04 1.37306823e-04
      2.81893968e-04 -1.30328001e-04 -1.35319744e-04 -3.84686457e-04
      4.58994436e-05 -1.38899792e-04 2.87940693e-05 -5.00911992e-05
      1.61322067e-04 5.69218282e-05 1.08901964e-04 -8.96245474e-05
      8.25733368e-05 -8.99637816e-05 3.90830537e-05 7.93412037e-05
      1.68324434e-04 3.07901573e-05 7.65551988e-07 8.20995353e-07
      1.07895482e-06 4.51981776e-07 2.27135570e-05 1.88238701e-05
      9.40949064e-07 1.00307307e-05 3.18410662e-06 3.63089953e-06
      7.45612510e-07 1.05928721e-05 1.85913104e-05 2.45739047e-05
      2.54108763e-05 3.43048268e-05 1.10743861e-06 8.07833317e-07
      8.40207974e-07 1.34385764e-05 1.29460132e-05 1.41758949e-06
      7.43599458e-07 1.82922340e-05 6.09435938e-06 6.01093871e-06
      9.68788754e-06 2.89541149e-05 6.94152841e-05 4.29021857e-05
      6.55133263e-05 2.58395939e-05 4.87633188e-05 2.13476214e-05
      2.59550834e-05 1.13291908e-05 2.18391269e-05 3.68867186e-05
      1.93976339e-05 9.52880073e-05 6.62417779e-06 1.36245690e-05
      1.37143015e-05 1.49851439e-05 1.46198836e-05 5.86826536e-06
      1.02820777e-05 1.03034072e-04 1.02360063e-04 1.02987513e-04
      1.09868153e-04 1.18509182e-04 2.05978886e-05 -1.03824066e-04
      1.45491154e-04 5.60870212e-05 -7.03459727e-06 2.84906826e-04
      1.69385268e-04 2.86394963e-04 -9.43757477e-05 -3.72501527e-05
      -3.27751040e-04 -1.10336172e-04 -4.19300995e-05 -9.04394183e-05
      -2.94855654e-05 1.70347790e-04 1.32515575e-04 3.42542829e-04
      6.14182454e-06 -1.25969338e-04 -3.38170539e-05 4.76055466e-05
      3.01899381e-05 9.99403783e-05 5.99102095e-05 4.53053726e-05
      2.78648040e-05 2.76451665e-05 3.20319778e-05 6.38287165e-05
      4.52663626e-05 3.56320306e-05 1.32680061e-05 6.43078056e-06
      2.38953035e-05 3.10363903e-05 1.59427636e-05 2.76452192e-05
      2.50703997e-05 2.50589874e-05 2.50704870e-05 8.47760930e-06
      1.32437492e-06 1.09214716e-06 1.38993728e-05 1.39373615e-05
      7.66880603e-08 7.12894291e-07 1.35558357e-05 4.87866203e-07
      1.50364190e-06 1.44756004e-05 3.41182676e-05 7.47446538e-05
      4.84820848e-05 4.77519643e-05 7.72022031e-05 1.01716119e-04
      7.51351181e-05 2.08528327e-05 2.47710650e-05 1.84200035e-05
      3.75264026e-05 1.74439610e-05 8.36804320e-05 9.99762051e-05
      2.54786955e-05 1.58118673e-05 1.55945800e-05 3.19342053e-06
      5.34883429e-06 2.28603240e-05 4.34521644e-05 3.30193834e-05
      1.04684332e-04 4.27630002e-05 5.00116148e-05 -1.72320259e-04
      -8.43473317e-05 9.56107833e-05 7.32202025e-05 -7.31950640e-05
      1.65121804e-04 -6.27554546e-05 2.49775389e-04 -1.53876201e-04
      1.06351668e-04 -1.88968246e-04 -5.95235178e-05 -6.72598180e-05
      -1.76071291e-04 -1.61147851e-04 3.95827483e-05 1.50415450e-04
      3.79752018e-04 1.26634905e-05 -1.34379501e-04 -9.78890021e-05
      1.14152564e-04 3.52009156e-05 9.69632456e-05 4.17693991e-05
      4.48306200e-05 2.71481294e-05 1.41570690e-05 3.19299288e-05
      5.22191804e-05 6.45715845e-05 4.60437259e-05 5.04696363e-05
      3.44806940e-05 3.49593356e-05 2.47580665e-05 1.63985587e-05
      3.99577129e-06 2.87589228e-05 2.87789699e-05 2.80233562e-05
      1.13716269e-05 3.86109377e-06 7.57347550e-07 1.62363376e-05
      1.08267079e-06 1.16695276e-06 -1.05522837e-07 1.28712536e-05
      2.40046916e-06 -6.30852071e-07 2.81023931e-05 3.37458587e-05
      7.30832980e-05 4.84919292e-05 5.24198804e-05 2.64564696e-05
      4.32584493e-05 2.40219979e-05 4.17111842e-05 2.25396016e-05
      9.06090354e-05 3.47171226e-05 3.65468368e-05 4.31808730e-05
      1.14162140e-04 2.55601608e-05 3.95622692e-06 9.90945409e-06
      1.33206977e-05 6.95432118e-06 3.51781709e-05 3.59131227e-05
      2.89214895e-05 9.34833151e-05 5.54323306e-05 2.62667982e-05
      -1.48597697e-04 -5.66728158e-05 1.22944475e-04 7.25295977e-05
      1.15168332e-05 2.54950690e-04 -1.42743433e-04 3.42446932e-04
      -2.34728359e-05 8.48520358e-05 -1.85339319e-04 -6.66561245e-05
      -5.13026607e-05 2.70248216e-04 -6.12941876e-05 -2.85162911e-04
      -1.22515470e-04 1.59220202e-04 2.34797059e-04 9.35804783e-05
      -1.03428996e-04 5.80727828e-07 1.63714052e-04 1.47889281e-04
      7.02456236e-05 7.94143707e-05 2.83328191e-05 3.75461750e-05
      5.24702409e-05 4.56576672e-05 5.20429094e-05 2.79204341e-05
      3.79246703e-05 3.92219190e-05 1.39226322e-05 6.00524218e-05
      5.03434167e-05 1.59322990e-05 2.83583813e-05 3.12684751e-05
      3.76573917e-05 2.21688097e-05 1.39580006e-05 3.75682794e-05
      3.25883702e-05 4.54872975e-07 9.83075461e-06 1.14750119e-05
      2.78022744e-05 1.54056033e-05 3.11664007e-05 4.70464511e-05
      3.95777097e-05 6.28092384e-05 4.62413300e-05 8.86878479e-05
      4.45597652e-05 4.46662016e-05 1.80166899e-05 4.61856362e-05
      5.70295015e-05 1.18668468e-04 6.88442960e-05 7.17872172e-05
      8.61719891e-05 1.00909892e-04 4.47715611e-05 7.68197697e-06
      2.77485451e-05 2.76186456e-05 4.01757898e-05 2.81012308e-05
      2.80256445e-05 5.21509864e-05 1.18652148e-04 7.35775757e-05
      6.03781336e-05 -1.60295298e-04 3.65779779e-05 1.34149275e-04
      -1.36027602e-05 3.37047459e-05 1.55735121e-04 -4.98211848e-05
      4.38597490e-04 3.41590676e-05 5.91779171e-05 -3.32234486e-04
      -2.56481180e-05 -7.81496201e-05 2.96685059e-04 -7.12197943e-05
      -1.25574879e-04 -1.22482073e-04 -4.91010105e-05 -3.29880218e-04
      6.80113735e-05 1.10134853e-04 7.79188122e-06 6.79224058e-06
      6.56386183e-05 -1.44987889e-05 7.67153833e-05 9.71220725e-05
      8.48668569e-05 1.04143284e-04 3.81909122e-05 5.03930896e-05
      8.11936334e-05 1.03589504e-04 1.13508613e-04 4.15187824e-05
      8.86225098e-05 5.52207894e-05 1.16146548e-05 2.70884484e-05
      2.46142426e-05 2.74168960e-05 1.15441144e-05 9.28156805e-06
      3.19576866e-05 2.45885058e-05 9.67578217e-06 3.29989234e-05
      3.73145558e-05 4.51120613e-05 5.03208612e-05 7.09682499e-05
      9.32222974e-05 5.01958202e-05 4.22467638e-05 4.26564329e-05
      1.07210464e-04 4.58854847e-05 4.48495084e-05 3.70275775e-05
      4.71421845e-05 1.20127974e-04 9.27323927e-05 7.50441977e-05
      7.84376025e-05 1.50206921e-04 1.19324643e-04 1.21390862e-04
      3.00714728e-05 2.72875623e-05 6.14536475e-05 5.99211307e-05
      7.67539532e-05 5.70505072e-05 3.53508294e-05 1.21165693e-04
      6.15408717e-05 7.72276617e-05 -1.21606863e-04 6.20813080e-05
      1.98265552e-04 -8.34772945e-05 -9.20372768e-05 1.83162992e-04
      1.52136170e-04 4.41220938e-04 3.82167600e-05 1.22804966e-04
      5.16145483e-05 -1.89788625e-05 -5.19862006e-05 2.94047815e-04
      1.13450376e-04 -3.20401188e-04 -5.74120168e-05 -1.25750332e-04
      -1.53534784e-04 -5.10937825e-05 -2.06671524e-04 -7.60923067e-05
      1.62218566e-05 7.87189201e-05 -1.25213828e-05 8.67741528e-06
      2.46044565e-05 4.59898729e-06 1.40524398e-05 1.21776129e-05
      -5.48101616e-06 3.31465117e-06 2.01794010e-05 3.36471967e-05
      1.82261119e-05 -6.36614868e-06 1.08354019e-04 4.29250613e-05
      5.82079811e-05 7.17094372e-05 5.08692574e-05 3.06616421e-05
      3.30103358e-05 3.45153239e-05 4.39238283e-05 1.29245882e-05
      3.04798086e-05 4.90664206e-05 6.25595494e-05 6.91875321e-05
      8.56098341e-05 9.34927521e-05 8.73169338e-05 1.05228952e-04
      3.90151035e-05 1.03980303e-04 8.99673469e-05 5.19635578e-05
      6.68923094e-05 8.58953208e-05 9.12817050e-05 1.37179260e-04
      6.26768815e-05 4.30119508e-05 9.68891982e-05 1.36803981e-04
      1.44235368e-04 1.14564362e-04 8.46807234e-05 8.44245005e-05
      6.01731772e-05 5.24443749e-05 3.11180411e-05 2.30792175e-05
      1.25338032e-04 2.26840857e-05 9.65535510e-05 -1.12042602e-04
      4.39966534e-05 1.19354292e-04 -8.99285078e-05 1.09570719e-04
      1.21716417e-04 1.00668665e-04 4.91242448e-04 -1.24401631e-04
      1.58162919e-04 1.39500087e-04 6.29306214e-06 -2.53837279e-05
      2.46256765e-04 1.56807626e-04 -1.43645913e-04 -1.33044567e-04
      1.47134313e-04 1.47501574e-04 1.45291444e-04 -1.02219792e-05
      1.00503588e-04 1.78472881e-04 2.14005486e-04 9.31060567e-05
      9.64494466e-05 1.04697836e-04 7.28163941e-05 1.02836500e-04
      2.73141759e-05 3.35594632e-05 2.13224630e-05 1.23059272e-05
      1.09407971e-04 8.48828713e-05 2.00355807e-05 1.91833024e-05
      -1.61639600e-05 5.56772284e-06 6.95070557e-05 -5.77939818e-06
      -3.19436440e-05 -3.31323608e-05 -2.11258903e-05 -1.36728686e-05
      -4.46299127e-05 -1.95563698e-05 -4.03177864e-06 2.13047479e-05
      9.44112689e-05 1.09371751e-04 7.47076338e-05 9.65814106e-05
      7.97741523e-05 3.81507380e-05 7.88395992e-05 9.30400784e-05
      1.20712364e-04 1.03459846e-04 5.39850553e-05 2.97669721e-05
      6.58070276e-05 4.83395306e-05 7.93035433e-05 9.71068075e-05
      1.35475027e-04 1.32870104e-04 1.15728915e-04 6.10843781e-05
      3.80597776e-05 5.87324575e-05 7.44519857e-05 3.52217503e-05
      4.33588684e-05 1.40092146e-04 4.63027136e-05 2.77369381e-05
      -1.50282562e-04 6.75329866e-05 5.48985154e-05 -2.08397341e-05
      1.05723957e-04 -6.19217462e-05 -1.14502669e-04 1.95965520e-04
      -1.79717099e-04 -7.87778990e-05 1.44856589e-04 2.26627726e-05
      1.74525085e-05 9.51894399e-05 -7.43148994e-05 -1.45566431e-04
      -3.96058604e-05 1.52207416e-04 7.46527585e-05 -3.12044722e-05
      1.86226987e-06 -4.00719800e-05 3.05039594e-05 7.48720340e-05
      1.88163303e-05 3.76056050e-05 7.51902553e-05 4.89968770e-05
      8.66146802e-05 5.38796667e-05 8.47572373e-05 1.52401888e-04
      1.46691353e-04 9.25044878e-05 3.74930169e-05 -1.03332473e-04
      -1.26370389e-04 -2.96191283e-05 1.38132089e-06 -5.55594852e-05
      -2.21349637e-05 -2.23488314e-05 -2.51752081e-05 -1.40753446e-05
      -8.12284998e-05 -1.28197513e-04 -7.83407231e-05 -5.23112976e-05
      -7.48263192e-05 -6.56857010e-05 -7.55112414e-05 -1.04131490e-04
      -1.19456126e-04 -1.01916703e-04 -1.22004334e-04 -8.54909595e-05
      -7.25849313e-05 -7.81557465e-05 -1.18787517e-04 -1.59364790e-04
      -1.64945537e-04 -1.16980293e-04 -1.23391845e-04 -1.40025266e-04
      -1.07661050e-04 1.70109288e-05 3.62990022e-06 1.67315611e-05
      -1.45522317e-05 -3.52706811e-05 -9.34052950e-05 -9.17254438e-05
      -4.53010689e-05 -4.67353857e-05 1.03397497e-05 -5.79672924e-05
      2.85708902e-05 -1.44541802e-04 -1.70801668e-05 3.72546560e-06
      -7.59989998e-05 -1.36224829e-04 -2.54710121e-05 -1.34642905e-04
      3.45015374e-04 -1.52105451e-04 2.47379648e-05 1.20645906e-04
      4.87973339e-05 4.34236681e-05 1.04151673e-04 1.39609037e-04
      2.81164917e-04 3.59339210e-05 8.14119994e-05 1.96469700e-04
      -7.22761833e-05 -4.94055075e-06 -3.52674804e-04 -1.64467710e-04
      -5.72298522e-05 -9.75555886e-05 -8.36024119e-05 4.37381277e-05
      1.17876589e-04 -1.30247199e-05 1.14678014e-05 5.92704928e-05
      6.21789582e-07 -6.65772241e-05 -8.39319109e-05 -2.17591314e-05
      -4.37101626e-05 -7.21454926e-05 3.70046000e-05 3.75039563e-05
      9.76512674e-05 8.49607823e-05 1.66417973e-04 3.23302782e-04
      2.55840161e-04 2.16017404e-04 2.88867304e-04 1.91125233e-04
      1.77356647e-04 1.31181223e-04 3.09817478e-05 9.92861096e-05
      6.48591740e-05 -8.02309878e-05 1.66928385e-05 2.02154752e-05
      -3.41904779e-05 -2.91290708e-05 -6.28892594e-05 -9.92091227e-05
      -9.49095993e-05 -7.49747051e-05 -7.85129378e-05 -4.66918136e-05
      -5.03903211e-05 -2.19736467e-05 -6.72746683e-05 2.23555944e-05
      -4.85905075e-05 -4.22243684e-05 -7.56481459e-05 -8.52602388e-05
      -1.40607386e-04 -1.43752652e-04 1.81269479e-05 1.60652198e-05
      -7.68713653e-05 1.47723949e-05 -1.88507067e-04 -4.39005489e-05
      1.47983112e-04 9.00664018e-05 -1.95477973e-04 6.06999529e-05
      1.63040386e-04 3.67599074e-04 2.00713868e-04 2.11875129e-04
      8.30515830e-07 3.99155433e-05 -7.62238824e-06 2.35305473e-04
      -2.71903409e-05 3.36521553e-05 1.42989404e-04 1.93299653e-04
      2.10941944e-04 -7.44756544e-05 -1.73878259e-04 -2.54162238e-04
      -2.12200568e-04 -1.47369108e-04 -2.00100432e-04 -1.51286949e-04
      -8.83296525e-05 -1.47310202e-05 -5.10002283e-05 -7.15700808e-05
      -4.82161304e-05 -3.92632210e-05 -1.11754314e-04 -1.35760143e-04
      -4.19811513e-05 1.41667597e-05 -4.67230566e-05 -3.53698633e-05
      -1.01341238e-05 -6.64171512e-06 -6.29437636e-05 -7.80035625e-05
      -7.91166167e-05 6.12297299e-05 -8.39188069e-05 3.82615690e-05
      2.71465724e-05 -3.93343762e-05 -6.27140253e-05 -6.72430106e-05
      -4.86307072e-05 -9.86690284e-05 -1.29354274e-04 -1.55974412e-04
      -7.05484272e-05 -1.04508545e-04 -1.28831307e-04 -1.49552769e-04
      -1.14627997e-04 -1.56586742e-04 -1.21983670e-04 2.71550907e-05
      -5.25187534e-05 -4.61063319e-05 -4.82277246e-05 -8.41839665e-06
      -4.72113934e-05 -2.61154473e-05 1.15152579e-04 4.13267335e-05
      -7.59026152e-05 1.10713423e-04 1.48187435e-04 1.48039253e-04
      4.76371351e-05 2.48240540e-05 7.28464465e-06 -5.28723358e-05
      -1.15228104e-05 8.14421437e-05 4.42956371e-05 -2.11987121e-04
      9.15237906e-05 2.30923004e-04 1.99684306e-04 -4.73795262e-05
      5.82475914e-05 -1.78787901e-04 1.41325087e-04 7.56868831e-05
      4.60941956e-04 -2.71772587e-04 -2.33514656e-04 4.64286168e-05
      2.54073762e-04 3.29092640e-04 -1.16166077e-04 -9.00617488e-06
      -3.32762211e-05 -1.98538124e-04 -7.28552768e-05 -2.74730846e-05
      -2.34794461e-05 4.31549015e-05 1.48317376e-05 9.58164856e-06
      -4.16639487e-05 1.39510767e-05 6.02333603e-06 9.82196943e-05
      -1.01211526e-05 -1.69481587e-04 -1.56686408e-04 -1.41615383e-04
      -8.00404305e-05 -9.47483204e-05 -1.04474937e-04 -1.21986144e-04
      -1.10829547e-04 -4.03658523e-05 -2.55037357e-05 -1.01389451e-04
      6.81479723e-05 1.13619506e-04 4.32693050e-05 -1.10436624e-04
      -7.57967791e-05 -1.15766190e-04 -7.82226416e-05 -7.42998673e-05
      -8.89786970e-05 -4.83954027e-05 -1.40396965e-04 -1.23041740e-04
      -1.74656627e-04 -1.83196840e-04 -1.42967387e-04 -1.40528631e-04
      -1.69638097e-05 2.35296084e-05 -1.79142844e-05 8.56379029e-06
      7.01521640e-05 5.94632274e-06 3.74208721e-05 1.40862496e-04
      -1.45099093e-05 -7.60050752e-05 -5.96776190e-05 -1.04356397e-04
      6.62509422e-07 -2.96108883e-05 5.52002639e-05 9.03588007e-05
      3.03308661e-05 6.22283869e-06 -1.52164634e-04 8.47713727e-06
      -8.10100973e-05 1.80620598e-04 1.48351450e-04 3.50813702e-04
      5.60796834e-05 2.17332308e-05 1.28910571e-04 1.54494846e-04
      1.41833079e-04 4.53337387e-04 -4.56816779e-05 1.36932023e-04
      1.64841025e-04 -4.77506801e-05 7.41269760e-05 -1.93553773e-04
      1.25683015e-04 -1.29622858e-04 -2.12175233e-04 -1.83078810e-04
      -1.23617065e-04 -8.51384466e-05 4.71344756e-05 -4.48028659e-05
      3.68582405e-05 -3.38694954e-05 -7.28572486e-05 -8.09748963e-05
      -4.90312559e-05 -1.05480045e-04 -1.90315812e-04 -1.99322894e-04
      -1.59914198e-04 -1.55149392e-04 -7.46508085e-05 -8.26392134e-05
      -1.35809270e-04 7.36250740e-06 -1.55446993e-04 -1.13762151e-04
      -1.82614429e-04 -3.62959945e-05 -2.87781859e-05 -2.31708327e-05
      -2.56186504e-05 -1.08536115e-04 -2.11507941e-04 -8.05691307e-05
      -4.78652219e-05 -1.77843744e-04 -1.03982347e-04 -2.84195790e-04
      -1.58781128e-04 -4.99547532e-05 -1.27558218e-04 -4.35545226e-05
      -9.44995918e-05 -5.14818312e-05 7.63851585e-06 4.00930294e-05
      5.72155386e-06 -3.64327461e-05 -4.96054952e-07 3.55140546e-05
      3.44821492e-05 5.08812991e-05 -1.46957818e-05 2.09230529e-05
      5.83403971e-06 2.22658891e-05 6.08973551e-06 1.03053928e-04
      2.08433878e-04 1.17870601e-04 -1.66543614e-04 -2.32104212e-04
      -1.55538131e-04 -1.08281725e-04 -3.51331255e-05 5.32737613e-05
      -1.88851016e-04 -2.83794972e-04 -4.10708381e-05 2.87325311e-05
      2.01620016e-04 1.30720204e-04 3.66642169e-04</_></support_vectors>
  <decision_functions>
    <_>
      <sv_count>1</sv_count>
      <rho>-1.4147601966975110e+00</rho>
      <alpha>
        1.</alpha>
      <index>
        0</index></_></decision_functions></my_svm>
</opencv_storage>
