<?xml version="1.0"?>
<opencv_storage>
<my_svm type_id="opencv-ml-svm">
  <svm_type>C_SVC</svm_type>
  <kernel><type>LINEAR</type></kernel>
  <C>1.</C>
  <term_criteria><epsilon>2.2204460492503131e-16</epsilon>
    <iterations>1000</iterations></term_criteria>
  <var_all>4235</var_all>
  <var_count>4235</var_count>
  <class_count>2</class_count>
  <class_labels type_id="opencv-matrix">
    <rows>1</rows>
    <cols>2</cols>
    <dt>i</dt>
    <data>
      -1 1</data></class_labels>
  <sv_total>1</sv_total>
  <support_vectors>
    <_>
      -1.94113818e-04 -6.05821624e-05 -4.11643778e-05 5.05227479e-04
      4.87186859e-04 -1.86033329e-04 -2.61453515e-05 -3.32605232e-05
      2.64204809e-05 -3.59358201e-05 4.02184560e-05 -1.26349523e-05
      -8.13932784e-05 -1.85945646e-05 -4.25616236e-05 -6.26542896e-05
      2.74054819e-05 -2.31378974e-04 -5.16413238e-05 -3.71988926e-06
      4.30281398e-05 -1.58830051e-04 -1.68208047e-04 -1.90735911e-04
      -7.55578003e-05 -9.53233248e-05 -7.55608853e-05 -1.21531739e-04
      -4.99877242e-05 -2.07906232e-05 8.09257253e-05 -2.33867813e-05
      -2.07111061e-05 -3.62715182e-05 8.91006130e-05 2.92086479e-05
      -5.47947275e-05 -8.47314004e-05 -3.55220545e-05 1.37194493e-05
      3.58391226e-05 1.21325627e-07 8.93129400e-05 -1.58340754e-05
      -6.21011422e-05 -2.41228063e-05 -1.37407682e-04 -9.36400611e-05
      -5.99716732e-05 -6.71248999e-05 -1.03864782e-04 5.96712925e-05
      -5.35983163e-05 8.37922053e-05 -1.37104607e-05 -6.49108333e-05
      -1.05708161e-04 -3.46849738e-05 -2.44283525e-04 4.85604745e-04
      5.82493609e-04 -1.47633647e-04 -1.21279139e-04 2.85489386e-05
      -2.41743128e-05 -6.91687965e-05 -7.81675626e-05 1.15753801e-05
      -1.30082763e-05 1.08605191e-05 -6.84909464e-05 -6.61127342e-05
      -2.13684529e-04 -2.83936621e-04 -7.34406713e-05 -1.07954089e-04
      -4.51143533e-05 -5.37807391e-05 4.11551991e-06 -5.24012903e-05
      7.40187033e-06 -9.03280743e-05 -1.24203070e-04 -1.08339380e-04
      -8.04238516e-05 3.39779945e-05 -5.98622319e-05 1.24148319e-05
      5.91917342e-05 1.50688691e-04 9.78513635e-05 2.27813161e-05
      -8.68558927e-05 -9.03838663e-05 -9.19462618e-05 3.61507227e-05
      -1.81206506e-05 6.58006547e-06 6.51591909e-05 -3.74414631e-05
      2.01370003e-05 8.43125890e-05 1.08919005e-04 1.41175609e-04
      9.59356548e-05 -2.49115146e-05 2.89693889e-06 1.12946494e-04
      4.23024030e-05 8.53723395e-05 6.10504649e-05 5.63144131e-05
      -1.47511004e-04 -1.07534186e-04 -1.97165733e-04 -9.23335974e-05
      -1.09224908e-04 -6.59425350e-05 -4.31206126e-06 -4.83182084e-05
      7.18262118e-06 1.73582703e-05 7.34159403e-06 6.92602989e-05
      7.98475885e-05 5.14533422e-05 -6.46495027e-05 -1.39918717e-04
      -6.10587085e-05 -4.02177502e-05 1.46964367e-05 -4.87143643e-06
      3.24243047e-06 -9.03344153e-06 5.38977220e-05 -5.14119820e-05
      -8.40733774e-05 -1.42780162e-04 -1.20897363e-04 -1.05542153e-04
      -5.35793297e-05 8.00424532e-05 -1.19268792e-04 5.08884914e-05
      1.20131845e-04 1.76963949e-04 -4.77019603e-05 -3.27106318e-05
      -1.12535323e-04 -8.21822250e-05 -5.62068089e-05 -2.27506152e-05
      -1.80988682e-05 1.04233350e-05 -4.53919638e-05 5.17916815e-05
      1.81496871e-05 9.99341428e-05 8.30235076e-05 2.90945354e-06
      -6.93833208e-05 6.73909017e-05 -6.74009789e-05 1.38176503e-04
      1.08442087e-04 1.39939584e-05 -2.24721589e-05 -5.16932823e-06
      -2.67525338e-05 -1.32077112e-04 1.05361614e-05 -3.28353162e-05
      -2.09260616e-05 4.81362040e-05 6.39680147e-05 8.99660445e-05
      -5.67100215e-05 6.58188801e-05 2.69837583e-05 7.75060471e-06
      3.99461678e-05 5.67106736e-06 -2.83716981e-05 -5.60313056e-05
      -6.62549428e-05 2.23025636e-05 5.82827743e-05 4.66824313e-05
      -3.56101154e-05 -3.05305002e-05 2.09106365e-05 -5.30268226e-05
      -1.00213743e-04 -9.91996130e-05 3.33689750e-05 -3.95772840e-05
      2.89969630e-05 -3.80138226e-05 -2.04215121e-05 3.85226485e-05
      -3.61259226e-05 -1.06492080e-04 -2.70488090e-05 -2.93147714e-05
      -5.97845938e-05 -1.33230686e-04 -8.35428946e-05 3.83329607e-05
      1.00952657e-05 9.43519481e-05 7.57337984e-05 4.38169445e-05
      9.29452472e-06 8.14347659e-05 1.50336145e-05 -5.14762405e-06
      5.15738720e-05 -3.65375126e-05 1.30994857e-04 1.60804106e-04
      -7.51714033e-05 -6.98390577e-05 -3.74467345e-05 -6.07120892e-05
      -3.35244004e-05 -2.19145040e-05 3.00972315e-05 -4.97846486e-06
      6.20574865e-05 5.68508513e-05 4.55043119e-05 3.53645228e-05
      -2.75503626e-05 4.71643034e-05 -9.56901295e-06 -1.56740361e-06
      1.02073864e-05 2.61519344e-05 -6.80164085e-05 -6.77430144e-05
      -1.20200029e-05 -9.67773958e-05 2.85132628e-05 7.29913663e-05
      -9.75653093e-05 -4.56885027e-05 -7.44696372e-05 -7.26367871e-05
      1.69714622e-05 1.04301806e-04 -8.31685029e-05 -4.10884131e-05
      1.42010642e-04 -4.23732308e-05 -2.96101771e-05 -2.50841299e-06
      3.77892829e-05 1.60785330e-05 -2.85000606e-05 -4.36681366e-05
      -2.10179605e-05 -6.51776863e-05 6.87373031e-05 -6.63211631e-06
      -2.28001354e-05 3.22335618e-05 5.40251276e-05 1.13362825e-04
      4.28990788e-05 -1.12513408e-06 -1.10870824e-04 -3.20336185e-05
      -6.49963768e-05 5.24872376e-05 -4.64586046e-05 -3.73756411e-05
      -1.48911056e-06 1.41335431e-05 -5.50486511e-05 2.70883629e-05
      8.18594490e-05 3.80524179e-05 1.32391606e-05 1.65306064e-05
      -5.06428587e-05 -4.30647451e-05 -1.13113183e-05 2.39175570e-05
      9.93609501e-05 5.07412806e-05 9.29977614e-05 -4.25210565e-05
      2.06940003e-05 3.83705956e-05 -4.01484576e-05 -5.30611796e-05
      -3.34789038e-05 1.09300061e-04 3.73618859e-05 1.47437328e-04
      -1.02914782e-05 -6.91679597e-05 1.18751792e-04 2.63968250e-05
      -5.12199949e-05 -9.37320237e-06 -9.84345970e-05 -6.05257155e-05
      -6.74671610e-05 -8.77056955e-05 -7.30260144e-05 -8.65689653e-05
      -2.81288194e-05 -4.69147744e-05 8.27384611e-06 5.43175156e-05
      3.96777432e-05 5.27719603e-05 1.00102239e-04 6.22816879e-05
      1.35388473e-04 1.09017754e-04 -2.36944670e-05 2.07754583e-05
      -7.11598332e-05 -9.37867007e-05 1.11895344e-04 5.06811557e-05
      -2.30134701e-05 -2.02064348e-05 -1.03282779e-04 5.55536171e-05
      -6.07410911e-05 3.24953226e-06 -5.11727148e-06 4.76148307e-05
      1.35095703e-04 -3.19760147e-05 -5.51042976e-05 -6.67497879e-05
      -4.63482756e-05 -2.96362941e-05 -5.36131120e-05 6.55815313e-07
      -1.90558349e-05 -1.47149285e-05 6.81176098e-05 7.21056931e-05
      5.52677011e-05 -2.39500660e-05 1.57397644e-05 1.23498683e-06
      1.55228936e-05 1.36044382e-05 9.04702538e-05 6.33795571e-05
      -4.88362784e-05 -3.66541899e-05 -4.69825500e-05 -3.85164312e-05
      -1.32427158e-04 -1.36827832e-04 -2.39817426e-04 -8.38299893e-05
      -8.47427073e-05 -3.63405052e-05 3.89154047e-05 8.15573803e-05
      2.01201801e-05 -2.38117191e-05 -4.29153515e-05 -3.95244060e-05
      -2.44759067e-05 2.67111554e-05 4.67836326e-05 4.62068092e-05
      1.10153152e-04 2.77929466e-05 5.94016565e-05 6.97765790e-05
      1.05346247e-04 6.50804577e-05 1.26822226e-04 4.97410510e-05
      4.45992009e-05 -2.25544663e-05 -5.23046328e-05 2.98913073e-06
      6.92970716e-05 4.34784160e-05 6.06290487e-05 1.04392049e-04
      3.31946612e-05 1.22779820e-04 1.23780137e-05 6.38868150e-05
      1.23597332e-04 7.60011171e-05 8.64390022e-05 5.07712721e-05
      2.74110625e-05 3.01408290e-05 5.21508118e-05 3.37556339e-05
      -7.90764170e-05 -6.36504919e-05 -2.96777180e-05 -1.23035252e-05
      -8.29669953e-05 6.79723817e-05 1.45173908e-04 4.55109803e-05
      2.11496917e-05 -3.87313085e-05 1.56643200e-05 6.41933730e-06
      -9.68550739e-05 8.66567134e-05 -3.97388030e-05 -3.37476595e-05
      -6.66462875e-05 -2.35897587e-05 -3.43144129e-05 -5.86803471e-05
      -2.91724900e-05 -2.17099878e-05 -7.30711690e-05 -6.79988443e-05
      9.78277603e-05 -2.22836079e-05 4.49616091e-05 7.49819810e-05
      -7.72792046e-05 1.79038489e-05 -3.82133112e-05 -3.48358699e-05
      -5.25368632e-05 -5.90008676e-05 8.12654707e-06 6.61824743e-05
      -6.43367239e-05 -7.48721641e-06 -8.26203323e-05 9.54481834e-07
      9.79331071e-06 2.46843429e-05 1.17220407e-04 6.35825782e-05
      3.53337309e-05 3.07165101e-05 -1.04448791e-05 5.65228074e-05
      9.74384875e-06 2.66677980e-05 6.00180356e-05 5.89148076e-05
      9.99802141e-05 6.39824721e-05 4.88827209e-05 4.64036457e-05
      1.71380616e-05 4.07068765e-05 5.99283667e-05 2.31534450e-05
      3.45373810e-05 1.30279586e-04 2.60280672e-06 1.16146084e-05
      3.04020232e-05 8.83960092e-06 -3.90903733e-06 -2.43973482e-05
      -2.32627171e-05 4.65595003e-05 6.47602064e-05 3.50122682e-05
      1.57491741e-05 4.74353037e-05 4.46501981e-05 4.85910678e-05
      6.13970042e-05 6.95856361e-05 6.78094075e-05 7.89622427e-05
      6.63787359e-05 4.32736742e-05 9.26808352e-05 -9.97708921e-05
      2.70902347e-05 -6.78387732e-05 -7.39920142e-06 2.17897013e-05
      -7.48438106e-05 -1.06616688e-04 -2.71414374e-05 -6.59766592e-05
      -4.96595712e-05 -1.26166517e-04 -1.16542069e-04 -2.16868575e-05
      2.63378861e-05 1.32903660e-04 5.60940571e-05 5.42799971e-05
      6.52528834e-05 9.74533032e-06 1.82711865e-05 1.78566352e-05
      6.45191758e-05 4.46975282e-05 -4.07587322e-06 -2.14238626e-05
      2.55882810e-06 4.23980200e-05 2.13793446e-05 1.39914418e-05
      -4.19801427e-06 8.10131241e-05 -1.06363195e-05 6.45589753e-05
      -6.39559876e-05 1.07698936e-04 1.10162473e-04 1.34004513e-05
      -5.19805217e-05 -3.97448166e-05 -6.78554643e-05 -4.11713154e-05
      6.02628497e-05 1.28133406e-05 -8.36842628e-06 8.74393777e-07
      5.16392793e-05 3.25018882e-05 8.91247510e-06 1.46770881e-05
      1.34930006e-05 -3.04304012e-05 2.35521893e-05 5.09749916e-05
      4.78404181e-05 1.47199153e-05 -1.82567655e-05 3.84049636e-05
      -1.89612074e-05 -5.35079416e-05 2.84070320e-05 -8.83852990e-05
      -5.53616919e-05 3.82720791e-05 -9.31989707e-05 7.36968286e-06
      -7.90729464e-05 -3.30227813e-05 -2.93530666e-05 2.83060990e-06
      1.08407432e-04 -2.48383458e-06 4.55766749e-05 -5.29417184e-06
      -7.49538640e-06 -5.83657402e-06 -3.39497674e-05 1.40064221e-05
      -8.98816052e-06 -3.41209925e-05 -2.64395976e-06 -1.44240657e-05
      -2.69728594e-06 2.16770222e-05 2.73991373e-05 -1.52482949e-06
      4.43342105e-05 1.65771162e-05 3.40693223e-05 1.17850359e-05
      1.39223139e-05 1.05405328e-04 9.68808963e-05 -8.99922088e-06
      -1.69145858e-06 1.82485437e-05 4.11008623e-05 -1.13234478e-06
      -2.28335321e-05 -4.11417313e-05 -1.37895950e-06 5.97791332e-05
      1.80145653e-05 9.36346078e-06 -1.68244733e-05 -3.77092256e-05
      -3.31339106e-05 -2.29315483e-05 7.56192151e-07 -1.18332664e-05
      1.68755639e-06 -2.83443005e-05 -9.74714476e-06 4.32612433e-05
      -2.82573055e-05 6.79343502e-05 -7.58582974e-05 -2.90489606e-05
      -4.08902306e-05 -5.87614568e-06 -3.42531166e-05 -6.27584768e-06
      2.98141294e-05 -2.82234123e-05 3.28970636e-05 1.71015112e-04
      8.43247835e-05 5.76959792e-05 2.30182250e-05 6.02852197e-06
      6.38899292e-06 -3.12992734e-06 -4.42546298e-06 5.17312110e-05
      3.84918676e-05 1.22080528e-05 2.56226267e-05 -3.73667967e-06
      1.08662252e-05 -2.00784189e-06 2.40403679e-05 3.66960958e-05
      8.77842467e-06 -2.37354689e-05 3.17851045e-05 2.62903832e-05
      -6.19277989e-06 7.06624414e-05 9.15949640e-05 -1.68941770e-05
      1.47996607e-05 9.26428311e-06 1.29886839e-05 -2.40265035e-05
      4.76817286e-06 1.03070497e-05 4.73202126e-05 1.34053089e-05
      1.13023834e-05 -4.90624598e-06 -1.13189697e-06 1.79076815e-05
      1.42860290e-05 1.73869721e-05 1.40705861e-05 -5.05990356e-05
      -4.62414719e-05 5.62961804e-06 4.00362660e-05 1.45728163e-05
      5.59500186e-05 7.53575932e-07 3.48513022e-05 1.70944281e-06
      -7.33303386e-05 -8.50119977e-06 -3.98139891e-05 -3.06912443e-05
      -5.34020437e-05 -2.12304058e-05 6.59899160e-06 -1.19201068e-05
      3.75178911e-06 9.90226181e-06 6.69869314e-06 -4.19569224e-05
      -5.51388694e-05 -3.42536441e-05 2.58882792e-05 -3.17596314e-05
      3.52063557e-06 -1.68705956e-05 -6.59287980e-05 -6.05354362e-05
      -4.17876872e-05 8.19014749e-05 5.78426152e-05 2.67620981e-05
      4.69134375e-06 1.77977272e-05 6.38383926e-06 -7.58019451e-06
      -2.65206836e-05 5.96309328e-05 9.54324714e-05 -9.58191049e-06
      8.45416253e-06 -5.69668009e-05 -7.07395520e-05 -3.87126966e-05
      -9.57762222e-06 2.08921247e-05 -1.66588688e-05 -9.55311680e-06
      -4.45081751e-05 -9.92793139e-05 -6.82361788e-05 -4.22674675e-05
      -1.12100133e-05 -3.68438232e-05 -7.06907522e-05 -9.36092620e-05
      -1.18881508e-05 -3.14068529e-06 -6.01846405e-05 1.35586833e-05
      -5.22237933e-05 -5.66432755e-06 -8.26358246e-06 -6.19276107e-05
      -9.65682266e-05 9.87481690e-06 8.99353381e-06 3.26837799e-05
      6.56353150e-05 1.13521662e-06 3.01284672e-05 4.34076464e-05
      2.79124124e-05 3.33596945e-05 5.74289443e-05 2.19794902e-06
      -4.42806595e-07 -4.47056254e-06 5.75354825e-05 3.03429697e-05
      5.42439884e-05 5.88532894e-05 5.79667976e-05 4.18350355e-05
      4.71864860e-06 -2.02481601e-06 7.89959959e-05 2.48411397e-05
      9.20660386e-05 5.08775083e-05 1.47989304e-05 1.78761493e-05
      1.83452266e-05 5.11946710e-05 1.31276771e-04 2.83315985e-05
      2.87283297e-06 2.02464616e-05 2.05380566e-05 5.99878986e-05
      6.39724458e-05 2.83514637e-05 5.25430551e-05 1.96379497e-05
      -1.32119112e-05 -2.69456123e-05 2.18363803e-05 6.48498417e-06
      2.40425743e-05 -4.11503315e-05 -1.23160880e-05 -1.94814784e-05
      4.72401844e-05 -1.31769575e-05 1.19490051e-05 -1.16049368e-05
      -5.96931168e-05 1.02255854e-05 -4.83928452e-05 -1.52778433e-04
      5.21246693e-05 -2.14622232e-05 3.98000957e-05 4.61962190e-05
      1.02066442e-04 4.23259517e-05 2.04835796e-05 2.95450591e-05
      6.99367229e-05 -5.40299789e-06 -3.95307725e-05 -3.88103763e-05
      2.23788575e-05 -3.39849175e-05 7.35079198e-07 9.90157605e-06
      2.29514626e-05 1.46495531e-05 1.82718450e-05 1.38728992e-05
      -5.84828558e-05 4.31496082e-05 2.30786773e-05 3.77809920e-05
      1.54769150e-05 9.73280549e-08 -1.81650594e-05 -6.78801052e-06
      6.36124896e-05 7.38594899e-05 1.13983515e-04 -1.39865006e-05
      -2.95962509e-05 3.19856554e-06 1.24528879e-05 3.41760424e-05
      -3.26055783e-06 -9.58084638e-06 -2.28924473e-05 -1.93815231e-05
      -3.75143572e-05 2.37346449e-05 -6.76575019e-06 5.19402565e-05
      1.08657596e-05 1.89083567e-05 6.99102156e-06 1.27955800e-05
      -1.06262141e-05 -1.30838653e-05 -8.00089692e-05 7.92200535e-06
      3.21102266e-06 3.31225456e-05 -4.83345975e-05 1.10817622e-04
      -1.89123821e-05 6.61481390e-05 -3.83135239e-06 1.14075003e-04
      6.88317277e-06 2.41852522e-05 -2.04925673e-05 2.35939642e-05
      1.66655464e-05 -6.46856352e-05 -8.90916635e-05 -2.40939153e-05
      -5.14883031e-05 -3.28296155e-05 -1.45933645e-05 -2.39881738e-05
      -4.53878529e-05 -2.60316883e-05 2.21912851e-05 2.69058296e-06
      2.99505882e-05 1.15427792e-05 1.80561583e-05 3.81728000e-07
      -2.83633344e-05 -1.51373024e-05 -5.23867584e-06 -7.28322702e-05
      8.30825520e-05 1.09655703e-04 -3.74877163e-05 -4.04891034e-05
      -2.10511134e-05 -1.26740520e-06 1.07472688e-05 -1.82251697e-05
      3.86238617e-06 -1.45505419e-06 1.04096680e-05 -1.69969717e-05
      -6.68769189e-07 3.81907648e-06 1.97838217e-05 -3.11059121e-05
      -7.63153184e-06 5.35928575e-06 -2.57503616e-05 -3.75903546e-05
      -8.41457586e-05 -3.02791468e-05 -2.26501124e-05 -2.27363744e-05
      -1.06394527e-05 -9.19481681e-05 6.79563891e-05 -4.87011421e-05
      2.06774239e-05 -1.65365770e-06 5.19368587e-05 3.01540113e-05
      1.31442293e-05 4.23564707e-05 4.38511379e-05 1.13663873e-05
      -3.29558752e-05 -1.27199082e-05 5.64461789e-06 2.04821481e-05
      2.11472816e-05 -1.15137072e-05 1.59380361e-05 9.49967580e-06
      -1.22042884e-05 -1.03164557e-05 -4.34059912e-05 3.06185188e-06
      -9.12180349e-06 4.30079399e-06 -1.90104838e-05 -3.00186402e-05
      -2.52459304e-05 2.19077101e-05 -7.04588592e-06 -4.18184463e-05
      8.59673819e-05 5.16729524e-05 -4.61592790e-05 -2.05340530e-05
      -1.89748789e-05 -1.30628232e-05 -3.40990337e-05 -1.58852436e-05
      -2.61857022e-05 2.95631185e-06 2.30494552e-05 4.69920597e-05
      8.12673898e-05 8.93910255e-05 4.37240629e-07 3.40790866e-05
      9.45460270e-05 4.58888644e-05 -1.06629259e-05 4.38696261e-05
      -1.00764199e-04 -5.56844498e-05 1.66074938e-06 1.10347675e-04
      -8.67534691e-05 2.57108622e-05 -1.39272324e-05 -7.07512518e-05
      3.31009069e-05 3.20951985e-05 -4.36785595e-05 3.90560308e-05
      5.77236688e-06 1.75896585e-05 4.92067511e-06 -9.45513057e-06
      -6.66212582e-05 5.40752080e-06 4.55788650e-05 4.75957750e-05
      1.07249725e-05 -1.43230391e-05 -7.83429286e-08 2.84078742e-05
      1.02239192e-05 -5.50520599e-05 1.66431164e-05 8.05985928e-06
      -7.12222572e-06 -2.40822519e-05 -5.75922877e-06 -1.29149212e-05
      -3.22817177e-05 -3.11239419e-05 -1.72667715e-05 -2.22630861e-05
      6.36456607e-05 7.48986422e-05 4.65220619e-05 1.13462038e-05
      -1.53096371e-05 -4.10414250e-05 -3.83403785e-05 -3.09351999e-05
      -4.30784057e-05 2.61409532e-05 1.71169795e-05 3.55053089e-05
      4.13281814e-05 -9.04328033e-07 1.61608314e-05 6.02976761e-05
      5.07847981e-05 -1.34532092e-05 9.91950947e-05 -4.29270112e-05
      -1.37082443e-05 9.21134961e-06 6.79421209e-05 5.49254401e-05
      -7.16378636e-05 -3.61036982e-05 -5.61461184e-06 1.11875655e-04
      2.72281577e-05 -6.59026191e-05 3.15029720e-05 1.42977151e-05
      -8.62441357e-06 1.16566835e-05 -3.31125884e-05 -4.03294616e-05
      4.59307885e-05 2.55655755e-06 -8.00819635e-06 1.50285778e-05
      -1.47571509e-05 1.15253752e-05 2.14774700e-05 1.48261252e-05
      -4.85057208e-05 3.07751834e-05 -2.26552111e-05 9.00097893e-06
      1.33140820e-05 -1.40458114e-05 2.29933830e-05 4.20319848e-05
      -6.33885975e-06 2.39117962e-05 3.17835475e-05 6.24122868e-06
      8.95703852e-05 2.45060819e-05 -1.82146960e-05 -1.47322826e-05
      -5.24815368e-05 -6.90325396e-05 -4.17072006e-05 -8.90493357e-06
      1.16118063e-05 1.50999540e-06 2.49643817e-05 4.10279654e-06
      -4.38614916e-05 6.06405883e-05 4.69946190e-06 -1.13382021e-05
      -4.44283614e-05 9.99030526e-05 -5.21194233e-05 7.02809666e-06
      -1.45536018e-04 -5.60957487e-05 1.22232392e-04 1.35363240e-04
      1.30110038e-05 1.30541457e-05 1.57913615e-04 3.50605842e-05
      3.17700199e-07 7.93187137e-05 7.60687617e-05 3.26242298e-05
      1.84432065e-05 -1.81100386e-05 1.59280789e-05 5.60745975e-05
      3.03858851e-05 1.85793251e-05 1.57073664e-05 9.69550001e-06
      -2.86273871e-06 5.62239029e-06 1.50066580e-05 3.60122867e-05
      -7.18932552e-06 -1.46554939e-05 4.97898691e-06 4.31639546e-06
      1.65320228e-06 2.49264285e-05 1.97258541e-05 2.11469523e-05
      6.06348258e-05 3.31816955e-05 -1.26849127e-05 8.63113144e-07
      6.63697720e-05 -3.83324586e-05 -4.17040865e-05 -6.78924262e-05
      1.00605139e-05 -9.08290531e-06 1.57362610e-05 2.64288155e-05
      8.62655997e-06 3.35218647e-05 3.37308325e-06 -2.10569233e-05
      5.39839566e-05 -2.40810041e-05 -5.94825337e-07 -3.14997269e-05
      1.18700322e-04 -4.65945704e-05 -2.30803853e-05 2.09786213e-05
      -5.34189930e-05 6.63591118e-06 5.47023956e-05 -4.24454556e-05
      -3.52775423e-05 5.38870481e-05 4.63811048e-05 -5.07643199e-06
      -1.61610624e-05 6.32248293e-06 1.58067869e-05 -6.50748143e-06
      -6.59464968e-06 -4.28945568e-05 5.01177383e-05 2.09540231e-05
      2.21602586e-05 -3.83938141e-06 -1.59902102e-05 1.14555060e-05
      -1.02721951e-05 -1.41279143e-05 9.26125176e-06 3.39306498e-05
      -4.41767879e-05 1.32722753e-05 7.96842596e-06 7.68759890e-07
      -2.84952944e-06 -3.92122238e-05 7.39627103e-06 -3.24520306e-06
      -3.35172517e-05 -4.02889673e-05 -6.01918728e-05 7.61518095e-05
      1.05350147e-04 -1.44045953e-05 -6.02337605e-06 -5.40605106e-06
      -1.93485976e-05 1.28136180e-05 2.67514843e-05 4.44461621e-05
      -4.90881794e-05 -1.05601393e-05 -1.64918329e-05 6.49684880e-05
      -2.61132163e-06 2.04427688e-05 -9.37456934e-06 1.46346923e-04
      -1.16886131e-05 -8.70260465e-06 3.53111645e-05 -8.07180186e-05
      -4.01934158e-05 3.30684852e-05 -6.65839689e-05 -4.64486147e-05
      4.35157781e-05 4.14637980e-05 2.51522433e-05 -1.23742957e-05
      -2.93749545e-05 -1.18171765e-05 -1.14455215e-05 -2.51889905e-05
      -8.85577265e-06 3.79128869e-05 5.22753289e-05 -1.73272565e-05
      -1.44448168e-05 1.59687352e-05 7.92959327e-06 -1.42025301e-05
      -3.13614546e-05 3.52613861e-05 3.01853033e-05 3.70468406e-05
      3.55646334e-05 3.14662357e-05 1.11284735e-05 2.19808626e-05
      4.16727489e-05 9.72472208e-06 2.63414458e-05 -3.01328691e-05
      -3.12893026e-05 -6.22542939e-05 -4.95355271e-05 7.37125883e-05
      8.64786398e-06 3.40117413e-06 2.23527459e-05 -8.18069930e-06
      1.12287344e-05 5.43641875e-07 3.17156700e-05 -1.81242194e-05
      1.12736498e-05 -1.32305581e-06 8.53286037e-05 4.56932503e-06
      -8.80927928e-06 -5.83502697e-05 1.33005262e-04 -1.40916440e-04
      -8.90720621e-05 4.95831373e-05 -4.74673980e-05 2.19550857e-05
      -1.63057648e-05 -7.24229612e-05 3.19813836e-07 1.88397905e-06
      1.64632238e-05 -5.08226076e-05 1.60873788e-05 -2.61757905e-05
      1.13988690e-05 3.93535047e-05 -1.31424167e-06 -1.64132234e-05
      7.53331233e-06 2.87118510e-05 1.64105077e-05 5.05284297e-05
      3.04695695e-05 2.12502855e-05 8.76693548e-07 2.00247305e-05
      -8.23920072e-06 6.51102382e-05 8.53437741e-05 2.43191971e-05
      3.74839256e-05 2.84663147e-05 5.96012651e-05 7.20567596e-06
      1.37988682e-05 4.48683022e-05 -3.51800481e-05 -1.45604927e-05
      -4.11741676e-05 -8.28991415e-06 8.51383229e-05 1.12234542e-04
      -6.07524998e-06 -1.15658913e-05 -1.25872302e-05 -1.22695901e-05
      -2.75174571e-05 1.58617913e-05 -5.90975651e-05 -1.48334339e-05
      3.95019124e-05 5.55504994e-05 -1.29150867e-05 -1.13017049e-05
      -1.01177728e-04 7.12283290e-05 -8.27242111e-05 -2.39048859e-05
      -3.58598081e-05 2.04152493e-05 1.01270074e-04 6.22257649e-05
      1.61068729e-05 -2.15839937e-05 6.23082306e-05 4.82831965e-05
      7.29375970e-05 2.70673117e-05 -4.37861218e-06 3.22967708e-06
      -7.03268142e-07 -1.41112441e-05 -2.76975697e-05 2.40135687e-05
      -8.73605950e-06 3.38159443e-05 -7.38743893e-06 -1.62593424e-05
      1.77993952e-05 -2.07797962e-06 -1.32898040e-05 -1.55329853e-05
      -6.58933277e-05 3.87809596e-05 -1.88192334e-05 6.64809079e-07
      -1.13530987e-05 3.27512826e-05 -2.62732260e-06 9.88768261e-06
      -1.59399351e-05 -4.65047524e-05 -5.85507951e-05 -4.15752147e-05
      -2.87238381e-05 -5.76348320e-05 8.85717745e-05 2.10510570e-05
      -1.37838606e-06 7.41330814e-06 1.70004550e-05 2.94845421e-07
      1.98142916e-05 -7.53157110e-06 4.52588502e-05 -1.73121316e-05
      6.86721687e-05 -2.77351319e-07 3.46725537e-05 -8.78235442e-05
      3.51393974e-05 -5.68051910e-05 8.30155022e-06 -3.42979947e-05
      4.15154354e-05 -2.44506828e-05 9.37751756e-05 7.40038813e-05
      4.91027458e-05 1.17505195e-04 4.78014954e-05 2.81667308e-05
      1.11173831e-05 1.61105727e-05 2.40026238e-05 -6.49699678e-06
      5.63871035e-05 3.82886392e-05 5.82286339e-05 3.43721840e-05
      9.37292134e-06 6.29261922e-05 1.32857658e-05 -1.99879614e-05
      1.86176258e-05 -3.50770533e-05 -3.62650135e-05 -7.22705954e-05
      -3.88983899e-05 -6.38571582e-05 -1.47447588e-06 1.48990002e-05
      2.86939248e-05 -1.40591155e-05 -6.04740626e-06 4.23806978e-06
      -2.70084875e-05 -1.04412711e-05 -4.09460445e-05 -2.00463819e-05
      -2.77771633e-05 -6.06678150e-05 1.70904532e-05 -2.99338408e-05
      -5.84454065e-05 1.55463713e-05 1.23382015e-05 4.77434605e-06
      -3.27203816e-05 1.66327118e-05 -3.35535042e-05 8.08508630e-05
      1.26439973e-05 8.59193369e-06 -4.84361371e-05 9.84595972e-05
      -4.55245936e-05 6.24061868e-05 2.69772863e-05 -2.77642503e-05
      6.37272897e-05 -1.98363323e-05 -1.54122463e-05 3.70786074e-05
      5.24679926e-05 -5.30496345e-06 -3.82442886e-05 -1.43062343e-05
      1.18993858e-05 5.05315347e-06 1.89332968e-05 3.84115046e-05
      -7.81602284e-06 4.58044524e-05 6.18269405e-05 8.52762332e-06
      3.88324224e-05 1.32063660e-05 2.03584696e-05 4.05505016e-05
      1.10436149e-05 -6.46072149e-05 -7.31127584e-05 -4.38611714e-05
      -2.44718394e-05 1.52889643e-05 2.21078753e-05 3.94801318e-05
      -9.18759611e-07 1.45692893e-05 3.65915948e-05 -5.80888127e-06
      1.70085732e-05 -2.80093900e-05 2.25226941e-05 -8.64170124e-06
      -3.73620060e-05 -1.02810343e-04 1.05592189e-04 -2.01721614e-05
      2.10700932e-06 2.90443641e-05 -4.60846059e-06 3.40985196e-07
      3.37265228e-05 -1.30327062e-05 2.74953582e-05 -1.67285489e-05
      1.53236306e-05 -1.61310498e-04 7.33286433e-05 -1.75450732e-05
      -1.33536514e-05 6.02898326e-05 -1.53696565e-05 -3.06282459e-06
      -1.97925528e-05 5.46739866e-05 2.33819028e-05 -5.66296785e-06
      -3.40244551e-05 -1.09700404e-05 2.56950552e-05 2.53896160e-05
      3.95710267e-05 2.70544897e-05 -7.06349056e-06 -2.48315664e-05
      9.57359771e-06 -1.92537009e-05 5.69490567e-06 -1.11353402e-05
      -2.70581368e-05 -1.70730473e-05 -3.53236396e-06 -2.86711520e-06
      1.09522525e-05 -7.88207617e-05 -6.52685412e-05 4.21377308e-06
      -1.20418854e-05 -2.08864967e-05 9.30448152e-07 1.05938752e-05
      3.16059122e-05 3.63956315e-05 3.78207042e-05 3.45096087e-05
      6.06491594e-05 8.03992152e-05 4.13759517e-05 -2.00146951e-05
      -3.89618181e-05 1.06638136e-05 -9.50659705e-06 3.03724846e-05
      1.84883829e-05 1.02902432e-05 -3.67134708e-05 4.37709605e-05
      -4.25530670e-05 -7.38108429e-05 -1.30049639e-05 -4.71189907e-07
      -1.38067189e-04 8.82607128e-06 3.85093881e-05 3.58288125e-05
      -6.70644440e-05 -8.92195033e-07 -6.28998241e-05 -6.11337746e-05
      -1.67314793e-05 -3.33504540e-05 5.38866625e-05 8.41485962e-06
      3.20393119e-05 -2.79050528e-05 -4.59847297e-06 -1.44361165e-05
      1.05457821e-06 -1.64874871e-06 -4.31420485e-05 3.09423740e-05
      6.27097916e-06 4.30180116e-05 5.97153994e-05 5.01388313e-05
      7.39004536e-05 -1.80202903e-07 2.54326164e-06 -1.39878166e-05
      -7.72467392e-05 2.71651188e-05 9.32648072e-06 -8.64272952e-05
      -3.07786286e-05 8.46011881e-06 -7.13030477e-06 -3.29990762e-05
      1.42805275e-05 1.72734217e-05 -1.03622424e-05 -8.27363147e-06
      4.64698642e-05 3.64779626e-05 -7.89305413e-05 -6.41071092e-05
      -1.94293843e-05 -4.46805052e-06 4.24520440e-05 4.81549250e-05
      2.41229263e-05 1.39623671e-05 6.60388250e-05 -4.45072255e-05
      -8.37890911e-05 1.33111453e-05 1.86401212e-05 -7.76663874e-05
      -1.53944948e-05 1.78615355e-05 1.55563230e-05 -1.25678445e-04
      -4.98201880e-05 -8.35657702e-05 -8.57665073e-05 -1.35974638e-04
      -6.66381238e-05 9.53036360e-05 4.78087823e-05 5.53458267e-05
      5.18280067e-05 8.25958614e-06 1.69759933e-05 5.21653919e-06
      -4.92804190e-07 -8.44869646e-05 -1.08919266e-05 8.06526532e-06
      2.18664045e-05 2.36713386e-05 2.82229921e-05 8.78885912e-05
      -2.55877080e-06 1.78193532e-05 -3.93757591e-06 -3.95276475e-05
      2.01617513e-05 8.38856124e-07 -1.05657991e-05 -8.00464386e-06
      -6.57210933e-07 1.70501226e-05 7.16929344e-06 5.38610766e-05
      6.09150666e-05 -3.21253310e-06 -3.85239473e-05 8.36922482e-05
      4.81911084e-05 -1.47359615e-05 -4.95067361e-05 -3.99925884e-05
      3.29373415e-06 5.06650722e-05 6.44465472e-05 -8.74753187e-06
      -2.34187555e-05 9.69353423e-05 5.91194876e-05 4.23355450e-05
      8.27858676e-05 1.36789778e-04 -1.30544591e-04 7.98856781e-05
      -1.82309974e-04 -2.04489879e-05 -1.23659003e-04 4.90183156e-05
      -4.31449589e-05 -1.21938268e-04 -1.27232779e-04 -8.49038261e-05
      -9.34447235e-05 -4.11847723e-05 -6.68186021e-06 -5.30025281e-05
      -4.38019597e-05 -9.78541138e-05 -1.14142877e-05 -7.78361198e-07
      -3.91974754e-05 -1.97231639e-05 -2.73698402e-06 -8.84842484e-06
      -2.36416236e-05 1.17273366e-05 2.10143808e-05 4.48927312e-06
      -1.84022811e-05 -3.91872672e-05 -3.56108067e-05 4.53425855e-06
      1.97786619e-07 -2.72437283e-05 -2.69135653e-05 -2.99735439e-05
      -2.65040053e-05 2.34231194e-07 -2.56832300e-06 1.62932320e-05
      -6.63513129e-05 -2.06542372e-05 -3.98005359e-05 -4.53499597e-05
      -3.77029282e-05 1.01906371e-05 -5.13253217e-05 2.07221638e-05
      2.86570648e-05 3.29781105e-05 -2.17826218e-05 -7.33617999e-05
      -4.68566905e-05 7.35919457e-05 -1.33089197e-05 3.19321725e-06
      1.20096338e-04 -1.64102912e-05 1.04413244e-04 6.20149876e-05
      3.93218215e-05 -5.99350387e-05 -4.17491319e-05 -1.57726572e-05
      -5.25303449e-06 -1.21381745e-04 7.67120073e-05 -3.44546493e-06
      1.80628322e-05 6.93528455e-06 -1.32335063e-05 3.93796799e-05
      1.73616554e-05 -9.71032114e-06 1.01530404e-05 7.18713500e-06
      -2.22236054e-06 6.72757437e-07 2.34969393e-05 2.80197328e-05
      2.95402679e-05 4.04493767e-05 -9.69005632e-05 -8.40581633e-05
      -7.86311139e-05 7.23490084e-05 7.21564284e-05 4.81220013e-05
      3.30368348e-05 3.78122350e-05 4.04424500e-05 1.60734555e-06
      5.23100753e-05 5.30635079e-05 1.05612358e-04 1.52236976e-06
      -1.77986130e-05 -1.29090240e-05 1.99575588e-05 -2.35102998e-05
      4.25690814e-05 5.01094510e-05 9.75145667e-05 6.66836713e-05
      4.99601701e-05 2.96085291e-05 1.99444185e-05 -2.59978860e-05
      8.05186119e-07 1.42080520e-04 1.87273531e-06 5.51785379e-05
      1.29315295e-05 9.56208387e-05 -8.58890053e-05 8.09044577e-05
      -9.44536296e-05 -1.71264674e-05 8.94768345e-06 4.22874473e-05
      -7.73682841e-05 -1.33445792e-05 8.50954020e-05 3.32612872e-05
      7.79449838e-05 -1.84162382e-05 6.15138697e-06 -1.19587921e-05
      5.60523222e-06 3.21855950e-05 1.35151568e-05 -5.77183855e-05
      1.89147468e-05 -1.24034341e-05 2.34018335e-05 1.15239973e-05
      4.60372758e-05 -1.38249970e-05 -1.35986929e-05 -3.55807206e-05
      -3.23695640e-05 -1.32723408e-05 -1.78472510e-05 -4.38825627e-05
      -3.93808768e-05 6.36893528e-05 -1.55104899e-05 -3.32991367e-05
      -3.99882083e-05 6.09724702e-06 5.03683550e-05 3.96906435e-05
      2.69640095e-05 1.98042526e-05 2.32827933e-05 2.93665762e-05
      9.28491936e-05 1.31194320e-04 1.22164973e-04 4.08942469e-05
      3.06025031e-05 1.47369137e-05 1.01512805e-05 9.21865576e-05
      1.62670636e-04 -2.23259449e-05 -1.47492037e-05 1.40925786e-05
      -1.52624980e-05 -1.59233896e-04 4.97798210e-05 6.15029348e-05
      -1.94113236e-04 -1.39924405e-05 1.00788375e-05 -1.03441707e-05
      -4.69120823e-05 9.92119312e-05 8.56137558e-06 3.35170880e-05
      -4.73890432e-05 7.81763447e-06 8.55921553e-06 -1.37743191e-05
      -1.05401830e-06 -6.42190798e-06 -6.06232497e-05 5.06533106e-05
      -3.70100934e-05 -3.36061203e-06 -2.05613856e-06 3.90026835e-05
      1.25288361e-05 1.63681907e-05 -3.79455378e-05 2.80414424e-05
      -9.00689247e-06 1.45039548e-05 9.17750276e-06 -4.13895432e-05
      -7.45149227e-05 -6.43812091e-05 -1.28998845e-05 -6.24460154e-05
      3.00465745e-05 -1.48045783e-05 -2.77192667e-05 6.77697390e-05
      4.86781901e-05 -2.95073860e-05 -6.98589211e-05 -1.85582132e-06
      -7.96195218e-06 -4.14023380e-05 -7.40479372e-05 -3.28419483e-05
      -5.22555783e-05 7.30745887e-05 -7.48618277e-06 1.72910222e-04
      -2.12615414e-05 1.79304934e-05 2.88780811e-05 -4.84989323e-05
      -5.14000167e-05 2.49599343e-05 5.29200988e-05 -4.26929655e-05
      -4.73548353e-05 -7.74882355e-05 -1.13528215e-04 -5.74824007e-05
      8.06022435e-05 6.11517680e-05 -1.76182721e-06 -1.48148265e-05
      -4.28917156e-06 5.33530465e-06 -1.04699457e-05 -1.85535464e-05
      1.38577252e-05 -2.90745152e-06 3.48681860e-05 2.42574060e-06
      1.86830875e-05 1.34229003e-05 4.86050922e-05 -1.77028160e-05
      -5.71830788e-06 -4.03671402e-05 2.13690801e-05 3.76710850e-05
      3.17414015e-05 3.04116875e-05 6.48805417e-06 -3.47485111e-05
      -1.83812481e-05 -2.31843842e-05 -1.92842963e-05 8.03381699e-05
      -1.61076423e-05 -8.60342607e-06 -1.88663344e-05 -2.79568139e-05
      -1.04329392e-05 3.95654024e-05 7.99941190e-05 6.04503248e-06
      -4.46989397e-05 -7.35257854e-05 -9.50904432e-05 -4.52010318e-05
      1.69596478e-05 -9.04273402e-05 6.38386246e-06 -1.04362858e-04
      -3.65466876e-05 -3.06659967e-05 -6.32341994e-07 3.15418220e-05
      2.53502367e-05 1.17256695e-05 5.00071837e-06 -3.32498457e-05
      4.22410885e-05 3.11948315e-05 2.94662027e-06 8.40891007e-05
      1.03820246e-04 -1.48247354e-05 -7.32709741e-05 -9.67030974e-06
      -2.41122289e-05 5.45808762e-05 1.15402572e-05 -2.23145944e-05
      -1.60314721e-05 -1.33543808e-05 -1.18858406e-05 2.07555622e-05
      1.46295515e-05 7.77168043e-06 -1.92367224e-06 4.98596637e-06
      -2.49906293e-06 3.80136880e-05 2.12531631e-05 1.67042290e-05
      -6.78738786e-07 -1.05481467e-05 -4.03764607e-05 -1.55790003e-05
      3.21831999e-06 -2.24240084e-05 4.46508275e-05 -2.19364956e-05
      -3.98180455e-05 -4.64220320e-05 -8.55277813e-06 -3.89433553e-05
      2.68889216e-05 4.57549395e-05 2.27654546e-05 4.61344825e-06
      -6.04624211e-06 -1.49177904e-05 3.03887682e-05 8.14809391e-05
      -1.92655370e-05 5.95808233e-05 -8.21425783e-05 -2.26569991e-05
      -2.71367862e-05 -1.35527167e-04 -2.71497884e-05 6.12757431e-05
      2.35095413e-05 1.10387671e-04 1.39399679e-04 4.35778093e-05
      9.83402861e-05 2.42334499e-05 1.31139488e-04 2.06406439e-05
      2.08119091e-05 2.55157534e-06 -3.51768285e-05 3.91852918e-05
      6.13631637e-05 6.33198870e-05 3.06832699e-05 2.85444930e-05
      4.78646252e-05 3.16145670e-05 4.67909049e-05 5.20570711e-06
      -3.17282902e-05 -7.20985327e-06 1.84523160e-05 -2.32762668e-05
      -2.11433280e-06 -8.98235157e-06 -8.82259428e-06 9.01120438e-06
      2.47225489e-05 1.86081979e-05 -2.65835365e-06 4.12857298e-06
      -4.26343195e-06 6.01406064e-05 -1.62049782e-05 -1.86733905e-05
      -5.80055748e-05 -1.56073220e-05 -1.91953459e-05 6.86814246e-06
      3.10075920e-05 8.85137197e-05 -1.83710563e-05 -7.67166512e-06
      -3.76803509e-05 -6.47234119e-05 6.12828007e-05 4.92904219e-05
      3.27877206e-05 -9.90124681e-05 -5.41114832e-06 5.65268647e-06
      8.71092288e-06 5.17827102e-05 2.88168139e-05 -6.29623901e-05
      -1.51486265e-05 5.98974184e-05 3.54150470e-05 1.13513292e-04
      -7.25203645e-05 2.73919413e-05 1.68355527e-05 -1.99326714e-05
      -2.49401201e-05 -8.05884792e-06 2.09440477e-05 7.70542247e-05
      9.13035274e-06 -1.48069230e-05 -2.16156914e-05 1.88579834e-05
      2.47390039e-06 2.19215981e-05 6.48360538e-06 5.70279699e-05
      1.30584503e-05 -1.00979414e-05 -2.30028290e-05 5.18501947e-05
      1.15669525e-06 -1.24639610e-05 -5.03351202e-06 2.41670696e-05
      4.91768105e-06 -2.55941177e-05 -5.37469678e-05 -9.68136446e-05
      -9.83116206e-06 -4.55468180e-05 1.98727648e-05 -7.86007786e-06
      -3.04612440e-05 -2.67718133e-05 -9.16996796e-05 -5.91478602e-05
      -4.34757967e-05 -4.50132611e-05 2.60597481e-05 7.29261001e-06
      -3.27517482e-05 -7.78315516e-05 -1.21968033e-05 -8.00561156e-06
      -3.41538034e-05 6.53349634e-05 4.94828200e-05 -7.65807818e-06
      3.55220982e-05 -2.21410191e-05 -9.53613562e-05 -7.38193557e-06
      4.23072706e-05 2.27067012e-05 9.20359234e-05 -6.46283588e-05
      -1.35996243e-05 -3.41306659e-05 3.24662469e-05 1.39781787e-05
      2.66844909e-05 6.55331348e-07 3.11313374e-06 2.56996555e-05
      4.23702386e-06 6.38778192e-06 1.84547716e-05 -1.18400167e-05
      1.64062465e-06 4.52821860e-06 3.95330389e-05 1.37075940e-05
      -2.76727114e-05 3.06401998e-05 4.97806213e-05 -1.80039497e-05
      -2.23174302e-05 4.24543771e-07 -1.78035975e-06 2.59543140e-05
      -2.30032310e-05 -5.03314841e-05 -5.48292264e-05 -3.52280881e-06
      -2.35988064e-05 -2.35991070e-06 7.54377379e-06 3.37546298e-05
      -2.31340277e-06 -3.69540285e-05 -9.31121303e-06 -3.22206251e-05
      1.90946485e-05 -6.52087965e-06 2.79772939e-05 2.96211056e-05
      2.20761049e-05 1.01630367e-05 -2.35711523e-05 -3.70758389e-05
      1.02247788e-04 5.64795118e-05 -2.07121957e-06 -7.02693069e-06
      -8.41694200e-05 -7.62573982e-05 4.23149722e-05 8.99270526e-05
      3.26894296e-05 4.99926500e-05 -1.28446525e-04 -4.07906482e-05
      -1.79448343e-05 -2.96009457e-05 4.64921213e-05 2.13825406e-05
      1.08561726e-05 1.90075643e-05 -2.19877529e-06 -2.47584012e-05
      2.97918559e-05 2.62216599e-05 3.29019604e-05 3.06814654e-05
      1.28706379e-05 2.03096497e-05 -1.31486995e-05 -4.26091356e-05
      9.45566717e-06 2.50200210e-05 7.66266567e-06 -3.92237610e-07
      2.53762191e-05 2.48527908e-06 -9.14600150e-06 3.13759629e-05
      -1.10205528e-05 4.44789703e-06 1.24811304e-05 -7.20038088e-07
      3.99189048e-06 1.45183203e-05 1.72624077e-05 1.47029850e-05
      -8.56986026e-06 7.51007246e-05 -3.37406964e-05 2.20270467e-05
      -2.60779007e-06 4.88064143e-05 1.88337399e-05 2.32193474e-06
      7.97049870e-06 -4.20359356e-05 -4.12959853e-05 4.86558492e-05
      5.39324246e-05 -2.11727529e-05 -2.11525876e-05 4.46109443e-05
      -5.55683891e-06 1.60055533e-05 2.28066256e-06 1.40587881e-05
      2.06805198e-05 -1.07366475e-04 1.59776373e-05 3.63436120e-05
      2.90039097e-05 4.14855022e-05 2.98879149e-05 1.52740377e-05
      4.54613073e-05 8.72604323e-06 -2.35501939e-05 -1.12969665e-05
      -1.03836828e-05 -3.99686223e-06 -1.41589471e-05 -2.48264223e-05
      3.48223439e-05 -4.43798635e-05 -6.46184562e-05 4.46312479e-05
      2.75197708e-05 -2.50208795e-05 -3.72690943e-06 -2.57931497e-05
      -2.82956262e-05 -1.68179267e-05 1.42579065e-05 5.69612484e-06
      1.55889629e-05 3.72269533e-05 2.20296861e-05 2.10814997e-05
      -3.08192034e-06 3.87445980e-05 9.17097532e-06 6.15418776e-06
      5.38576824e-05 -5.88643297e-06 4.03671875e-05 1.22914007e-05
      2.10776561e-05 5.87699033e-05 3.10804103e-06 1.72028158e-05
      2.98969244e-05 8.57436680e-06 7.03028854e-05 3.74171250e-05
      -6.66493506e-05 -4.28537605e-05 -2.06569894e-05 -2.66042025e-05
      3.51772042e-06 -5.42336711e-05 -3.12298107e-05 1.84050004e-05
      -3.45713779e-05 7.17960029e-06 1.01288324e-05 -6.07070933e-06
      3.31709889e-05 6.11932410e-05 1.48064355e-05 -3.03316683e-05
      1.76801095e-05 7.84758595e-06 1.67431222e-06 -3.77367687e-05
      -2.17064407e-05 -1.55777252e-05 -3.18719285e-05 -3.61858802e-05
      -7.51261687e-05 -4.45309706e-05 3.65276428e-05 1.76953199e-05
      -1.11987465e-05 3.83784709e-06 -1.19922679e-05 -1.17861082e-05
      -3.31801712e-05 -8.70526492e-06 2.40078352e-05 -2.59281624e-05
      3.03353809e-05 -2.83708814e-05 -3.60538543e-05 -6.11626238e-05
      1.88772319e-05 7.82891038e-06 -2.88219035e-05 -2.94566398e-05
      -3.56292112e-05 3.07032133e-05 -2.47933622e-05 4.28503910e-07
      2.82618348e-05 3.43348415e-06 1.61576627e-05 2.20370584e-05
      1.06754587e-05 9.16796998e-05 1.06211919e-04 1.40440090e-06
      -9.74141585e-06 6.50543484e-07 -6.53342649e-05 5.66946437e-05
      3.33242569e-05 9.97635016e-06 3.69957415e-05 4.76147761e-06
      2.01088933e-05 2.09227728e-05 5.82507273e-05 8.82664972e-05
      5.66958624e-05 1.19656042e-05 3.86717056e-06 1.04123601e-05
      4.54072324e-05 3.38917453e-05 -5.74897103e-06 3.02313128e-05
      -6.38450456e-06 -5.94609673e-06 -3.11953881e-05 -1.28437632e-05
      1.11079589e-05 6.12198055e-05 2.60108100e-05 3.89553679e-06
      1.79800954e-05 4.08878586e-05 -6.48131618e-06 1.41976216e-05
      4.60961428e-06 4.32259549e-05 1.52865396e-05 2.53291978e-06
      -4.96771754e-05 -2.32218190e-05 -4.80705930e-05 -2.38982611e-05
      3.18480961e-05 6.00102321e-05 -2.20542734e-05 -6.10254283e-05
      -2.77070176e-05 -1.48759545e-05 1.56143344e-07 8.63387613e-05
      2.34132785e-05 5.98089682e-05 4.21044133e-05 6.35680626e-05
      8.20041678e-05 1.09020448e-05 -6.93209877e-05 1.57292052e-05
      -3.13399396e-05 -7.16353679e-05 3.85228050e-05 -8.03803141e-06
      2.74817864e-07 8.09043704e-05 -1.47794581e-05 -3.87531545e-05
      -2.53262510e-06 1.02371108e-04 8.40939756e-05 1.23789250e-05
      -8.72788005e-05 -1.05616593e-04 -1.07061729e-04 4.13269445e-05
      5.04513300e-05 4.21781260e-05 -2.25972708e-05 -1.96084657e-05
      6.52007147e-05 5.22021619e-05 2.04997759e-05 2.91600190e-05
      6.15725803e-05 4.89200684e-05 2.47372718e-05 3.09675706e-05
      4.35733127e-05 9.42048973e-06 5.93656659e-06 -3.97221665e-05
      -1.79254275e-05 -5.37790811e-06 -2.88937681e-05 -7.87167082e-05
      -2.66816096e-05 -5.79649532e-05 1.31737052e-05 1.20877718e-04
      1.07832384e-04 3.68047986e-05 -7.78355097e-05 -2.96061626e-05
      7.18064184e-05 -1.40301127e-05 -2.10169146e-05 -5.31005171e-05
      8.24027120e-06 6.28370026e-06 8.22445509e-05 4.87192010e-05
      -1.02049732e-07 -6.27000991e-05 -5.50567493e-05 -7.12457113e-05
      -4.34586982e-05 4.49434401e-06 -1.39990843e-05 3.51919607e-06
      -3.18753373e-05 -8.72849923e-05 -3.46659704e-06 -1.15170260e-05
      -1.83840602e-05 -3.74901865e-05 3.48463323e-06 1.72864839e-05
      -6.34978096e-06 -8.63316200e-06 4.21958430e-06 1.36551662e-05
      -5.37559936e-05 -5.13246596e-05 -3.94586204e-05 -3.81193313e-05
      -9.64629999e-06 -3.39676008e-05 -5.04473937e-05 3.47342502e-05
      3.70539819e-05 5.24746392e-05 2.93245248e-05 5.06823926e-06
      -8.67472681e-06 4.98440477e-06 -4.37157832e-05 -7.08010521e-06
      1.76919802e-05 -1.81772757e-05 -4.87211546e-05 -1.99922724e-05
      -3.13771852e-05 5.20277317e-05 6.62493912e-05 9.73774586e-05
      7.58862952e-05 8.30462704e-06 2.57828015e-05 -3.52820862e-05
      6.75639740e-06 -6.40453607e-07 -2.74740978e-05 -5.92900651e-05
      5.46556948e-05 7.19409654e-05 2.23233383e-05 -1.43485868e-05
      -5.60691769e-05 -7.63564531e-05 -1.12528011e-04 -1.09094879e-04
      3.51864946e-05 -3.04335790e-05 -3.66263266e-05 -4.33388450e-05
      -9.77646050e-05 -2.27550045e-05 1.46302409e-05 -1.27817693e-05
      7.26735561e-06 -1.57594986e-05 4.20677206e-05 9.53238305e-06
      5.49849256e-06 -1.63808290e-05 -2.25632230e-05 -2.66354691e-05
      -3.48104622e-05 -6.39045466e-05 -2.50160792e-05 -5.51901212e-05
      -2.17624383e-05 -4.70567647e-05 -7.64424331e-05 -8.22000584e-06
      -1.10624032e-05 1.68221850e-05 3.90629248e-05 5.62430505e-05
      2.16181761e-05 -3.85022686e-05 -3.01995969e-05 3.30321054e-05
      2.69222928e-05 -1.57423699e-06 5.29320005e-06 5.80618871e-06
      2.58707587e-05 5.05117132e-05 6.96460120e-05 8.38622800e-05
      4.81803545e-05 7.45194484e-05 -1.17224117e-05 4.10028224e-05
      1.60728978e-05 -9.03757791e-06 -1.12157621e-04 1.58474234e-06
      5.71891396e-05 1.89972779e-05 -5.96984719e-05 -4.88722762e-05
      -2.48415290e-05 -6.74564217e-05 -2.16136486e-05 4.09174208e-05
      -2.53887083e-05 2.71624904e-05 -6.32884839e-05 -8.00431735e-05
      4.62433891e-05 4.60912315e-06 4.22398261e-05 2.15533200e-05
      -8.21171398e-06 -2.38046505e-05 1.47332585e-05 4.65579760e-05
      9.13852909e-06 2.02529864e-05 -1.14694501e-06 -8.08775985e-06
      -2.73840360e-05 8.03194343e-05 2.71586978e-05 4.81766292e-05
      -4.07701227e-05 -2.27145156e-05 -3.23808490e-05 -3.35477780e-05
      -2.66027146e-05 -3.25888032e-05 -1.34681468e-05 -7.68404152e-06
      -6.51230366e-05 3.48125468e-05 1.25896986e-05 9.36679589e-06
      -2.42143851e-05 -3.94941053e-05 1.17086156e-05 3.72163886e-05
      5.25971154e-05 -2.01741714e-05 -1.95206521e-05 3.89217894e-05
      3.71463693e-06 -3.70923408e-05 -2.92662316e-05 1.94957647e-05
      -6.43660314e-05 -2.91621127e-05 -1.66054451e-05 1.59433184e-05
      2.64818009e-05 1.53313317e-06 -2.51919100e-05 -1.40089514e-06
      -1.94756267e-05 4.74290173e-05 -2.15673899e-05 -7.17616858e-05
      -5.89220617e-05 -5.42047601e-05 4.24104437e-05 2.39838901e-05
      2.70022756e-05 9.23953939e-06 4.44834150e-05 2.44385774e-05
      -1.95670964e-05 -2.01090534e-05 7.67896017e-06 -3.88819171e-05
      -7.70714541e-06 -1.60746804e-05 2.16986496e-06 -1.04013507e-05
      9.04568296e-05 6.94213168e-06 1.21316507e-05 6.62481616e-05
      6.94438713e-05 -2.28414265e-05 2.20893962e-05 2.58118271e-05
      -4.55175577e-05 -4.40269432e-05 -2.73910209e-05 -5.38253371e-05
      1.92290167e-06 -2.36519099e-05 9.51605580e-06 -7.53155764e-05
      -5.78394283e-05 -4.24054597e-05 2.55058021e-05 7.22715322e-06
      7.83017276e-06 -4.49710069e-06 -3.96348078e-05 7.63959906e-06
      -8.01204806e-06 1.11542649e-05 -2.87873377e-06 -5.48118405e-05
      -7.55610599e-05 -6.48072964e-05 1.25787046e-05 2.59576555e-05
      -8.42144145e-05 -3.58107645e-05 3.76587632e-05 -1.02187123e-05
      1.10805093e-04 -1.27475223e-05 -4.19632270e-05 4.76446030e-06
      -4.42611126e-05 3.30279145e-05 1.22917663e-05 -1.05845038e-05
      -8.17642285e-05 2.02453975e-05 -1.64962912e-05 -5.57413841e-05
      -2.61749155e-05 -1.21413304e-05 -6.23944943e-05 -2.26351694e-05
      -1.59746069e-05 3.17184749e-05 -3.54657132e-05 5.15638530e-05
      -5.90707032e-06 -6.39160498e-06 8.86258840e-06 3.75402051e-05
      -1.05908121e-05 4.47418170e-05 1.72144810e-05 -1.97611134e-05
      -1.06787202e-05 -1.25143579e-05 -3.31847295e-05 2.26715165e-05
      1.82120748e-05 3.09433162e-05 -9.48641537e-06 1.06496218e-05
      1.63965706e-05 7.11154644e-05 5.02722251e-05 4.04046004e-05
      2.77702816e-06 1.27046924e-05 -1.38150353e-05 1.43564182e-06
      -3.13558048e-05 -4.39856958e-05 -8.79489889e-05 -9.67415981e-05
      -1.09070097e-04 -4.08874075e-05 -8.95111316e-06 -7.83317009e-05
      -7.89376645e-05 -2.34271738e-05 3.42655476e-05 9.46853324e-05
      -1.32236135e-04 -5.17230292e-05 -6.83732360e-05 -6.41704901e-05
      -1.69298291e-05 -5.02728108e-06 2.64518185e-05 -7.55136571e-05
      -2.55456666e-06 7.47108334e-06 -5.36860171e-05 -1.37930838e-05
      2.78570296e-05 1.74585457e-05 -1.58303283e-05 5.93500445e-05
      9.97059033e-06 1.83714637e-05 7.53534187e-05 3.87142900e-05
      3.60618360e-05 1.82767144e-05 1.61032131e-05 3.28593269e-05
      -4.24633872e-05 -6.15459612e-06 3.31386218e-05 -1.73151955e-06
      -2.33826431e-05 -2.79234355e-05 4.07815678e-05 3.45225417e-05
      5.04577019e-06 -1.69831746e-05 2.15991840e-05 1.91653908e-05
      2.04334829e-05 2.77586651e-06 -4.04463972e-05 6.90503293e-05
      5.43743545e-06 -5.31627920e-05 -2.47742319e-05 -6.90561092e-06
      5.35202707e-05 4.48377068e-06 1.39401809e-05 1.71190040e-05
      3.01873279e-05 8.38002888e-05 2.04442244e-06 9.00276336e-06
      7.34627392e-05 1.18699732e-04 9.50957328e-05 -2.02802380e-06
      -7.35518597e-06 1.36816088e-05 -2.22514723e-06 4.30114196e-05
      5.34883293e-05 1.07209817e-04 3.68966503e-05 6.84420083e-05
      5.59370637e-05 2.33240771e-05 4.51075430e-05 5.01552349e-05
      1.13466476e-05 5.58034844e-05 8.29888450e-06 1.54189456e-05
      -1.05339097e-06 4.04554557e-05 2.59904191e-05 5.17548178e-05
      -3.06940710e-05 9.69491794e-07 4.82791984e-06 -4.48240462e-05
      -4.04417042e-05 -4.15696013e-05 1.75106215e-05 -2.80329932e-05
      -1.44580017e-05 8.03043895e-06 4.21912628e-05 2.00419654e-05
      -1.43337584e-05 2.86554750e-05 2.87360876e-06 -5.89168230e-05
      -4.66035126e-05 -4.12177769e-06 3.49828520e-06 -3.39596227e-05
      -3.31150950e-05 -3.32599957e-05 3.40333116e-07 1.00176030e-05
      -8.73001454e-07 -1.81520263e-05 1.16570200e-05 2.30869282e-05
      3.46609886e-05 3.95136885e-06 2.10784365e-05 7.40533214e-05
      -7.29807311e-07 6.72923416e-05 3.04260011e-05 -1.30338503e-05
      2.00564809e-05 -5.76977945e-05 -3.41827981e-05 -9.60475245e-06
      7.64951983e-05 7.32632725e-06 6.14277960e-05 6.72503884e-05
      7.45353027e-05 7.24923884e-05 7.55101573e-05 4.11977890e-05
      3.31276278e-05 3.09708448e-05 6.51747632e-06 6.38948040e-06
      7.23201010e-05 9.41678081e-05 1.32407913e-05 -4.16792609e-05
      -1.62686729e-06 8.17593755e-05 -4.57260685e-05 -5.61096101e-07
      -2.63927523e-05 -1.44799878e-05 -5.40257679e-05 -4.87419238e-05
      6.68264647e-06 1.42172885e-05 2.13137919e-05 -5.12626730e-06
      4.84895718e-05 1.81967043e-05 -2.50811845e-05 -9.15131932e-06
      2.49189397e-05 3.87575383e-05 -8.73430054e-06 1.05375639e-05
      -2.70587043e-05 3.79496632e-05 3.56987694e-05 -3.20210092e-05
      1.54671125e-05 1.78811915e-05 4.39876785e-05 1.51945505e-05
      -1.82447548e-05 -1.07468895e-05 1.83407212e-06 -3.97444728e-06
      3.28001333e-05 1.12918751e-05 -5.05530697e-05 1.25368970e-05
      -3.50789014e-05 3.66322347e-05 -3.53295472e-05 7.80857299e-05
      -8.85750924e-05 7.30503962e-06 5.45183793e-05 2.18833356e-05
      -2.86401537e-05 1.12800617e-05 -8.13834788e-07 1.39165888e-06
      -2.34480067e-05 -3.85748535e-05 -4.86597855e-06 9.88044485e-06
      2.22380568e-05 4.03607264e-05 -7.60364537e-06 -5.81137065e-05
      1.97628633e-05 -3.87361615e-05 -4.59195071e-05 -6.47618872e-05
      -3.08722338e-05 -4.37195522e-05 -6.00358944e-05 -8.39566746e-06
      8.87395254e-06 1.23392301e-05 -3.23071727e-05 1.71697902e-05
      6.01808233e-06 2.64395221e-05 -1.78797873e-05 -1.83917691e-05
      9.17688976e-06 -1.06123907e-05 -1.21962512e-06 -5.64712263e-06
      -2.63069669e-05 3.02514800e-05 -2.95614627e-05 -5.08646644e-06
      -1.75743644e-05 2.84748257e-05 3.83455590e-05 -4.51145170e-05
      2.34397248e-05 2.29145348e-06 -3.54465446e-05 -5.80707319e-06
      -8.01444112e-05 -8.43399757e-05 -3.10202086e-05 -9.13219919e-05
      2.81429056e-05 -6.89955268e-05 -1.06156531e-05 -6.89144144e-05
      -3.14192002e-05 -1.41850487e-05 -4.43954414e-05 -2.79961114e-05
      -3.54042531e-05 -4.05065184e-05 -4.16460243e-05 6.46993897e-07
      1.20022241e-05 -1.49313164e-05 -3.08165072e-05 -2.08764050e-06
      -9.12159157e-06 2.77677700e-05 -5.97617873e-05 3.71602837e-05
      3.24582725e-05 -9.49324567e-06 -5.74914084e-05 -4.32496599e-05
      -5.35407453e-05 -2.66326751e-05 3.82050393e-06 3.64505395e-05
      7.27624138e-06 -2.15558211e-05 3.69308291e-05 -1.58560197e-05
      6.02541513e-05 -2.39851161e-05 8.23637674e-06 -2.18513833e-05
      8.06316984e-06 5.02883813e-05 -3.07815026e-05 -2.63594648e-05
      2.62523517e-05 -4.21779587e-05 -3.09587740e-05 -7.42251432e-05
      1.17787868e-05 5.46356641e-05 -1.06877756e-04 -8.16392287e-08
      2.79545475e-05 1.10226983e-06 5.85062189e-05 2.24639989e-05
      1.51753675e-05 5.30967645e-06 -4.33971618e-05 3.14280951e-05
      -8.86718408e-06 4.39443793e-05 -7.68673563e-05 -3.29288996e-05
      -4.35989386e-06 -2.70275796e-05 -7.52214419e-06 -2.89923319e-05
      -2.47944604e-06 -3.77610559e-05 2.66718562e-05 2.64043301e-05
      6.08076916e-05 -3.05849790e-05 2.27791770e-05 -2.51067013e-05
      5.79417429e-05 -1.92794578e-05 3.17150407e-05 6.79320001e-05
      3.19920473e-05 2.38456300e-06 -3.74514857e-05 -4.57918977e-05
      -4.31373046e-05 -3.54308554e-06 5.56900777e-05 -1.59117990e-05
      7.95205688e-06 5.81618042e-05 5.09591155e-06 1.64193225e-05
      -3.25984456e-06 4.36784758e-05 1.37867191e-05 1.18543142e-06
      2.01865732e-05 -2.65886592e-05 1.41700175e-05 1.50028300e-05
      -2.50983830e-05 -2.69444718e-05 -4.19058888e-05 4.28420826e-05
      7.03204933e-05 -4.96920948e-05 6.77836169e-06 5.50920995e-05
      -1.31921634e-05 2.03136970e-05 3.44680229e-05 3.98628072e-05
      9.00887790e-06 2.56541134e-05 1.33423155e-05 -3.46890010e-05
      1.48846648e-05 -7.16901486e-05 -3.67916691e-05 -2.22197705e-05
      -2.65263552e-05 -1.20024024e-05 4.69736818e-08 -3.61418256e-06
      1.30939279e-05 1.17761019e-05 1.16683732e-05 2.33691826e-05
      2.43030681e-05 -1.62000026e-06 2.12746345e-05 1.76876456e-05
      -3.07079608e-05 4.23908969e-05 5.59711880e-05 -1.37267789e-05
      3.33320168e-05 -3.73597250e-05 -3.50819391e-05 -5.43856404e-05
      -1.83622778e-05 7.10384775e-05 3.80642050e-05 1.28576294e-05
      7.28900704e-05 1.85140725e-05 3.17782433e-05 3.30899493e-05
      4.88286860e-05 4.23307283e-05 8.45434442e-06 4.62539532e-07
      2.79250835e-05 -1.21632083e-05 -1.67982616e-05 1.12375972e-06
      -2.48446795e-05 -1.74048291e-05 4.28819149e-05 5.69614276e-05
      1.81555479e-05 -7.35244203e-06 4.47383572e-05 -1.69796167e-05
      2.24580217e-05 -1.67648238e-06 -1.02983631e-05 -2.56605326e-05
      3.74282754e-05 -1.41692260e-06 -5.18098595e-08 3.15499783e-05
      -3.52430434e-05 1.49818206e-05 -4.19063072e-05 -1.12958523e-05
      2.08022611e-05 -1.10038736e-05 -2.05721699e-05 1.50456808e-05
      -1.59766987e-05 2.63576167e-05 3.39864687e-06 1.24124417e-05
      2.77247673e-05 1.36165827e-05 4.01989382e-05 -4.97217798e-06
      -1.20213326e-05 6.18208069e-05 5.10713980e-05 5.66485214e-05
      1.28264937e-05 -1.98115740e-05 -6.33170712e-05 -5.06250908e-05
      -3.29866671e-05 3.72663777e-07 8.03492185e-06 7.49075625e-05
      3.37996389e-05 1.19957904e-05 -1.46360589e-05 2.99140702e-05
      -7.28378791e-06 -9.88002830e-06 -2.21403145e-08 1.96440833e-05
      -2.43792620e-05 -1.16264218e-05 -1.56061815e-05 2.09222435e-05
      -3.29024078e-05 -1.39557542e-05 -3.14412682e-05 -1.08319437e-05
      -5.38069216e-05 -7.74737600e-07 -9.03958498e-05 -4.03610757e-05
      1.04308856e-05 -2.11108345e-05 1.38527339e-05 1.37626421e-05
      2.44570419e-05 1.67694252e-05 2.52305608e-06 2.13255930e-06
      -1.04880273e-05 -1.15765324e-05 -5.05870375e-05 -5.13319401e-06
      -3.18691382e-05 7.30318243e-06 -4.02122969e-05 1.05211639e-05
      5.79207554e-05 4.44486031e-05 4.07572370e-05 5.58817665e-05
      2.48718989e-05 2.53707403e-05 4.44372427e-06 -2.17278393e-05
      6.74220792e-05 7.22812256e-05 5.50365894e-06 -1.34171678e-05
      -3.79500452e-05 -8.31614852e-06 -3.05980175e-05 4.02616279e-05
      1.27278017e-05 -5.37696942e-05 1.95847260e-05 1.47362425e-06
      3.61223356e-05 1.11807594e-05 3.09606658e-05 1.72205891e-05
      -2.10548114e-05 -1.31714933e-05 9.21661285e-06 -1.93658416e-05
      2.43322520e-05 -1.67287490e-05 3.16011392e-05 3.30377370e-05
      3.23478162e-06 -3.50920018e-05 -6.56949342e-05 -1.42520912e-05
      3.19747305e-05 -4.82626492e-05 -2.61511595e-05 4.32696688e-05
      4.50611587e-05 7.94193256e-05 7.35897775e-05 6.58971258e-05
      4.95332961e-06 6.95745111e-05 2.47423541e-05 7.46912629e-05
      4.11736728e-05 2.59947501e-05 3.73865223e-05 7.28491295e-06
      2.52710743e-05 -1.15020812e-05 -4.72449610e-05 -9.64546598e-06
      2.01395924e-05 1.70975682e-06 6.61281729e-06 -2.53866892e-05
      -3.51114136e-06 2.91255274e-05 2.34098188e-05 5.40785768e-05
      5.88913535e-05 4.18645832e-05 3.53695868e-05 5.98528641e-05
      9.24478009e-05 5.76221719e-05 4.68839498e-05 7.67332021e-05
      -3.01601285e-05 -4.37008157e-06 7.36340153e-05 3.65656379e-05
      5.01492868e-05 5.73172656e-05 4.01690413e-05 5.96557038e-05
      6.70870068e-05 5.83789115e-05 3.32077179e-05 1.18343938e-04
      4.00531062e-05 4.16812181e-05 8.83827306e-05 4.99370435e-05
      2.02626561e-05 2.35259577e-05 2.18035748e-05 8.99437509e-05
      5.40351321e-05 5.26005242e-05 -3.31882038e-05 4.93475382e-05
      3.26341687e-05 -3.98442571e-05 4.99138150e-05 -1.00767120e-05
      -1.93686410e-05 4.39667446e-07 7.87647950e-05 3.39747894e-05
      3.29387403e-05 3.97338663e-05 2.92416244e-05 1.82957301e-05
      -2.39612218e-05 -3.27105008e-05 -3.56492674e-05 -1.03468929e-05
      2.81058292e-05 -2.31842532e-05 -4.04707316e-05 -5.58205902e-05
      -9.83614227e-05 -1.19783763e-04 -4.44659745e-05 -7.78088361e-05
      -3.46504166e-05 5.59105210e-05 6.35618489e-05 4.35243855e-05
      -4.50658445e-05 -8.05615946e-06 -3.84709892e-05 -5.57095018e-06
      7.20342432e-05 1.04902665e-05 -8.09178437e-06 2.47759908e-06
      4.69115548e-05 2.55300329e-05 3.11549447e-05 4.05780338e-05
      4.80466661e-05 2.09894788e-05 4.46541708e-05 -2.82043493e-05
      5.57289459e-05 5.28414603e-05 3.90177593e-05 -4.33276437e-05
      -3.75139484e-06 3.60166487e-05 1.23062768e-04 5.05890130e-05
      9.51906186e-05 -9.20689854e-05 -5.40748852e-06 -4.33218011e-05
      -9.48488596e-05 -2.64695991e-05 6.04017478e-05 -6.33767268e-05
      1.15399271e-04 -8.72530945e-05 5.55972874e-05 2.62384469e-06
      6.14868914e-05 5.25292999e-05 7.41427866e-05 2.29506313e-05
      9.60754278e-06 -5.33322309e-05 1.38179612e-05 4.85601377e-05
      -3.74163369e-06 9.34649051e-06 -5.68059477e-06 -3.15371981e-05
      -6.57579294e-05 -8.18576427e-06 4.51425149e-06 2.89141299e-05
      2.12618725e-05 1.53271776e-05 -1.10663732e-05 -6.42660088e-05
      4.54349647e-05 -1.44602309e-05 2.29557754e-05 1.67201670e-05
      -2.00515478e-05 -9.58773308e-05 -4.55319314e-05 4.30574073e-05
      1.05134068e-05 3.90432251e-05 8.22217407e-05 -3.08767630e-05
      -5.89036631e-07 -7.00046530e-06 -1.68605111e-05 -2.63290640e-05
      -2.21439095e-05 3.86678912e-05 -2.11212500e-05 5.07221193e-06
      5.43459973e-05 1.11416077e-04 4.61778109e-05 5.14212406e-05
      -1.46142056e-05 -2.08164493e-05 -7.46600126e-05 -1.03612292e-04
      -6.17954429e-05 -9.10169983e-05 8.27718759e-06 -3.32341297e-05
      -1.33385365e-05 -8.12092112e-05 -7.55547153e-05 -4.96440334e-05
      -3.99949786e-05 -6.92070307e-06 -6.72235183e-05 -8.63630194e-05
      -6.03002991e-05 -4.33130917e-05 8.63954119e-05 2.41079633e-05
      7.45764237e-06 6.16484795e-06 6.29303804e-06 -3.06452166e-05
      5.08441008e-05 8.66332193e-05 2.18535079e-05 1.33710391e-05
      2.64915275e-06 2.92560253e-05 8.73483623e-06 1.72974451e-05
      -7.36635411e-05 -4.24625432e-05 1.97799036e-05 9.06842106e-05
      -3.34911019e-05 3.29681001e-07 -7.26253929e-05 -1.13937756e-04
      1.64298308e-05 -4.55353393e-06 -4.15212198e-05 -8.36674644e-06
      8.10293386e-06 -9.05023080e-06 -1.39284994e-05 -5.95089768e-05
      -3.46606575e-05 1.34746515e-05 5.63097783e-05 -4.31768603e-05
      4.87522520e-05 2.06884561e-05 -3.86609645e-05 -4.57555434e-05
      -3.97140248e-05 -1.21914818e-04 -1.54595240e-04 -4.97259534e-05
      -1.02250771e-04 4.45584665e-05 -1.13319933e-04 -3.60722006e-05
      5.67350253e-05 -5.14654994e-06 -5.79676234e-05 -8.23712544e-05
      -8.22068323e-05 -7.43979690e-05 -9.85891093e-05 -9.35568460e-05
      -5.95626152e-05 -6.05218556e-05 -1.41040955e-05 6.36716277e-06
      -1.61065032e-06 -6.69581686e-06 -6.88433793e-05 3.56932978e-05
      4.55054687e-05 9.22852269e-06 9.52154824e-06 -3.85530075e-06
      -2.07194967e-06 -5.53087148e-06 -2.36252035e-05 -8.20191271e-05
      7.64461729e-05 1.08332497e-04 1.29978231e-04 -1.09327375e-05
      3.87244017e-06 -5.04503942e-06 6.03200315e-05 5.27317206e-05
      2.38679349e-05 4.99224516e-05 7.77589812e-05 8.65299735e-05
      4.77279500e-05 2.26067768e-05 -1.63576733e-05 2.22103790e-05
      2.72018569e-05 1.15106423e-05 -1.22601223e-05 5.82533357e-05
      -1.07287005e-05 -4.94634514e-05 3.71063397e-05 1.97638292e-05
      -9.64736319e-06 -7.18001502e-06 2.47294884e-05 5.02303810e-05
      5.39479297e-05 -6.49807907e-06 6.30018476e-05 4.05361498e-05
      2.57075462e-05 1.77353922e-06 1.56854949e-05 3.63264480e-05
      9.92377227e-06 -5.75935837e-06 -3.29466548e-06 4.97481815e-05
      5.40013025e-05 1.18678527e-05 1.70604028e-06 -2.29075540e-05
      9.76889078e-06 -2.15355658e-06 5.51780868e-05 8.94836339e-05
      1.67505077e-05 -4.04478578e-06 -1.14712420e-05 -4.41538214e-05
      -7.36078655e-05 4.22304511e-05 2.68728418e-05 3.73515177e-05
      2.35746193e-05 4.03951844e-06 -5.08600751e-05 -5.34068276e-05
      -3.77066899e-05 -4.44468387e-05 -2.12522900e-05 3.65505439e-05
      4.11203036e-05 9.13226322e-05 1.01093952e-04 3.03546749e-05
      2.59878361e-05 6.33922036e-06 -1.23163218e-05 -1.74440561e-06
      -3.25828005e-05 -5.93169825e-05 5.34736137e-05 -4.12528098e-05
      -1.91957170e-05 -5.97336293e-05 -3.06707511e-06 4.75861452e-05
      -5.03267365e-05 4.35331276e-05 1.00110090e-04 -5.52539041e-06
      -1.91345844e-05 3.78164950e-05 2.56829953e-05 1.42782328e-05
      2.27112905e-05 1.05774670e-05 3.66808740e-06 2.01334497e-05
      -3.95922541e-07 -4.17447009e-05 5.87871727e-05 2.96051276e-05
      2.34555700e-05 9.77334275e-06 -4.82908872e-05 8.69175801e-06
      4.15502691e-05 4.67957361e-05 5.17104236e-05 8.15422936e-06
      -5.38193854e-06 7.09159303e-06 1.78678856e-05 -8.06164644e-06
      -6.49714138e-06 5.15086504e-06 -9.81317044e-06 -2.16925273e-05
      1.09799967e-05 -2.28451718e-05 -2.14028000e-06 -1.81663854e-05
      -4.38849129e-05 -6.44498214e-05 -2.72987254e-05 3.76911230e-05
      2.99659750e-05 4.15258910e-05 3.64992934e-06 6.38727361e-05
      1.93574288e-05 -3.33852608e-06 -2.47476310e-05 -2.22538129e-05
      -6.78005745e-05 2.74855520e-05 -5.37553678e-05 -3.00485699e-05
      -3.35918012e-05 -6.38056372e-05 -2.30359528e-05 -4.58979521e-05
      8.43412272e-05 1.49518983e-05 5.56898522e-05 -2.96047583e-05
      -3.97165508e-07 1.15107423e-05 1.01506157e-04 -1.88617305e-05
      1.97196605e-05 2.86375803e-06 -2.63832717e-05 8.20219429e-06
      -1.52907396e-05 4.59872717e-05 -1.08184895e-05 -2.09714672e-05
      1.02654558e-05 8.86434136e-05 3.65631604e-05 3.13988312e-05
      2.74648992e-05 -1.90879437e-05 2.77383278e-05 8.63020759e-05
      4.83096774e-05 4.24784084e-05 4.74985018e-06 4.60305591e-06
      -2.80143686e-05 -4.15193717e-05 -2.95495011e-06 -4.71315252e-05
      6.15060912e-07 -5.45874609e-05 1.32426649e-05 -1.24700855e-05
      2.85418337e-05 3.95971110e-05 1.11915961e-05 -1.57304312e-05
      -3.27404377e-05 7.42071279e-05 8.42528461e-05 8.18841436e-05
      -6.17885871e-06 -1.66337504e-05 -1.05742525e-04 -2.95378122e-05
      5.09340025e-05 8.30873032e-05 5.38152053e-05 -5.90402451e-05
      -3.08383387e-05 1.19906163e-05 -4.40404801e-05 5.82523207e-05
      5.15374595e-05 6.60715232e-05 6.91043215e-06 2.07769299e-05
      1.63360437e-05 2.04838780e-05 2.74807844e-05 3.63017971e-05
      -9.46214811e-07 -1.38858231e-05 -4.84494876e-06 -3.41624582e-05
      -1.64031690e-06 -6.74099574e-05 -4.85448945e-05 4.13695780e-05
      3.17057966e-05 5.13564191e-05 2.31011018e-05 1.22105543e-04
      1.13930706e-04 8.79956715e-05 8.37433181e-05 2.29915095e-05
      -5.81682480e-06 4.38058851e-06 7.57987218e-05 3.47431705e-05
      3.58419675e-05 2.19958238e-05 8.11672362e-05 -9.13994973e-06
      6.86976709e-05 4.73054206e-05 1.34681886e-05 -1.12914931e-05
      -7.07193431e-06 -3.05305330e-05 2.32099283e-05 -4.20872129e-06
      7.25668360e-05 7.87019962e-05 2.51722649e-05 1.22822585e-05
      1.00765669e-06 1.54784611e-05 -1.69041359e-05 1.97836471e-05
      2.38344091e-05 -1.34222035e-04 1.56922451e-05 -2.05635079e-05
      -4.30886466e-05 -5.26781405e-05 -5.75053164e-05 -1.35163409e-05
      6.74857583e-05 1.05391715e-04 -1.70428557e-05 1.04786177e-05
      -1.07655444e-06 3.58826364e-05 3.34319811e-05 4.56568814e-05
      4.08652704e-05 -4.11507608e-05 -4.75979396e-05 -2.65341660e-05
      1.04125984e-05 -4.25212202e-05 -4.83617951e-05 -2.36103551e-05
      -4.07157022e-05 4.08467058e-05 1.39904994e-04 3.66041822e-05
      5.19329806e-05 1.29677974e-05 1.77695583e-05 2.73580099e-06
      6.42945306e-05 1.71246538e-05 2.63781239e-05 3.26077279e-05
      1.01664220e-04 9.53490380e-05 7.57736343e-05 1.28950604e-04
      5.18104534e-05 -3.04038276e-05 -5.18288834e-05 -2.65435592e-05
      -4.25960025e-06 6.09415292e-05 1.22453375e-05 4.21197001e-06
      -5.01431532e-05 -1.51941595e-05 -2.98114046e-05 4.77521862e-05
      1.41869623e-05 -2.75920738e-05 -4.20433826e-05 -9.47630979e-05
      -8.56839542e-05 -4.71125531e-05 -7.59358518e-05 -6.01052634e-05
      2.32684142e-05 6.81098027e-05 5.45301700e-05 7.53828936e-05
      5.79076768e-05 -1.18110165e-05 1.91063209e-05 -1.01140904e-05
      2.59368499e-05 -1.56681708e-05 3.75112795e-05 -2.26846641e-05
      -6.72220340e-05 -3.78073746e-05 -6.03461103e-06 2.24833911e-06
      2.73049918e-05 -4.04160528e-05 1.24832368e-05 6.82332829e-05
      1.54749068e-05 9.33807969e-05 -7.75488807e-05 4.15746990e-06
      -1.43705083e-05 -8.07332435e-06 3.84336745e-05 -2.46040108e-05
      -8.25595198e-05 1.19938913e-05 -9.31396517e-06 3.27506787e-05
      4.01151374e-05 2.38281627e-05 -7.51536936e-05 7.75179888e-06
      -7.55330984e-05 -9.82913843e-05 -3.17414779e-05 3.53347241e-05
      -2.83353311e-05 -3.60845443e-05 -5.11304188e-06 -4.45460646e-05
      -4.48288920e-05 -4.86701465e-05 -5.39942048e-05 -6.66165361e-05
      -9.00284140e-05 8.92150783e-05 1.72143991e-05 -1.12862508e-05
      -1.98082143e-05 2.08209003e-05 -4.47409957e-06 1.62193410e-05
      1.37961310e-04 6.30105205e-05 1.17707023e-04 3.23668901e-05
      -3.59485530e-05 5.77920309e-06 -1.39745644e-05 -1.45043862e-06
      -8.05994860e-05 -9.42503539e-06 -3.44963591e-05 -3.83797742e-05
      1.33150597e-05 7.51457119e-05 -7.10992117e-06 4.62904791e-05
      4.24588834e-05 4.26674596e-05 5.69267977e-05 -1.46259645e-05
      -1.43098196e-05 -5.56222840e-05 -5.99422037e-06 -3.47106543e-05
      -3.82326361e-05 6.71953160e-07 -6.39155696e-05 2.64482537e-06
      4.69232145e-05 6.71961607e-06 8.07046672e-06 -6.23966935e-06
      -4.38068491e-05 -1.44434925e-05 -7.65764125e-05 -1.04218670e-04
      -2.87659495e-05 -2.36216365e-05 -5.39790999e-05 -6.09016097e-05
      -9.95915034e-05 -8.87650458e-06 -1.62156011e-05 3.96313590e-05
      -7.66248831e-06 -4.22255471e-05 -6.63851170e-05 -7.31787441e-05
      3.65245178e-05 -3.87498039e-06 -1.36732095e-04 3.41798586e-05
      3.81925493e-05 2.02011797e-05 9.62219347e-05 7.38698291e-05
      -1.06113484e-05 7.49650426e-05 2.24412088e-05 -2.80301720e-05
      4.29563661e-05 -2.29299749e-05 -6.60422447e-05 -4.25545004e-05
      -2.37026670e-05 -5.23795643e-05 -5.36695516e-05 -1.17858908e-04
      -8.71040925e-07 6.88261207e-05 1.04748848e-04 7.60277908e-05
      7.75906119e-06 -9.17156212e-05 -1.43778307e-04 -6.13127340e-05
      -3.67272878e-05 -2.95042832e-06 3.56154233e-05 -3.28400461e-06
      1.35914888e-04 1.42157733e-04 8.04409137e-05 9.84722428e-05
      1.08411041e-05 3.85184103e-05 4.87275029e-05 4.19116222e-05
      9.23301777e-05 2.28598692e-05 9.82491547e-05 7.52075866e-05
      -5.81478730e-07 3.59150581e-05 5.65955306e-05 1.67368798e-05
      1.33393391e-04 3.91822614e-05 5.80115266e-05 9.74784271e-05
      5.02630610e-05 6.34302633e-05 3.37582787e-05 -3.10995492e-05
      8.56147817e-05 1.14376435e-05 1.12061505e-04 7.67586389e-05
      2.29916004e-05 1.52569934e-04 1.35719529e-04 1.05920801e-04
      1.11652203e-04 3.59317019e-05 4.39584546e-05 4.93366970e-05
      1.07690107e-06 7.57367889e-05 3.95626485e-05 7.61135516e-06
      2.60725883e-05 8.56849601e-06 6.97592259e-05 1.24169834e-04
      -2.74959784e-05 1.44114883e-05 -9.74463255e-05 -1.23982318e-04
      -1.00283840e-04 -1.26169994e-04 -7.24449201e-05 -9.24374035e-05
      1.81407686e-05 1.29931650e-04 1.12665730e-05 8.34548846e-05
      7.23155899e-05 -7.74700748e-05 -3.66590721e-05 -1.14811643e-04
      4.59696057e-05 1.46127477e-05 -1.27791078e-04 1.07897440e-05
      1.99516544e-05 4.71044877e-05 -2.85829392e-05 -6.07843322e-05
      2.59954832e-05 -1.38659004e-07 -1.22380006e-05 -2.17704110e-05
      2.19938352e-06 6.11778160e-05 8.05336604e-05 -1.88598915e-05
      -4.40981821e-05 6.93072216e-05 7.20451426e-05 8.73667523e-05
      6.81487581e-05 4.44550060e-05 1.12462558e-05 2.37096174e-05
      3.56289320e-06 -6.71762900e-05 5.32582017e-05 -8.34538878e-05
      -1.05842701e-04 -1.49612810e-04 5.23622884e-06 9.00954456e-06
      -1.11225760e-04 -4.14783244e-05 -8.81212691e-06 -1.54525653e-04
      2.18572154e-06 -8.71684024e-05 -2.53757898e-05 -1.93569082e-04
      -1.34130023e-04 -1.07328648e-04 -2.05107644e-04 -1.59543168e-04
      -1.38651099e-04 -5.73864636e-05 -7.05535858e-05 3.52522002e-05
      -1.91459003e-06 8.98785293e-05 1.29075532e-04 2.06508867e-05
      -2.28224853e-05 -9.70157998e-06 -1.24690825e-06 6.23960659e-05
      -4.47389539e-05 2.16682929e-05 7.52014821e-05 9.44568310e-05
      1.55767866e-05 -3.04762671e-05 -6.31734074e-05 4.59225339e-06
      -1.74280212e-05 -3.69198351e-05 -2.34594299e-05 -3.11700642e-05
      9.71232221e-05 2.65695435e-05 1.59517424e-06 -4.36821974e-05
      5.52031634e-05 4.24313703e-06 4.39829637e-05 1.60822292e-05
      -3.96842006e-05 -2.09117261e-05 5.23874223e-05 1.14205191e-04
      1.08269785e-04 3.83276056e-05 3.70153271e-06 1.06809557e-05
      8.93779270e-06 -7.74659929e-05 -4.06320250e-05 -1.32226894e-04
      -1.52456894e-04 -1.16487412e-04 -1.66421858e-04 -1.81117168e-04
      -3.25839443e-04 -3.83158476e-04 2.58858548e-04 2.60482309e-04
      1.68384126e-04 2.14408181e-04 2.37887769e-04 4.05182887e-04
      -2.18792629e-04 9.33599040e-06 6.83930048e-05 -1.04670398e-05
      -4.85789060e-05 -8.93762353e-06 1.80894604e-05 -1.14188992e-06
      -7.36237416e-05 -8.03258501e-07 1.06095149e-05 1.10272791e-04
      4.11093715e-05 1.32149275e-04 -3.05374597e-05 -1.64132180e-05
      -5.11623366e-05 -3.75867858e-05 -7.85928387e-06 -3.35458790e-05
      -4.71306194e-05 -4.30386681e-05 1.52089360e-05 4.33628484e-05
      -3.41991072e-05 1.12425787e-05 -1.00316165e-05 -2.23148108e-05
      3.16054161e-06 -3.88888002e-05 5.00473652e-05 -1.24005877e-04
      4.66386700e-05 -2.77246909e-05 -1.46371851e-04 -7.61246192e-05
      7.80695427e-06 -1.16845906e-04 -7.26494545e-05 -1.38595569e-04
      -9.88842148e-05 -5.79854750e-05 -2.00386145e-04 -2.33604165e-04
      -3.20190331e-04 2.71928497e-04 1.81637704e-04 1.44744234e-04
      1.78714574e-04 2.94666042e-05 -6.12967560e-05 1.22861675e-04
      2.39452755e-04 3.85536579e-04 -2.41701389e-04 -6.41004735e-05
      8.62421803e-06 3.69831650e-06 -6.25961684e-06 -5.70864177e-05
      -1.33750611e-04 -6.56622287e-05 -1.37126466e-04 -5.90754898e-05
      -3.41204614e-05 2.09326172e-05 7.87871104e-05 -1.45926069e-05
      -5.60662193e-06 1.03140237e-05 -1.53401779e-05 8.40220164e-05
      2.84962716e-05 7.44704230e-05 1.83013890e-05 -1.95153407e-05
      -1.78417176e-05 1.02477197e-05 8.02137802e-05 -2.12436971e-05
      -7.90464401e-05 3.08381241e-05 1.04372737e-06 -7.56134177e-05
      -9.19390877e-05 -7.87014142e-05 -1.25430990e-04 -7.08156003e-05
      -3.46447487e-05 -6.28168493e-07 1.35496331e-04 5.54609032e-05
      -2.36293563e-05 -1.16676834e-04 -1.71493630e-05 -2.90106782e-05
      -7.94955486e-05 -9.05621491e-05 -2.03918753e-04 3.08916642e-04
      1.90101578e-04 2.29174766e-04 1.59549309e-04 1.88348640e-04
      3.19162093e-04 3.21378524e-04 -2.31283877e-04 -1.92205378e-04
      -1.03390259e-04 -1.21147023e-04 -1.09529232e-04 -6.74303810e-05
      -6.38880592e-05 -8.34549792e-05 -6.28068665e-05 -6.27223417e-05
      1.11020978e-04 2.99415005e-05 3.74037299e-05 -6.96573916e-05
      -1.58950879e-05 -2.68262138e-05 -6.66165870e-05 -5.21068687e-05
      -1.63277909e-05 1.00299287e-04 4.90248312e-05 1.73632598e-05
      5.63953581e-05 5.61549568e-05 -5.10131249e-05 -3.80898200e-05
      -7.45923608e-05 -3.15143479e-05 -9.04020999e-05 -2.73115274e-05
      -1.03364902e-04 5.87806317e-05 7.21156539e-06 4.85875571e-05
      3.00196061e-05 8.24294184e-05 6.32292140e-05 7.22889963e-05
      9.40996906e-05 1.51730765e-05 -5.92930919e-05 -1.16900374e-04
      1.25882230e-04 -4.16053772e-05 1.70627736e-05 -1.16516057e-04
      -2.26431468e-04 4.36742994e-04 2.23995637e-04 2.30894904e-04
      2.39337416e-04 1.70608910e-04 2.76090490e-04 2.80975219e-04
      -3.81496095e-04 -2.61663372e-04 -2.02840296e-04 -1.36996008e-04
      -7.66697267e-05 -1.65355115e-04 -1.29164167e-04 -1.38137926e-04
      -3.86217198e-06 -2.92362820e-05 -6.72934266e-06 3.52775460e-05
      -1.34685659e-04 5.19477071e-05 4.78198781e-05 -1.45428450e-04
      -3.23316199e-05 -2.92307996e-05 -2.99488820e-05 -2.96622475e-05
      -6.69934088e-05 -4.63917022e-05 1.04035054e-04 1.19255950e-04
      6.97210708e-05 -2.92870554e-05 5.17068402e-05 -5.76242746e-05
      -1.09348798e-06 5.17596709e-05 -2.43301511e-05 -1.06615757e-04
      -7.91366328e-05 4.17173615e-05 -1.22355370e-04 -8.34453967e-05
      5.56736450e-05 2.64632745e-05 5.09816527e-05 6.67110362e-05
      -9.00445884e-05 1.73221742e-05 3.42451058e-05 1.01764927e-05
      1.22742749e-05 -1.45383048e-04 -1.94612381e-04 4.52849898e-04
      2.91361648e-04 2.31109763e-04 2.62197311e-04 2.10066093e-04
      1.98593654e-04 2.38308567e-04 -4.95123793e-04 -2.63498980e-04
      -2.38670196e-04 -1.39488286e-04 -2.29697853e-05 -4.35551156e-05
      2.88177707e-05 -7.81169547e-07 3.44116124e-05 2.36361902e-05
      -8.94081822e-05 -1.79832015e-04 4.03046761e-05 -6.56796910e-05
      -5.30116267e-05 2.65584958e-06 -8.81366650e-05 -1.46442626e-05
      2.05289580e-05 -1.28267102e-05 -2.61027999e-05 -3.45370463e-05
      -6.57340788e-05 5.36546213e-05 5.47728596e-05 3.85005587e-05
      -3.54394833e-05 7.22015684e-05 -4.76296009e-05 3.53837459e-05
      8.21149661e-06 8.28686389e-05 3.76601492e-05 7.97119355e-05
      2.98755676e-05 -1.04634853e-06 -1.09248977e-04</_></support_vectors>
  <decision_functions>
    <_>
      <sv_count>1</sv_count>
      <rho>-2.8632129633957382e-01</rho>
      <alpha>
        1.</alpha>
      <index>
        0</index></_></decision_functions></my_svm>
</opencv_storage>
