<?xml version="1.0"?>
<opencv_storage>
<my_svm type_id="opencv-ml-svm">
  <svm_type>C_SVC</svm_type>
  <kernel><type>LINEAR</type></kernel>
  <C>1.</C>
  <term_criteria><epsilon>2.2204460492503131e-16</epsilon>
    <iterations>1000</iterations></term_criteria>
  <var_all>4235</var_all>
  <var_count>4235</var_count>
  <class_count>2</class_count>
  <class_labels type_id="opencv-matrix">
    <rows>1</rows>
    <cols>2</cols>
    <dt>i</dt>
    <data>
      -1 1</data></class_labels>
  <sv_total>1</sv_total>
  <support_vectors>
    <_>
      -1.10472683e-04 -1.73272463e-04 -1.61634642e-04 -1.61274671e-04
      -3.46515772e-05 -3.33096032e-05 3.24009807e-06 -6.21459840e-05
      -8.68539573e-05 -2.29131583e-05 -2.29131583e-05 -1.01554448e-04
      -1.13692313e-05 1.50515234e-06 1.50515234e-06 1.50515234e-06
      1.50515234e-06 1.83066732e-05 2.38853791e-05 2.38853791e-05
      2.21640585e-05 -3.50643086e-06 -9.08513630e-06 -7.27110501e-06
      -7.27110501e-06 -5.97212274e-05 -6.29228962e-05 -6.51329319e-05
      -6.51329319e-05 -6.51329319e-05 -5.45703915e-05 4.42446344e-06
      3.61315142e-06 5.33447110e-06 5.33447110e-06 5.33447110e-06
      5.33447110e-06 5.33447110e-06 5.33447110e-06 1.64762932e-05
      8.12379130e-06 8.12379130e-06 9.84511098e-06 8.12379130e-06
      9.84511098e-06 -4.91497449e-05 -5.13597806e-05 -5.13597806e-05
      -5.13597806e-05 -3.85872081e-05 -6.79275836e-05 -9.44529529e-05
      -9.44529529e-05 -3.54580952e-05 -4.09866625e-05 -1.30618955e-05
      -2.67737087e-05 -6.13678567e-05 -8.79786021e-05 -6.62743259e-05
      -6.08482587e-05 -6.08482587e-05 2.25473086e-05 -1.97976146e-06
      3.81109589e-06 -3.84835766e-06 -2.49363038e-05 -3.97514086e-05
      2.91194865e-05 -6.10974748e-05 -1.14365284e-05 -8.06708340e-05
      -3.85368985e-05 -1.03285602e-04 2.12463110e-05 4.06282925e-05
      -1.28561833e-05 1.49800899e-05 -7.45769285e-05 -6.87006686e-05
      -5.76495477e-05 -3.02004391e-05 -5.02293224e-05 -5.97784674e-05
      -3.26532281e-05 6.77555079e-08 2.03781219e-05 2.03781219e-05
      -4.09659260e-05 -4.09659260e-05 -2.56290787e-05 -2.56290787e-05
      -2.56290787e-05 -8.82755921e-06 -8.82755921e-06 -3.24885355e-06
      -3.24885355e-06 6.36007753e-05 6.36007753e-05 3.67683897e-05
      4.33131245e-05 -2.53195212e-05 -2.53195212e-05 -2.53195212e-05
      -2.53195212e-05 -4.04273960e-05 -7.81203489e-05 -7.81203489e-05
      -7.81203489e-05 -1.91254967e-05 -1.91254967e-05 2.12818736e-06
      -4.11530527e-05 -4.11530527e-05 2.08648471e-05 3.69798108e-05
      3.69798108e-05 3.69798108e-05 5.03723277e-06 -5.39576249e-05
      -5.39576249e-05 -5.39576249e-05 -5.39576249e-05 -5.39576249e-05
      -5.39576249e-05 -5.39576249e-05 -5.39576249e-05 -5.39576249e-05
      5.03723277e-06 3.31591286e-06 -5.56789419e-05 -6.12075091e-05
      -5.05186144e-05 -5.05186144e-05 -5.05186144e-05 -5.05186144e-05
      -5.27286502e-05 -5.27286502e-05 -9.44741078e-06 -9.44741078e-06
      -6.49135036e-05 -6.73759641e-05 -8.79187519e-06 -2.98798204e-05
      -2.08066422e-06 -1.85570025e-05 -6.79005025e-05 3.97354825e-06
      -3.79150770e-05 -3.63099170e-05 -8.66111295e-05 4.43723293e-05
      5.70539924e-05 -1.98165035e-05 2.80956665e-05 -5.93238910e-05
      -1.08331305e-05 -3.62241881e-05 5.89646952e-05 -2.00590421e-05
      -9.36376455e-06 -7.26815415e-05 -4.27781633e-05 9.44579006e-06
      9.44579006e-06 7.09659889e-06 -9.82097554e-05 -8.00553025e-05
      -7.96375534e-05 -5.79332809e-05 -2.97303504e-05 -9.78808894e-05
      -5.75455670e-05 -5.10008322e-05 -5.10008322e-05 -5.10008322e-05
      -5.99706473e-05 -1.98019570e-05 -1.98019570e-05 -1.98019570e-05
      -1.98019570e-05 -1.64108496e-05 -1.64108496e-05 -1.64108496e-05
      -1.64108496e-05 -1.64108496e-05 -1.64108496e-05 -1.64108496e-05
      -4.42100063e-05 -1.64108496e-05 5.65144455e-06 -2.21477130e-05
      -2.21477130e-05 -2.21477130e-05 -2.21477130e-05 -2.21477130e-05
      -2.21477130e-05 -6.23164015e-05 -6.23164015e-05 -3.45172448e-05
      -3.45172448e-05 -3.45172448e-05 -4.00458121e-05 5.65144455e-06
      -6.29811984e-05 -6.29811984e-05 -6.47025226e-05 -6.47025226e-05
      -7.02310863e-05 -7.02310863e-05 -7.02310863e-05 -7.02310863e-05
      -7.04440754e-05 -7.26541111e-05 -7.26541111e-05 -7.80801784e-05
      -9.97844472e-05 -4.18407035e-05 2.58990731e-05 -6.43137610e-05
      1.00556936e-05 1.00556936e-05 -1.77434631e-05 -9.11494280e-05
      -3.60236045e-05 -6.90950546e-05 4.62380231e-05 -1.15977076e-04
      -2.53072394e-05 2.82887163e-06 7.41450276e-06 1.78006303e-05
      -8.65165566e-05 -6.39190694e-05 -6.34168537e-05 -2.72228262e-05
      -4.20480210e-05 -2.59266744e-05 -6.75401752e-05 -7.98901601e-05
      -6.44326428e-05 -9.91892593e-05 -2.69037901e-05 -2.69037901e-05
      -1.19777069e-05 -4.70391024e-05 -4.15105351e-05 -3.02375829e-05
      -1.89897273e-05 -1.90711194e-06 -1.49634889e-06 -8.73829340e-05
      -5.23215349e-05 -4.10604698e-05 -4.10604698e-05 -4.10604698e-05
      -4.10604698e-05 -4.65890371e-05 -4.65890371e-05 -4.65890371e-05
      -4.65890371e-05 -4.65890371e-05 -6.46461122e-05 3.50442360e-06
      3.50442360e-06 -6.46461122e-05 -6.46461122e-05 -7.99829577e-05
      -7.99829577e-05 -7.99829577e-05 -8.54090322e-05 -1.04295701e-04
      -8.85411064e-05 -3.72303366e-05 -3.72303366e-05 -3.72303366e-05
      -3.72303366e-05 -4.37750714e-05 -4.37750714e-05 -5.23102517e-06
      5.72361159e-06 5.72361159e-06 5.72361159e-06 4.00229192e-06
      1.05470253e-05 -1.03183884e-05 5.01845716e-06 5.01845716e-06
      8.40956545e-06 8.40956545e-06 6.19953107e-06 6.19953107e-06
      6.19953107e-06 1.75685927e-05 6.46893341e-06 3.52685602e-05
      -2.15129166e-05 7.41102194e-05 5.28565361e-05 2.50573812e-05
      1.40753509e-05 8.83492539e-05 2.65771541e-05 1.86272864e-05
      -3.16739279e-05 3.06768889e-05 3.04185869e-06 2.30850055e-05
      4.22153335e-06 -1.08330474e-04 -9.22743493e-05 -8.65684415e-05
      -4.46314443e-05 -7.11197063e-05 -2.05804972e-05 -2.08432139e-05
      -5.90864693e-05 -1.10705390e-04 -9.97894458e-05 -1.02138634e-04
      -8.68017887e-05 -8.68017887e-05 -8.68017887e-05 -8.68017887e-05
      -2.11674251e-05 -2.65934941e-05 -5.80559063e-05 -5.20805661e-05
      -5.20805661e-05 -5.20805661e-05 -5.76592720e-05 -5.76592720e-05
      -5.76592720e-05 -6.22246007e-05 -4.08395063e-05 -5.25341384e-05
      -1.02807753e-05 -1.02807753e-05 6.58153112e-06 6.58153112e-06
      6.58153112e-06 3.67969903e-08 1.68383176e-05 1.68383176e-05
      4.27315899e-05 4.27315899e-05 1.12401722e-05 1.12401722e-05
      1.12401722e-05 1.12401722e-05 1.12401722e-05 1.12401722e-05
      2.65770177e-05 6.09228700e-05 2.44449348e-05 2.61662553e-05
      6.09228700e-05 5.11145918e-05 5.11145918e-05 5.11145918e-05
      4.93932748e-05 4.75940033e-05 4.42754681e-05 4.42754681e-05
      9.51885249e-06 -7.28266787e-06 -7.28266787e-06 -9.49270270e-06
      -1.54680438e-05 -1.54680438e-05 -4.13613161e-05 -5.59808768e-07
      5.49457254e-05 -1.83575094e-06 -7.14111375e-05 1.87854857e-05
      -1.79298258e-05 -1.37869883e-05 5.79638545e-05 3.12531483e-05
      -6.53153620e-06 -7.78206086e-05 -2.10958879e-05 -1.33458816e-05
      -4.53466855e-05 -5.77014034e-05 -1.07267253e-04 -4.88356818e-05
      -8.41039146e-05 8.73186946e-06 -1.08316035e-05 -7.39626648e-06
      8.11783707e-07 -1.74845591e-05 -2.78404641e-05 -9.96747767e-05
      -9.14614284e-05 -7.61245828e-05 -7.44032659e-05 -8.50772194e-05
      -8.50772194e-05 2.07826656e-06 5.27993416e-06 -4.47820594e-06
      1.49713617e-06 -2.42175956e-05 -2.64276314e-05 -3.20063373e-05
      -4.65978228e-05 -4.83191434e-05 -4.83191434e-05 -5.27827142e-05
      -5.52451784e-05 -2.83872068e-05 -2.83872068e-05 -2.83872068e-05
      -3.05972426e-05 -9.21720766e-06 -9.21720766e-06 -1.97797453e-05
      -1.97797453e-05 1.48534843e-06 -1.28537094e-05 -1.28537094e-05
      -4.07784755e-05 -4.39801443e-05 -3.80048004e-05 -3.80048004e-05
      1.08280428e-05 2.72795860e-05 1.08280428e-05 -2.28161957e-06
      1.58912444e-05 1.58912444e-05 3.82213329e-05 3.00215888e-05
      8.31731631e-06 6.59599618e-06 6.59599618e-06 -3.57948338e-05
      -5.18356137e-05 -5.18356137e-05 -5.18356137e-05 -4.09834793e-05
      -2.69153079e-05 -3.74778429e-05 -3.74778429e-05 -3.74778429e-05
      -3.17377308e-05 8.43095768e-06 -4.47805396e-05 -9.90190820e-05
      -2.56239782e-05 -3.08786475e-05 -3.56519631e-05 3.01235359e-05
      3.10424548e-05 -4.19455828e-05 -3.39969010e-05 2.68452441e-05
      3.45952503e-05 1.35103928e-05 2.54994102e-05 -4.30393957e-05
      3.00085012e-05 -5.30471334e-06 -4.39775704e-06 1.95392477e-05
      4.36039263e-05 4.48722822e-05 -4.20567048e-05 -8.75022160e-05
      -8.75022160e-05 -8.98514045e-05 -6.14048986e-05 -2.41004227e-06
      -2.41004227e-06 -2.41004227e-06 1.43914776e-05 -9.45367958e-07
      -1.38014673e-06 9.84157577e-06 1.73288045e-05 1.71158172e-05
      -2.81380144e-05 -3.83445549e-05 -4.08070191e-05 -5.14959138e-05
      -5.74712576e-05 -5.74712576e-05 -6.20860155e-05 -9.41467442e-06
      1.27422163e-06 -5.05752541e-06 -1.85585770e-06 -1.85585770e-06
      -1.85585770e-06 -1.85585770e-06 -4.99985763e-05 -3.24584653e-05
      -2.99960047e-05 -2.99960047e-05 -2.99960047e-05 -2.99960047e-05
      -2.99960047e-05 -4.06848994e-05 -2.40206627e-05 -2.40206627e-05
      -2.99960047e-05 -2.82746842e-05 -2.82746842e-05 -2.27461151e-05
      -2.27461151e-05 -1.95444482e-05 -2.12657687e-05 -2.12657687e-05
      -2.45843021e-05 -2.41735397e-05 3.48213180e-05 3.48213180e-05
      3.48213180e-05 3.26112822e-05 3.26112822e-05 3.26112822e-05
      -1.98286330e-06 3.75724858e-06 1.60011714e-05 -3.85522217e-05
      -2.08991332e-05 -1.80537645e-05 -4.58529212e-05 9.45652027e-06
      3.19507817e-05 -4.02772384e-05 -3.19081773e-05 -3.86968350e-05
      2.18399491e-05 1.97438312e-05 -9.12273536e-05 2.54994102e-05
      -1.13098040e-05 2.97955139e-05 -5.51770063e-06 2.08914415e-08
      2.20165712e-05 3.59201586e-05 -5.08766389e-05 -8.00889247e-05
      -5.58506872e-05 -5.58506872e-05 -4.50902153e-05 -3.74128249e-05
      -4.37445706e-05 1.03888042e-05 2.66670104e-05 2.34359163e-06
      -1.29932541e-05 -7.62753552e-06 -1.65219330e-06 -1.65219330e-06
      4.89254080e-06 -1.74876859e-05 -1.74876859e-05 -1.74876859e-05
      -2.34630279e-05 -2.62806316e-05 -2.66983807e-05 -2.66983807e-05
      -2.66983807e-05 -2.66983807e-05 -3.32431155e-05 -3.30301264e-05
      -2.23412317e-05 -2.23412317e-05 -2.23412317e-05 -2.23412317e-05
      -2.23412317e-05 -2.85665556e-05 -2.61040932e-05 -2.61040932e-05
      -2.61040932e-05 -2.61040932e-05 4.25285507e-05 -2.61040932e-05
      -2.61040932e-05 4.25285507e-05 4.42498713e-05 3.97862968e-05
      4.28524036e-05 4.28524036e-05 4.28524036e-05 4.43327517e-05
      5.50216464e-05 -1.69295290e-05 -1.69295290e-05 -1.65187666e-05
      -1.65187666e-05 -1.65187666e-05 -1.87288006e-05 -1.87288006e-05
      -2.41548696e-05 -2.46601012e-05 -1.89199891e-05 2.12487012e-05
      -2.83961472e-05 -4.35763723e-05 -4.07310035e-05 -9.05924535e-05
      -6.77121134e-05 1.43415909e-05 -1.23691152e-05 -4.77033354e-05
      -4.31963635e-05 4.23075971e-06 2.13464205e-06 -8.34851380e-05
      8.17915225e-06 -3.07662667e-05 -2.91101696e-06 -5.85372254e-06
      -2.71498493e-06 1.88629456e-05 3.81926002e-05 -2.68999229e-05
      -1.28309730e-05 6.02401124e-05 1.99264850e-05 3.06869551e-05
      3.83643492e-05 3.83643492e-05 3.83643492e-05 3.83643492e-05
      5.43545575e-05 3.90177120e-05 4.45964179e-05 5.05717580e-05
      5.05717580e-05 1.73891465e-06 -2.40324189e-05 -1.74876859e-05
      -1.74876859e-05 -2.34630279e-05 -2.34630279e-05 -2.34630279e-05
      -2.34630279e-05 -2.34630279e-05 -2.34630279e-05 -3.00077609e-05
      -3.00077609e-05 -2.97947736e-05 -2.64036662e-05 -2.64036662e-05
      -2.64036662e-05 -2.64036662e-05 -2.19400936e-05 -2.49036984e-05
      -4.66079728e-05 -4.99990820e-05 -4.99990820e-05 -5.02120674e-05
      -5.02120674e-05 -5.02120674e-05 -5.02120674e-05 -4.21021832e-05
      -2.82864421e-05 -2.27578730e-05 -2.27578730e-05 -2.27578730e-05
      -2.12775249e-05 -2.12775249e-05 -2.45960600e-05 -1.39071635e-05
      -1.34964002e-05 -1.34964002e-05 -1.34964002e-05 -1.57064351e-05
      -1.57064351e-05 -1.89081020e-05 5.49260767e-06 1.12327198e-05
      5.14014100e-05 1.75656101e-06 1.70934072e-05 -1.63212608e-05
      -6.61827144e-05 -7.09560336e-05 1.16209894e-05 -1.50897167e-05
      -5.32415397e-05 -4.93846928e-05 4.01777243e-06 1.92165498e-06
      -8.60473156e-05 8.17915225e-06 -3.07662667e-05 -3.22446176e-05
      -8.89278163e-05 -2.71498493e-06 1.88629456e-05 2.17607358e-05
      1.57791910e-05 3.02589033e-05 5.44971444e-05 1.41835171e-05
      1.72845357e-05 3.26213813e-05 3.26213813e-05 3.26213813e-05
      3.83643492e-05 5.43545575e-05 3.35916448e-05 1.74660745e-05
      2.34414165e-05 2.34414165e-05 2.34414165e-05 1.06119148e-06
      7.60592548e-06 7.60592548e-06 1.24827202e-05 2.87609255e-05
      2.87609255e-05 2.87609255e-05 -2.00719187e-05 -2.00719187e-05
      -2.66166535e-05 -2.66166535e-05 -2.64036662e-05 -2.64036662e-05
      -2.64036662e-05 -2.64036662e-05 -2.64036662e-05 -2.64036662e-05
      -2.19400936e-05 -1.94776312e-05 -1.94776312e-05 -1.96906185e-05
      -1.96906185e-05 -1.96906185e-05 -1.96906185e-05 -2.41541911e-05
      -2.48953329e-05 -2.48953329e-05 -1.93667656e-05 -1.93667656e-05
      -2.51097335e-05 -2.68310523e-05 -2.36293854e-05 -2.69479187e-05
      -1.62590241e-05 -1.58482599e-05 -1.58482599e-05 -1.58482599e-05
      -1.80582938e-05 -2.12599625e-05 -2.12599625e-05 3.14074759e-06
      8.88085924e-06 4.90495477e-05 -3.56566961e-05 1.13504384e-05
      -1.63212608e-05 -4.41204174e-05 -7.01764729e-05 -1.42722829e-05
      -9.51101083e-06 -7.00366727e-05 -1.01387363e-04 -2.18087698e-05
      -3.65777487e-05 -8.12654835e-05 -1.33724834e-05 -6.77754142e-05
      -5.93749610e-05 -1.05206025e-04 -2.93561498e-05 1.31199768e-05
      7.05935818e-05 5.90604286e-05 3.02589033e-05 1.41835171e-05
      1.41835171e-05 5.95378988e-05 7.48747407e-05 7.48747407e-05
      7.48747407e-05 4.89814702e-05 6.49716821e-05 5.52135389e-05
      5.52135389e-05 6.11888827e-05 6.11888827e-05 4.43873614e-05
      3.88086555e-05 3.88086555e-05 5.10963582e-05 4.51210144e-05
      4.51210144e-05 3.93780465e-05 3.93780465e-05 3.93780465e-05
      3.93780465e-05 3.28333117e-05 3.28333117e-05 3.28333117e-05
      3.30463008e-05 3.30463008e-05 3.30463008e-05 3.30463008e-05
      3.30463008e-05 3.75098716e-05 3.99723358e-05 3.97593467e-05
      3.97593467e-05 3.97593467e-05 3.97593467e-05 3.97593467e-05
      3.52957759e-05 3.45546323e-05 3.45546323e-05 4.00831996e-05
      3.46571323e-05 1.29528589e-05 1.12315392e-05 1.44332071e-05
      1.11146728e-05 2.18035693e-05 2.22143317e-05 2.22143317e-05
      3.30664698e-05 4.71346393e-05 4.39329706e-05 4.39329706e-05
      3.55003685e-05 7.40737960e-05 1.14242481e-04 2.95362388e-05
      6.45976324e-05 4.88716723e-05 2.10725157e-05 -4.98354029e-06
      7.68139216e-05 5.56819250e-05 1.47689962e-05 -3.84015657e-05
      7.52834285e-06 -2.81487137e-05 -7.28364466e-05 1.37578581e-05
      -4.06450745e-05 -3.75818599e-05 -4.10957509e-05 -3.83007864e-05
      1.55638172e-05 7.30374159e-05 2.86709565e-05 -1.30569617e-07
      1.54134199e-07 1.54134199e-07 3.25515180e-06 1.85919980e-05
      1.61481585e-05 1.61481585e-05 1.61481585e-05 3.21383668e-05
      2.23802253e-05 2.23802253e-05 2.83555673e-05 2.83555673e-05
      1.15540479e-05 5.97534199e-06 5.97534199e-06 1.25200759e-05
      6.54473388e-06 8.98857343e-06 8.98857343e-06 3.56250530e-06
      -1.81417672e-05 -1.81417672e-05 -2.71303416e-05 -2.71303416e-05
      -2.71303416e-05 -2.69173543e-05 -2.69173543e-05 -1.60652180e-05
      2.12987018e-07 2.12987018e-07 4.67655991e-06 7.13902227e-06
      6.92603544e-06 6.92603544e-06 6.92603544e-06 6.92603544e-06
      6.92603544e-06 2.46246259e-06 1.72131979e-06 1.72131979e-06
      7.24988831e-06 7.24988831e-06 7.24988831e-06 5.52856818e-06
      8.73023600e-06 5.41170220e-06 1.61005973e-05 1.65113615e-05
      1.65113615e-05 1.65113615e-05 1.43013267e-05 1.10996589e-05
      1.10996589e-05 3.55003685e-05 4.12404806e-05 8.14091691e-05
      -3.29707382e-06 3.17643207e-05 1.60383588e-05 -1.17607970e-05
      -4.98354029e-06 8.34165403e-05 1.06352782e-04 -7.26075132e-06
      -5.37384112e-05 9.97218285e-06 -5.60734807e-05 -4.00031349e-05
      -6.50900402e-05 -7.34783898e-05 -6.38125566e-05 -7.39290626e-05
      -6.55553958e-05 -1.16907904e-05 4.03567428e-05 7.11932080e-06
      -2.16822064e-05 -2.13975018e-05 -2.13975018e-05 -1.82964850e-05
      -8.53834445e-06 -8.53834445e-06 2.31379249e-06 4.09722234e-05
      4.01609104e-05 2.48240649e-05 3.07994087e-05 3.07994087e-05
      3.07994087e-05 1.39978874e-05 8.41918154e-06 8.41918154e-06
      1.49639154e-05 8.98857343e-06 8.98857343e-06 8.98857343e-06
      8.98857343e-06 8.98857343e-06 8.98857343e-06 2.44383978e-06
      2.44383978e-06 2.44383978e-06 2.65682684e-06 2.65682684e-06
      2.65682684e-06 2.65682684e-06 2.65682684e-06 7.12039946e-06
      9.58286182e-06 9.36987544e-06 9.36987544e-06 9.36987544e-06
      9.36987544e-06 9.36987544e-06 4.90630237e-06 4.16515968e-06
      4.16515968e-06 9.69372832e-06 9.69372832e-06 9.69372832e-06
      7.97240773e-06 1.11740756e-05 7.85554221e-06 1.85444387e-05
      1.89552011e-05 1.89552011e-05 1.89552011e-05 1.67451672e-05
      1.35434984e-05 5.67359075e-06 8.37002699e-06 1.41101391e-05
      5.42788293e-05 -3.04274163e-05 4.63398055e-06 -1.10919818e-05
      -8.24730814e-05 -8.89757030e-06 1.09686684e-04 1.06352782e-04
      -2.25975964e-05 -5.59788677e-05 3.43728934e-05 1.71600750e-05
      -2.22735071e-05 -6.50900402e-05 -7.34783898e-05 -6.38125566e-05
      -7.39290626e-05 -6.55553958e-05 -1.16907904e-05 2.77717754e-05
      3.42496642e-05 2.18082259e-05 5.73283978e-06 5.73283978e-06
      8.83385746e-06 2.41707039e-05 2.41707039e-05 2.41707039e-05
      4.01609104e-05 4.01609104e-05 2.48240649e-05 3.07994087e-05
      3.07994087e-05 3.07994087e-05 1.39978874e-05 8.41918154e-06
      8.41918154e-06 1.49639154e-05 8.98857343e-06 8.98857343e-06
      8.98857343e-06 8.98857343e-06 8.98857343e-06 8.98857343e-06
      2.44383978e-06 2.44383978e-06 2.44383978e-06 2.65682684e-06
      2.65682684e-06 2.65682684e-06 2.65682684e-06 2.65682684e-06
      1.69433110e-06 -1.75474797e-05 -1.77604670e-05 -1.77604670e-05
      -1.77604670e-05 -1.77604670e-05 -1.77604670e-05 -2.22240396e-05
      -1.21130452e-05 4.16515968e-06 9.69372832e-06 9.69372832e-06
      9.69372832e-06 7.97240773e-06 1.11740756e-05 7.85554221e-06
      7.85554221e-06 1.89552011e-05 1.89552011e-05 1.89552011e-05
      1.67451672e-05 1.35434984e-05 1.35434984e-05 3.79442099e-05
      4.36843220e-05 8.38530104e-05 -8.53234155e-07 3.51825111e-05
      6.39167729e-06 -1.40902748e-05 -2.30088390e-05 1.12130525e-04
      8.26348187e-05 -9.07007325e-06 -5.50045188e-05 3.43728934e-05
      1.71600750e-05 -2.33154242e-05 -1.23593840e-04 -7.00872770e-05
      -1.07093801e-04 -1.00090860e-04 -2.52417667e-05 -1.16907904e-05
      3.04052719e-05 3.42496642e-05 2.18082259e-05 5.73283978e-06
      5.73283978e-06 8.83385746e-06 2.41707039e-05 2.41707039e-05
      2.41707039e-05 4.01609104e-05 4.01609104e-05 1.93979977e-05
      3.66906579e-06 3.66906579e-06 3.66906579e-06 -1.31324541e-05
      -1.87111600e-05 -1.87111600e-05 -1.21664261e-05 -7.28963141e-06
      8.98857343e-06 8.98857343e-06 8.98857343e-06 8.98857343e-06
      8.98857343e-06 2.44383978e-06 2.44383978e-06 2.44383978e-06
      2.65682684e-06 2.65682684e-06 2.65682684e-06 2.65682684e-06
      2.65682684e-06 7.12039946e-06 9.58286182e-06 9.36987544e-06
      9.36987544e-06 9.36987544e-06 9.36987544e-06 9.36987544e-06
      4.90630237e-06 4.16515968e-06 4.16515968e-06 9.69372832e-06
      9.69372832e-06 9.69372832e-06 7.97240773e-06 1.11740756e-05
      7.85554221e-06 7.85554221e-06 1.89552011e-05 1.89552011e-05
      1.89552011e-05 1.67451672e-05 1.35434984e-05 1.35434984e-05
      2.72553134e-05 4.36843220e-05 8.38530104e-05 -8.53234155e-07
      -4.36653900e-05 4.52003005e-05 -8.32871501e-06 -2.30088390e-05
      8.59687279e-05 9.94745933e-05 -9.18997466e-06 -7.43745622e-05
      7.24255051e-06 3.13939495e-06 -6.59032812e-05 -7.18762822e-05
      -9.72176204e-05 -1.34224145e-04 -1.16369069e-04 -1.94987988e-05
      -1.16907904e-05 1.49477564e-05 3.42496642e-05 2.18082259e-05
      4.04894563e-05 5.73283978e-06 1.64933117e-05 2.41707039e-05
      2.99136718e-05 2.99136718e-05 4.59038783e-05 4.59038783e-05
      3.05670328e-05 3.65423766e-05 3.65423766e-05 3.65423766e-05
      1.97408554e-05 1.41621504e-05 1.41621504e-05 2.07068842e-05
      1.47315423e-05 1.47315423e-05 1.47315423e-05 1.47315423e-05
      1.47315423e-05 1.47315423e-05 8.18680746e-06 8.18680746e-06
      8.18680746e-06 8.39979475e-06 8.39979475e-06 8.39979475e-06
      8.39979475e-06 8.39979475e-06 1.28633674e-05 1.53258297e-05
      1.51128434e-05 1.51128434e-05 1.51128434e-05 1.51128434e-05
      9.36987544e-06 4.90630237e-06 4.16515968e-06 4.16515968e-06
      9.69372832e-06 4.26765973e-06 -1.74366141e-05 -1.91579329e-05
      -1.59562660e-05 -1.92747993e-05 -1.92747993e-05 -8.17514137e-06
      -8.17514137e-06 2.67699579e-06 1.67451672e-05 1.35434984e-05
      2.85460283e-06 2.72553134e-05 4.36843220e-05 8.38530104e-05
      3.42081621e-05 5.09833990e-05 2.31627018e-05 -8.32871501e-06
      -3.19249921e-05 8.59687279e-05 9.94745933e-05 -4.39325959e-05
      -7.16449285e-05 1.57151499e-05 8.12330472e-06 -3.52488823e-05
      -4.45630903e-05 -6.99044249e-05 -1.20225384e-04 -1.05669569e-04
      -2.50775047e-05 -1.15265275e-05 2.56745552e-05 -1.54321588e-05
      3.84240302e-05 8.09673438e-05 5.89710226e-06 2.22362796e-05
      2.99136718e-05 2.99136718e-05 2.99136718e-05 4.59038783e-05
      4.59038783e-05 3.05670328e-05 3.65423766e-05 3.65423766e-05
      3.65423766e-05 1.97408554e-05 1.41621504e-05 1.41621504e-05
      2.07068842e-05 1.47315423e-05 1.47315423e-05 1.47315423e-05
      9.30547321e-06 -1.23988002e-05 -1.23988002e-05 -1.89435341e-05
      -1.89435341e-05 -1.89435341e-05 -1.87305468e-05 -1.87305468e-05
      -7.87841054e-06 8.39979475e-06 8.39979475e-06 1.28633674e-05
      1.53258297e-05 1.51128434e-05 1.51128434e-05 1.51128434e-05
      1.51128434e-05 1.51128434e-05 1.06492707e-05 9.90812805e-06
      1.54366953e-05 1.54366953e-05 1.54366953e-05 1.54366953e-05
      1.37153766e-05 1.11740756e-05 7.85554221e-06 7.85554221e-06
      1.89552011e-05 1.89552011e-05 1.89552011e-05 1.67451672e-05
      1.35434984e-05 2.85460283e-06 2.72553134e-05 4.36843220e-05
      2.14640313e-05 1.34618516e-04 2.89458021e-05 2.31627018e-05
      -8.32871501e-06 -5.65484834e-06 8.59687279e-05 4.75734269e-05
      -6.83333055e-05 -6.59019643e-05 1.79694289e-05 -7.33421075e-06
      -3.52488823e-05 -3.40005536e-05 -6.99044249e-05 -8.54687678e-05
      -1.22029654e-04 -2.50775047e-05 -1.15265275e-05 9.68595123e-06
      -4.50063417e-05 6.78447032e-05 5.13931627e-05 1.10795363e-05
      -1.29166083e-05 -5.23921562e-06 -5.23921562e-06 5.61292109e-06
      4.34600406e-05 4.34600406e-05 2.81231933e-05 3.40985353e-05
      3.40985353e-05 3.40985353e-05 1.72970158e-05 1.17183099e-05
      1.17183099e-05 1.82630447e-05 1.22877018e-05 1.47315423e-05
      1.47315423e-05 1.47315423e-05 1.47315423e-05 1.47315423e-05
      8.18680746e-06 8.18680746e-06 8.18680746e-06 8.39979475e-06
      8.39979475e-06 8.39979475e-06 8.39979475e-06 5.95595520e-06
      1.04195278e-05 1.28819902e-05 1.26690038e-05 1.26690038e-05
      1.26690038e-05 1.26690038e-05 1.51128434e-05 1.06492707e-05
      1.54366953e-05 1.54366953e-05 1.54366953e-05 1.54366953e-05
      1.54366953e-05 1.37153766e-05 1.69170435e-05 1.35985101e-05
      1.35985101e-05 2.46981690e-05 2.46981690e-05 2.46981690e-05
      2.24881351e-05 1.92864663e-05 3.17150261e-06 5.86793885e-06
      -4.58535906e-05 -5.66631070e-06 7.96890090e-05 4.53795838e-05
      -3.96763926e-06 -4.43752106e-05 -2.19330541e-05 8.59687279e-05
      -5.58720385e-05 -6.25903413e-05 -6.77159915e-05 2.51191295e-06
      1.39194726e-05 -1.98946836e-05 7.56062832e-07 -1.38952901e-05
      -2.64739119e-05 -8.90870724e-05 -2.50775047e-05 -1.15265275e-05
      1.26681798e-05 3.52991301e-05 2.05226770e-05 9.49750465e-05
      3.82098769e-05 1.42137333e-05 2.18911264e-05 2.18911264e-05
      2.18911264e-05 3.78813347e-05 4.34600406e-05 2.81231933e-05
      3.40985353e-05 3.40985353e-05 3.40985353e-05 1.72970158e-05
      1.17183099e-05 1.17183099e-05 1.82630447e-05 1.22877018e-05
      1.22877018e-05 1.22877018e-05 1.22877018e-05 1.22877018e-05
      1.22877018e-05 5.74296791e-06 5.74296791e-06 5.74296791e-06
      5.95595520e-06 5.95595520e-06 5.95595520e-06 5.95595520e-06
      5.95595520e-06 4.99345970e-06 -1.42483514e-05 -1.44613387e-05
      -1.44613387e-05 -1.44613387e-05 -1.44613387e-05 -1.44613387e-05
      -1.16750234e-05 -3.28534884e-06 1.29928567e-05 1.29928567e-05
      1.29928567e-05 1.29928567e-05 1.12715361e-05 1.66832378e-05
      1.11546706e-05 1.11546706e-05 2.22543295e-05 2.22543295e-05
      2.22543295e-05 2.00442955e-05 1.68426268e-05 6.15373119e-06
      -3.75960990e-05 1.90015999e-05 1.90015999e-05 3.38071841e-05
      3.00082174e-05 1.75456753e-05 -1.39457416e-05 -2.35572020e-06
      7.48719249e-05 -7.65332443e-05 -7.80478513e-05 -4.79075497e-05
      2.51191295e-06 3.00352531e-06 -1.98946836e-05 8.29145119e-06
      -7.35392996e-06 -1.00223688e-05 -3.29098220e-05 -2.47788412e-05
      -1.15265275e-05 1.26681798e-05 2.47365933e-05 3.55000011e-05
      8.40591019e-05 3.82098769e-05 1.42137333e-05 2.18911264e-05
      2.18911264e-05 2.18911264e-05 3.78813347e-05 3.78813347e-05
      2.26971260e-05 6.96819416e-06 6.96819416e-06 6.96819416e-06
      -9.83332575e-06 -1.54120316e-05 -1.54120316e-05 -8.86729777e-06
      -3.99050305e-06 1.22877018e-05 1.22877018e-05 1.22877018e-05
      1.22877018e-05 1.22877018e-05 5.74296791e-06 5.74296791e-06
      5.74296791e-06 5.95595520e-06 5.95595520e-06 5.95595520e-06
      5.95595520e-06 5.95595520e-06 1.04195278e-05 1.28819902e-05
      1.26690038e-05 1.26690038e-05 1.26690038e-05 1.26690038e-05
      1.43903235e-05 1.54553181e-05 1.29928567e-05 1.29928567e-05
      1.29928567e-05 1.29928567e-05 1.29928567e-05 1.34815709e-05
      1.66832378e-05 1.11546706e-05 1.11546706e-05 2.22543295e-05
      2.22543295e-05 2.22543295e-05 2.00442955e-05 1.68426268e-05
      6.15373119e-06 -2.07563262e-05 1.90015999e-05 1.00854440e-05
      2.48910310e-05 2.10920607e-05 1.17841155e-05 -1.39457416e-05
      -2.35572020e-06 6.72243987e-05 -7.65332443e-05 -9.62038976e-05
      -4.71452149e-05 -3.55343764e-05 -2.41268172e-05 -2.39171750e-05
      8.34383754e-05 -3.36729609e-05 -2.38875728e-05 -4.91880237e-05
      -4.03128688e-05 -1.08101149e-05 1.41959044e-05 2.80865024e-05
      1.27529755e-04 2.57806569e-05 4.16967532e-06 1.49301459e-05
      2.26075390e-05 2.18911264e-05 2.18911264e-05 3.78813347e-05
      3.78813347e-05 2.81231933e-05 3.40985353e-05 3.40985353e-05
      3.40985353e-05 1.72970158e-05 1.17183099e-05 1.17183099e-05
      1.82630447e-05 1.22877018e-05 1.30041144e-05 1.30041144e-05
      1.30041144e-05 1.30041144e-05 1.30041144e-05 5.74296791e-06
      5.74296791e-06 5.74296791e-06 5.95595520e-06 5.95595520e-06
      5.95595520e-06 5.95595520e-06 5.95595520e-06 1.04195278e-05
      1.28819902e-05 1.26690038e-05 1.26690038e-05 1.26690038e-05
      1.43903235e-05 1.43903235e-05 1.54553181e-05 1.29928567e-05
      1.29928567e-05 1.29928567e-05 7.56678810e-06 -1.19274509e-05
      -1.36487706e-05 -1.04471037e-05 -1.59756710e-05 -1.59756710e-05
      -4.87601255e-06 -4.87601255e-06 5.97612416e-06 2.00442955e-05
      1.68426268e-05 6.15373119e-06 -2.07563262e-05 1.90015999e-05
      1.04734230e-04 5.26901858e-05 2.10920607e-05 1.17841155e-05
      -3.60080376e-05 -2.35572020e-06 6.72243987e-05 -6.28897615e-05
      -9.08543443e-05 -3.02278477e-05 -5.12695624e-05 1.94550685e-05
      7.10662571e-05 1.10568719e-04 7.10061795e-05 4.05408173e-06
      -3.20985091e-05 -4.13155904e-05 -1.18128346e-05 -4.22963931e-05
      2.80865024e-05 1.27529755e-04 2.28785575e-05 6.80317089e-06
      1.75636414e-05 3.29004870e-05 2.52410337e-05 2.26075390e-05
      3.85977473e-05 3.85977473e-05 2.88396059e-05 3.48149479e-05
      3.48149479e-05 3.48149479e-05 1.80134284e-05 1.24347225e-05
      1.24347225e-05 1.89794573e-05 1.30041144e-05 1.30041144e-05
      1.30041144e-05 7.57804628e-06 -1.41262271e-05 -1.41262271e-05
      -2.06709610e-05 -2.06709610e-05 -2.06709610e-05 -2.04579737e-05
      -2.04579737e-05 -9.60583748e-06 6.67236782e-06 6.67236782e-06
      1.11359404e-05 1.35984028e-05 1.33854164e-05 1.33854164e-05
      1.33854164e-05 1.51067361e-05 1.51067361e-05 1.06431635e-05
      1.37092693e-05 1.37092693e-05 1.37092693e-05 1.37092693e-05
      1.59193041e-05 1.41979835e-05 1.73996505e-05 1.18710832e-05
      1.18710832e-05 2.29707421e-05 2.29707421e-05 2.29707421e-05
      2.07607081e-05 1.75590394e-05 6.15373119e-06 4.73942127e-05
      1.90015999e-05 1.25019447e-04 3.38071841e-05 3.00082174e-05
      -1.02781787e-05 -3.78220684e-05 -4.16975172e-06 2.52416739e-05
      3.17590311e-05 -8.27559998e-05 8.91153013e-06 3.34998708e-06
      4.45057740e-05 -1.57969243e-05 6.17358746e-05 7.10061795e-05
      5.78978579e-05 -3.20985091e-05 -8.16292159e-05 -1.18128346e-05
      -4.77224603e-05 1.36692358e-06 1.92159132e-05 -4.25178496e-06
      1.99864553e-05 -1.53096680e-05 2.71779630e-08 -7.63227581e-06
      3.21986136e-06 3.54882759e-05 3.54882759e-05 2.57301344e-05
      2.57301344e-05 3.17054764e-05 3.17054764e-05 1.49039561e-05
      9.32525018e-06 9.32525018e-06 1.58699841e-05 9.89464206e-06
      9.89464206e-06 9.89464206e-06 9.89464206e-06 9.89464206e-06
      9.89464206e-06 3.34990841e-06 3.34990841e-06 3.34990841e-06
      3.56289547e-06 3.56289547e-06 3.56289547e-06 3.56289547e-06
      3.56289547e-06 8.02646809e-06 1.04889305e-05 7.64244760e-06
      7.64244760e-06 1.33854164e-05 1.51067361e-05 1.51067361e-05
      1.61717307e-05 1.37092693e-05 1.37092693e-05 1.37092693e-05
      1.37092693e-05 1.59193041e-05 1.41979835e-05 1.73996505e-05
      1.18710832e-05 1.18710832e-05 2.29707421e-05 2.29707421e-05
      2.29707421e-05 2.07607081e-05 1.75590394e-05 1.44407545e-06
      -4.71702551e-05 -7.41232998e-06 6.31171788e-05 7.39325651e-06
      3.59428736e-06 -2.77759518e-05 -6.99975571e-05 -3.65713167e-05
      2.85915830e-05 2.96578382e-05 -8.24573362e-05 -6.62249840e-06
      6.76315249e-05 5.09491038e-05 -7.07397776e-05 2.69792599e-05
      4.20111246e-05 5.78978579e-05 -4.76325367e-05 -2.26343600e-05
      -1.24426424e-05 -4.22963931e-05 2.84972648e-05 -2.22863873e-05
      2.14866923e-05 4.57249334e-05 1.61717762e-05 3.15086218e-05
      2.38491702e-05 2.38491702e-05 2.30378573e-05 3.98393786e-05
      3.00812371e-05 3.00812371e-05 3.60565791e-05 3.60565791e-05
      1.92550597e-05 9.32525018e-06 9.32525018e-06 1.58699841e-05
      9.89464206e-06 9.89464206e-06 9.89464206e-06 9.89464206e-06
      9.89464206e-06 9.89464206e-06 3.34990841e-06 3.34990841e-06
      3.34990841e-06 3.56289547e-06 3.56289547e-06 3.56289547e-06
      3.56289547e-06 3.56289547e-06 2.60039997e-06 -1.66414102e-05
      -1.68543975e-05 -1.68543975e-05 -1.68543975e-05 -1.68543975e-05
      -1.51330778e-05 -1.40680822e-05 -5.67840834e-06 1.05997970e-05
      1.05997970e-05 1.05997970e-05 1.05997970e-05 1.10885112e-05
      1.42901790e-05 8.76161084e-06 8.76161084e-06 1.98612688e-05
      1.98612688e-05 1.98612688e-05 1.76512349e-05 1.44495680e-05
      3.76067169e-06 -2.31493868e-05 1.66085392e-05 8.71380471e-05
      3.14141253e-05 2.76151568e-05 -3.75508307e-06 -4.41626544e-05
      -2.12636714e-05 3.59341830e-05 -3.53633295e-05 1.77200181e-05
      -2.88930860e-05 7.31600958e-05 -8.80671632e-06 1.03682737e-06
      1.05277159e-05 4.20111246e-05 4.73353211e-05 -4.76325367e-05
      -2.26343600e-05 -1.24426424e-05 -2.84377056e-05 2.84972648e-05
      -2.80293571e-05 2.14866923e-05 4.57249334e-05 1.61717762e-05
      3.15086218e-05 2.38491702e-05 2.38491702e-05 2.30378573e-05
      3.98393786e-05 2.46551681e-05 2.95089535e-06 8.92623757e-06
      8.92623757e-06 8.92623757e-06 -1.34539887e-05 -1.34539887e-05
      -6.90925435e-06 -2.03245963e-06 1.42457457e-05 1.42457457e-05
      1.42457457e-05 1.42457457e-05 1.42457457e-05 7.70101178e-06
      7.70101178e-06 7.70101178e-06 7.91399816e-06 7.91399816e-06
      7.91399816e-06 7.91399816e-06 7.91399816e-06 1.23775708e-05
      1.48400341e-05 1.46270468e-05 1.46270468e-05 1.46270468e-05
      1.63483674e-05 1.63483674e-05 1.74133620e-05 1.49508996e-05
      1.05997970e-05 1.05997970e-05 1.05997970e-05 1.28098309e-05
      1.10885112e-05 1.42901790e-05 1.42901790e-05 8.76161084e-06
      1.98612688e-05 1.98612688e-05 1.98612688e-05 1.76512349e-05
      1.44495680e-05 8.11177415e-06 -1.87982841e-05 2.09596419e-05
      9.14891498e-05 3.57652279e-05 3.19662613e-05 1.77348545e-06
      -3.28725255e-05 -2.12636714e-05 -3.36082230e-05 -3.35492987e-05
      1.22939500e-05 3.86253596e-05 6.83976468e-05 9.77041564e-05
      -6.70093368e-06 -1.74139386e-05 3.50693495e-06 1.93936667e-05
      -9.06153291e-05 -7.92388601e-05 -1.32539553e-05 -2.07782523e-05
      2.50524572e-05 -4.61203672e-05 2.49310619e-06 8.38073674e-07
      1.35382807e-05 1.35382807e-05 2.12156738e-05 2.12156738e-05
      2.04043608e-05 3.72058821e-05 2.74477406e-05 2.74477406e-05
      3.60565791e-05 3.60565791e-05 3.60565791e-05 1.36763538e-05
      1.36763538e-05 2.02210867e-05 1.42457457e-05 1.42457457e-05
      1.42457457e-05 1.42457457e-05 1.42457457e-05 1.42457457e-05
      7.70101178e-06 7.70101178e-06 7.70101178e-06 7.91399816e-06
      7.91399816e-06 7.91399816e-06 7.91399816e-06 7.91399816e-06
      1.23775708e-05 1.48400341e-05 1.46270468e-05 1.46270468e-05
      1.46270468e-05 1.63483674e-05 1.63483674e-05 1.74133620e-05
      1.49508996e-05 1.49508996e-05 1.49508996e-05 9.52483151e-06
      -9.96940798e-06 -1.16907277e-05 -8.48905984e-06 -8.48905984e-06
      -8.48905984e-06 2.61059904e-06 2.61059904e-06 1.34627362e-05
      2.75309067e-05 2.43292397e-05 1.36403432e-05 -1.32697151e-05
      2.64882110e-05 9.70177207e-05 4.70553568e-05 2.11940933e-05
      -1.78839491e-05 -1.78839491e-05 1.76420635e-05 -3.18869024e-05
      -9.56274162e-05 -1.19258933e-04 -4.29268803e-05 -4.80857852e-05
      1.83619522e-05 -6.20100082e-06 1.73758581e-05 7.27764273e-05
      1.66637838e-05 -8.34191596e-05 -3.12657794e-05 -8.22799757e-06
      -2.42230599e-05 2.43360446e-05 -4.68367798e-05 -4.54956898e-06
      1.21661060e-07 1.28218680e-05 1.28218680e-05 2.04992612e-05
      2.04992612e-05 4.22510275e-05 4.22510275e-05 3.24928878e-05
      3.24928878e-05 3.27066700e-05 3.27066700e-05 3.27066700e-05
      1.03264447e-05 1.03264447e-05 1.68711795e-05 1.08958366e-05
      1.16122492e-05 1.42457457e-05 8.81967662e-06 -1.28845968e-05
      -1.28845968e-05 -1.94293298e-05 -1.94293298e-05 -1.94293298e-05
      -1.92163425e-05 -1.92163425e-05 -8.36420622e-06 7.91399816e-06
      7.19758600e-06 1.16611582e-05 1.41236214e-05 1.39106342e-05
      1.39106342e-05 1.39106342e-05 1.56319547e-05 1.63483674e-05
      1.74133620e-05 2.07124594e-05 2.07124594e-05 2.07124594e-05
      2.07124594e-05 2.29224934e-05 2.29224934e-05 2.44028415e-05
      2.44028415e-05 2.44028415e-05 3.55025004e-05 3.55025004e-05
      3.55025004e-05 3.55025004e-05 3.00907996e-05 1.94019030e-05
      -7.50815525e-06 3.22497726e-05 1.02779282e-04 4.87766774e-05
      2.29154139e-05 -1.78839491e-05 1.49493635e-05 1.76420635e-05
      -3.47045061e-05 -1.01788130e-04 -1.01712059e-04 -1.33328882e-04
      -5.00028800e-05 -8.53446472e-05 -7.67507372e-05 1.44082442e-05
      6.98088115e-05 5.12158476e-05 1.58893199e-05 -3.38992759e-05
      -1.35341643e-05 -3.03655415e-05 7.76823890e-06 -7.83182259e-05
      -3.60310150e-05 1.54832633e-05 -1.40698921e-05 -8.30833233e-06
      -6.30939439e-07 8.81073993e-06 4.10791545e-05 4.10791545e-05
      3.13210148e-05 3.72963550e-05 3.72963550e-05 3.72963550e-05
      3.72963550e-05 1.49161297e-05 1.03264447e-05 1.68711795e-05
      1.68711795e-05 1.08958366e-05 1.08958366e-05 1.08958366e-05
      1.08958366e-05 1.08958366e-05 4.35110314e-06 4.35110314e-06
      4.35110314e-06 4.56408998e-06 4.56408998e-06 4.56408998e-06
      4.56408998e-06 4.56408998e-06 9.02766260e-06 1.14901250e-05
      1.12771386e-05 1.12771386e-05 1.12771386e-05 1.29984583e-05
      1.29984583e-05 1.40634538e-05 1.16009915e-05 1.16009915e-05
      1.16009915e-05 1.16009915e-05 1.38110254e-05 1.38110254e-05
      1.70126932e-05 1.70126932e-05 1.70126932e-05 2.81123521e-05
      2.81123521e-05 2.81123521e-05 2.81123521e-05 3.06722432e-05
      1.45572803e-05 -3.98186130e-05 5.70087514e-06 7.62303825e-05
      2.05064607e-05 -5.35480240e-06 -4.61541640e-05 -2.22370072e-05
      2.23985211e-07 -5.95286765e-05 -1.02211590e-04 -1.23295205e-04
      -5.97047656e-05 -7.87018689e-06 -2.77544386e-05 -1.07595799e-04
      -6.44396569e-05 5.33583552e-05 5.12158476e-05 1.58893199e-05
      -3.92054426e-05 -1.53481960e-05 -2.92905752e-05 3.05474787e-05
      -5.11878825e-05 3.46366687e-05 4.26136030e-05 1.30604503e-05
      1.88220092e-05 2.64994032e-05 2.07378416e-05 3.67280518e-05
      3.67280518e-05 2.69699103e-05 3.29452523e-05 3.29452523e-05
      3.29452523e-05 3.29452523e-05 -4.89248896e-06 -4.89248896e-06
      1.65224503e-06 1.65224503e-06 1.11344179e-05 1.54855206e-05
      1.54855206e-05 1.54855206e-05 1.54855206e-05 8.94078767e-06
      8.94078767e-06 8.94078767e-06 9.15377404e-06 9.15377404e-06
      9.15377404e-06 9.15377404e-06 9.15377404e-06 3.82914550e-06
      -1.10505325e-05 -1.12635189e-05 -1.12635189e-05 -1.12635189e-05
      -9.54219922e-06 -9.54219922e-06 -8.47720366e-06 -8.75295996e-08
      1.61906755e-05 1.16009915e-05 1.16009915e-05 1.38110254e-05
      1.38110254e-05 1.70126932e-05 1.55517773e-06 1.55517773e-06
      1.26548366e-05 1.26548366e-05 1.26548366e-05 1.26548366e-05
      9.45316879e-06 -1.23572681e-06 -2.35561001e-05 1.62018259e-05
      8.67313356e-05 2.20912571e-05 -3.77000674e-06 -3.88078079e-05
      -1.05641811e-05 -5.55793986e-06 -7.57026064e-05 -1.13079426e-04
      -1.23295205e-04 -1.19453558e-04 -4.51995329e-05 -3.40807019e-05
      -1.04151062e-04 -6.44396569e-05 4.27958184e-05 1.60295476e-05
      4.17825941e-05 -3.92054426e-05 -1.96992987e-05 -2.92905752e-05
      3.05474787e-05 -5.11878825e-05 5.00941824e-05 3.16976584e-05
      1.30604503e-05 1.88220092e-05 2.64994032e-05 2.07378416e-05
      2.78118951e-05 2.78118951e-05 -6.94871687e-06 -3.10124460e-06
      -9.64260471e-06 -9.64260471e-06 5.81491031e-06 -1.65653146e-05
      -2.74812628e-05 -2.09365280e-05 -1.00843918e-05 2.18471243e-07
      1.11344179e-05 1.11344179e-05 1.11344179e-05 1.11344179e-05
      4.58968452e-06 4.58968452e-06 4.58968452e-06 4.80267136e-06
      4.80267136e-06 4.80267136e-06 4.80267136e-06 4.80267136e-06
      9.26624398e-06 1.17287063e-05 1.58668227e-05 1.15157200e-05
      1.15157200e-05 1.75881432e-05 1.75881432e-05 1.86531379e-05
      7.27452016e-06 7.27452016e-06 7.27452016e-06 7.27452016e-06
      9.48455454e-06 5.13345185e-06 8.33511967e-06 8.33511967e-06
      -2.58082764e-06 8.51883124e-06 8.51883124e-06 8.51883124e-06
      8.51883124e-06 5.31716387e-06 5.31716387e-06 -3.22817905e-05
      7.47613603e-06 7.80056434e-05 2.22817216e-05 -3.57954127e-06
      -5.98364204e-05 -2.12415471e-05 -2.70479359e-05 -8.63799723e-05
      -1.28346481e-04 -1.62916942e-04 -1.58874667e-04 -7.76360394e-05
      -1.18539298e-04 -2.47992488e-04 1.31711749e-05 1.52886041e-05
      5.52000529e-05 -3.34904689e-05 -1.01204378e-05 -1.96992987e-05
      -2.92905752e-05 4.44061661e-05 -2.18716796e-05 5.00941824e-05
      4.26136030e-05 1.30604503e-05 9.90585431e-06 1.18216876e-05
      2.07378416e-05 1.99265305e-05 3.67280518e-05 2.69699103e-05
      3.29452523e-05 1.74877368e-05 6.57178998e-06 2.20293059e-05
      1.05650261e-05 1.05650261e-05 1.71097599e-05 1.71097599e-05
      1.11344179e-05 1.11344179e-05 1.11344179e-05 1.11344179e-05
      1.11344179e-05 4.58968452e-06 4.58968452e-06 4.58968452e-06
      4.80267136e-06 4.80267136e-06 4.80267136e-06 4.80267136e-06
      4.80267136e-06 9.26624398e-06 1.17287063e-05 1.15157200e-05
      1.15157200e-05 1.15157200e-05 1.32370396e-05 1.32370396e-05
      1.43020352e-05 1.18395728e-05 1.18395728e-05 1.18395728e-05
      -1.52907687e-05 -1.30807348e-05 -1.30807348e-05 -9.87906697e-06
      -9.87906697e-06 -9.87906697e-06 1.22059191e-06 1.22059191e-06
      1.20727282e-05 2.28223653e-05 1.07045425e-05 1.07045425e-05
      -7.28936038e-06 2.35524112e-05 9.40819227e-05 3.83579973e-05
      -4.40229087e-05 -2.83026293e-05 -6.23703841e-07 -2.37016393e-05
      -1.01862179e-06 -8.56179831e-05 -1.20329081e-04 -1.16286807e-04
      -1.45154481e-04 -1.56715832e-04 -1.52711596e-04 3.26420632e-05
      4.36756491e-05 6.80683224e-05 1.73229510e-05 -1.77798920e-05
      -1.96992987e-05 -3.11046060e-05 4.44061661e-05 -2.18716796e-05
      7.02791367e-05 6.49922731e-05 2.23294537e-05 1.91748586e-05
      2.68522508e-05 1.61481585e-05 1.99265305e-05 3.67280518e-05
      2.69699103e-05 3.29452523e-05 1.56737060e-05 4.75775823e-06
      2.02152733e-05 8.75099522e-06 1.05650261e-05 1.71097599e-05
      1.71097599e-05 1.11344179e-05 1.11344179e-05 -1.59959236e-05
      -1.59959236e-05 -1.59959236e-05 -2.25406566e-05 -2.25406566e-05
      -2.25406566e-05 -2.23276711e-05 -2.23276711e-05 -1.14755339e-05
      4.80267136e-06 4.80267136e-06 9.26624398e-06 1.17287063e-05
      1.15157200e-05 1.15157200e-05 1.15157200e-05 1.32370396e-05
      1.32370396e-05 1.43020352e-05 1.18395728e-05 1.18395728e-05
      1.18395728e-05 1.18395728e-05 1.22355750e-05 1.22355750e-05
      1.54372428e-05 1.54372428e-05 1.54372428e-05 2.65369017e-05
      2.65369017e-05 2.10083344e-05 2.10083344e-05 1.78066657e-05
      1.78066657e-05 -9.10339168e-06 3.06545335e-05 1.01184043e-04
      4.54601213e-05 -7.57294110e-05 -3.01166619e-05 8.47821138e-06
      4.05407900e-06 -2.32024850e-05 -5.01145987e-05 -5.29293939e-05
      -5.45132752e-05 2.27100486e-07 -1.05858242e-04 -3.20838371e-05
      3.56096753e-05 3.36202174e-06 2.77547006e-05 1.73229510e-05
      -1.70003350e-05 -2.80751647e-05 -5.64209186e-05 1.26861405e-05
      -5.35917061e-05 4.31487933e-05 -4.39143287e-06 -4.80088829e-06
      -7.95548294e-06 -2.78090766e-07 1.37286415e-05 2.91955348e-05
      4.41830234e-05 3.44248838e-05 4.22142548e-05 2.67567411e-05
      3.12983102e-05 3.12983102e-05 1.98340313e-05 1.98340313e-05
      2.63787642e-05 2.63787642e-05 2.04034222e-05 2.04034222e-05
      2.49931072e-05 2.49931072e-05 2.49931072e-05 1.84483724e-05
      1.84483724e-05 1.84483724e-05 1.86613597e-05 1.86613597e-05
      1.86613597e-05 1.86613597e-05 1.86613597e-05 2.31249323e-05
      2.55873947e-05 1.15157200e-05 1.15157200e-05 1.15157200e-05
      1.32370396e-05 1.32370396e-05 1.43020352e-05 1.18395728e-05
      1.18395728e-05 1.18395728e-05 1.18395728e-05 1.40496068e-05
      1.40496068e-05 1.72512755e-05 1.72512755e-05 1.72512755e-05
      2.83509344e-05 2.66296138e-05 2.11010447e-05 2.11010447e-05
      1.78993778e-05 -9.23096377e-06 -3.61410202e-05 3.61690422e-06
      7.01223471e-05 1.53727724e-05 -2.61291734e-05 -5.60367444e-05
      2.09984555e-05 -1.44341602e-05 5.28593910e-06 -5.23824929e-05
      -1.47432193e-05 -1.10975889e-04 7.98780020e-05 -1.75318837e-05
      7.02652187e-06 3.56096753e-05 4.66432612e-05 -3.73671787e-06
      3.17112222e-06 -1.70003350e-05 -2.62611320e-05 -8.20977039e-06
      3.98164811e-05 -2.64613645e-05 7.02791367e-05 5.74955266e-05
      2.80910135e-05 1.91748586e-05 3.57684075e-05 3.00068459e-05
      2.91955348e-05 4.41830234e-05 3.44248838e-05 4.22142548e-05
      2.67567411e-05 1.58407929e-05 4.22142548e-05 1.98340313e-05
      1.98340313e-05 2.63787642e-05 2.63787642e-05 2.04034222e-05
      2.04034222e-05 2.04034222e-05 2.04034222e-05 2.04034222e-05
      1.38586884e-05 1.38586884e-05 1.38586884e-05 1.40716757e-05
      1.40716757e-05 1.40716757e-05 1.40716757e-05 1.40716757e-05
      -8.59509419e-06 -6.13263137e-06 -6.34561820e-06 -1.75593391e-06
      -6.34561820e-06 -4.62429853e-06 -3.46140610e-08 1.03038155e-06
      9.42005590e-06 2.56982603e-05 2.56982603e-05 2.56982603e-05
      2.79082960e-05 2.79082960e-05 2.65202780e-05 2.65202780e-05
      2.65202780e-05 3.58986181e-05 3.03700490e-05 3.03700490e-05
      3.03700490e-05 2.71683821e-05 2.71683821e-05 2.58323752e-07
      3.78062141e-05 1.36869367e-05 5.93477089e-05 1.60317322e-05
      -5.08704288e-05 2.04032112e-05 1.29270802e-05 2.51028632e-06
      -3.74129959e-05 -1.15726052e-05 -2.17445468e-05 7.52883207e-05
      -1.97590671e-05 -7.53076802e-06 2.25000131e-05 3.36668927e-05
      1.46450375e-05 5.59548789e-06 -1.70003350e-05 -5.90643708e-07
      -8.20977039e-06 3.94057206e-05 -2.64613645e-05 8.67306808e-05
      4.43858626e-05 3.04402056e-05 1.91748586e-05 2.68522508e-05
      3.00068459e-05 2.91955348e-05 4.41830234e-05 7.29454086e-06
      1.50839141e-05 -3.73601068e-07 -1.12895486e-05 4.16796729e-06
      -7.29631165e-06 -7.29631165e-06 -7.51577488e-07 1.01005589e-05
      2.04034222e-05 2.04034222e-05 2.04034222e-05 2.04034222e-05
      2.04034222e-05 1.38586884e-05 1.38586884e-05 1.38586884e-05
      1.40716757e-05 1.40716757e-05 1.40716757e-05 1.40716757e-05
      1.40716757e-05 1.85352474e-05 2.09977097e-05 2.07847243e-05
      2.07847243e-05 2.07847243e-05 2.25060430e-05 2.25060430e-05
      2.35710395e-05 2.11085771e-05 2.11085771e-05 2.11085771e-05
      2.11085771e-05 2.33186111e-05 2.33186111e-05 2.65202780e-05
      2.65202780e-05 2.65202780e-05 3.58986181e-05 3.03700490e-05
      3.03700490e-05 3.61316088e-05 3.29299401e-05 3.29299401e-05
      6.01988359e-06 4.35677757e-05 -8.47626961e-06 5.93477089e-05
      3.13685778e-05 2.79774704e-05 2.04032112e-05 1.12057605e-05
      7.88966588e-07 -3.73202820e-05 -4.04242674e-05 3.54875556e-05
      -1.11535492e-05 -9.08640868e-05 -2.77748222e-06 -3.05235990e-05
      -1.93567230e-05 -6.31298144e-06 -4.92115714e-06 4.29525289e-06
      5.17091621e-06 -2.44821081e-06 3.13085911e-05 -2.67981941e-05
      7.86335513e-05 1.46417806e-05 -2.56718449e-05 2.06530167e-05
      1.29935624e-05 2.19097183e-05 2.10984053e-05 3.60858940e-05
      2.81417852e-05 1.28980528e-05 2.67567411e-05 1.58407929e-05
      3.12983102e-05 1.98340313e-05 1.98340313e-05 -1.58745970e-05
      -1.58745970e-05 -2.18499408e-05 -2.18499408e-05 2.04034222e-05
      2.04034222e-05 2.04034222e-05 1.38586884e-05 1.38586884e-05
      1.38586884e-05 1.40716757e-05 1.40716757e-05 1.40716757e-05
      1.40716757e-05 1.40716757e-05 1.85352474e-05 2.09977097e-05
      2.07847243e-05 2.07847243e-05 2.07847243e-05 2.82676028e-05
      2.25060430e-05 2.35710395e-05 2.68701369e-05 2.68701369e-05
      2.68701369e-05 -2.60205383e-07 1.94982908e-06 1.94982908e-06
      5.15149668e-06 5.15149668e-06 3.43017678e-06 -2.77235267e-05
      -3.32520940e-05 -2.23999577e-05 -6.12175290e-06 -9.32342027e-06
      -9.32342027e-06 -3.84435116e-05 1.31441334e-06 1.98201051e-05
      -4.97552828e-05 -1.05533574e-04 2.90572934e-05 -6.31612374e-06
      -1.55135731e-05 -2.59303670e-05 -6.40396174e-05 -2.93089779e-05
      4.90702041e-06 2.61897676e-05 -3.80632591e-05 4.64151526e-05
      -3.39325857e-06 7.77361947e-06 2.72639227e-05 1.13570477e-05
      4.29525289e-06 6.84625593e-06 -7.72870976e-07 3.70913949e-05
      4.19109638e-05 7.77160312e-05 3.01758082e-05 2.31993890e-05
      3.85362364e-05 2.85275910e-05 3.74437477e-05 3.66324348e-05
      5.16199216e-05 4.18617819e-05 3.41936393e-05 2.32776929e-05
      2.32776929e-05 -3.51815333e-06 -3.05164594e-05 1.17369018e-05
      1.25200759e-05 1.25200759e-05 1.23062937e-05 2.61649820e-05
      1.45686681e-05 1.45686681e-05 1.45686681e-05 8.02393424e-06
      8.02393424e-06 8.02393424e-06 8.23692153e-06 8.23692153e-06
      1.90890587e-05 3.53672622e-05 3.53672622e-05 3.98308366e-05
      4.22932972e-05 4.20803117e-05 4.20803117e-05 4.20803117e-05
      4.38016323e-05 4.38016323e-05 3.93380578e-05 4.24041646e-05
      3.68755973e-05 4.24041646e-05 4.24041646e-05 4.46142003e-05
      4.46142003e-05 4.78158654e-05 4.78158654e-05 4.60945485e-05
      5.71942073e-05 5.16656364e-05 5.16656364e-05 5.16656364e-05
      4.84639713e-05 4.84639713e-05 8.74944162e-05 1.89331149e-05
      9.49004461e-05 -1.15729445e-05 -8.28087504e-05 3.62480896e-05
      9.79082688e-06 -3.64562948e-05 -5.20767790e-05 -4.79326663e-05
      -3.99978744e-05 -1.66978225e-05 4.58492377e-06 -6.54296600e-05
      2.99646981e-05 1.23543505e-05 1.98087619e-05 4.26007682e-05
      2.76682422e-05 6.74775902e-06 2.31574504e-05 -1.15920184e-05
      2.13301810e-05 1.47806213e-05 -6.17789410e-05 4.51781598e-05
      -4.05162154e-06 -4.05162154e-06 -1.17110749e-05 8.05721720e-06
      2.35241096e-05 3.85116000e-05 2.64042665e-05 2.84320813e-05
      1.75161331e-05 1.75161331e-05 -2.47372282e-05 -3.62015089e-05
      6.05185460e-06 1.25965889e-05 2.80541044e-05 2.20787624e-05
      2.20787624e-05 2.20787624e-05 2.20787624e-05 2.20787624e-05
      1.55340276e-05 1.55340276e-05 1.55340276e-05 1.57470149e-05
      1.57470149e-05 1.57470149e-05 1.57470149e-05 1.57470149e-05
      2.02105875e-05 2.26730499e-05 2.24600626e-05 2.24600626e-05
      2.24600626e-05 2.41813832e-05 2.41813832e-05 1.97178106e-05
      2.27839155e-05 1.72553482e-05 2.27839155e-05 2.27839155e-05
      9.53643485e-06 2.49939512e-05 2.81956181e-05 1.27381027e-05
      2.17056786e-05 2.78780026e-05 2.23494335e-05 2.23494335e-05
      1.34332786e-05 1.02316108e-05 -1.68987317e-05 5.29194449e-06
      -7.29839085e-05 3.05120957e-05 2.53024632e-06 -2.88399933e-05
      -1.56568894e-05 -4.21141485e-05 -3.52557763e-05 -2.90193457e-05
      -6.13382435e-05 -2.25191470e-05 2.79047308e-05 4.34259164e-05
      2.66851512e-05 -4.79191795e-06 2.54640127e-05 5.71448618e-05
      2.79230517e-05 1.29905266e-05 -5.29646059e-06 9.25929089e-06
      1.67192013e-06 5.00940005e-05 -4.15397444e-05 -3.30151233e-05
      5.54494873e-05 1.51358599e-05 1.51358599e-05 7.47640661e-06
      -2.83891922e-07 -2.90923549e-06 1.38922842e-05 4.13414455e-06
      2.08396741e-05 2.08396741e-05 2.08396741e-05 -2.14136890e-05
      -4.37939161e-05 -1.54055260e-06 5.00418128e-06 5.00418128e-06
      9.94478614e-06 9.94478614e-06 9.94478614e-06 9.94478614e-06
      9.94478614e-06 1.88575686e-05 1.88575686e-05 3.40005249e-06
      3.61303955e-06 3.61303955e-06 3.61303955e-06 3.61303955e-06
      3.61303955e-06 -1.90537303e-05 -1.65912679e-05 -1.68042534e-05
      -1.68042534e-05 -1.68042534e-05 -2.57204101e-05 -1.50829346e-05
      -2.12678260e-05 -2.00729883e-05 -3.79478297e-06 1.73378544e-06
      1.73378544e-06 1.73378544e-06 -6.97212727e-06 4.93545303e-06
      7.14548742e-06 5.19711648e-06 7.93112704e-08 7.93112704e-08
      7.93112704e-08 7.93112704e-08 -3.12235625e-06 -3.12235625e-06
      1.90683186e-05 7.96865970e-06 4.33141213e-05 1.53322726e-05
      -9.50970116e-06 -7.47294325e-06 -2.81686443e-05 -3.39764374e-05
      -3.10542273e-05 -5.27835473e-05 4.79805822e-05 2.79047308e-05
      3.25722795e-06 1.33461572e-05 -2.70724490e-06 3.61539969e-05
      5.71448618e-05 3.01167674e-05 1.58081311e-05 -4.87871057e-06
      -7.27745646e-06 -1.30825520e-05 4.59020666e-05 -5.62942187e-05
      -4.77695939e-05 4.06950130e-05 3.81387963e-07 3.81387963e-07
      -7.27806537e-06 8.25596271e-06 5.63061894e-06 2.24321393e-05
      -1.44563428e-05 -6.66696906e-06 -7.44652516e-06 -7.44652516e-06
      -4.96998873e-05 -2.98267514e-05 -2.98267514e-05 -1.43658617e-05
      1.19437900e-05 1.33304984e-05 1.33304984e-05 1.33304984e-05
      1.33304984e-05 1.33304984e-05 6.78576407e-06 1.77017118e-05
      1.77017118e-05 6.99875091e-06 6.99875091e-06 6.99875091e-06
      6.99875091e-06 6.99875091e-06 1.14623235e-05 1.39247868e-05
      1.37117995e-05 1.37117995e-05 1.37117995e-05 1.37117995e-05
      1.54331192e-05 9.24822689e-06 8.50708420e-06 8.50708420e-06
      1.40356524e-05 -1.49837581e-06 -1.49837581e-06 7.11658629e-07
      1.70329179e-06 3.91332605e-06 1.28809024e-05 7.76309753e-06
      7.76309753e-06 7.76309753e-06 7.76309753e-06 4.56142971e-06
      4.56142971e-06 2.67521045e-05 -1.61910100e-06 3.37263627e-05
      5.74451133e-06 -3.56343412e-06 -1.52667656e-06 -2.22223789e-05
      -2.62161393e-05 -2.82366236e-05 -5.23657982e-05 5.31621345e-06
      -6.07949441e-05 -3.01503478e-05 -1.11452637e-05 -3.69816480e-05
      1.97125501e-05 3.00145184e-05 -2.48760753e-05 1.38686501e-05
      -1.96014262e-05 -2.92635332e-06 -1.48965837e-05 -2.45446099e-05
      -4.26507322e-05 2.48687447e-05 5.43384995e-05 1.40248721e-05
      6.36541836e-06 6.36541836e-06 6.36541836e-06 5.55410634e-06
      2.23556272e-05 1.25974866e-05 2.74889844e-05 2.74889844e-05
      2.74889844e-05 -1.47643786e-05 -3.53305732e-05 2.24568175e-05
      2.90015523e-05 2.90015523e-05 1.84081291e-05 1.84081291e-05
      1.84081291e-05 1.84081291e-05 1.84081291e-05 1.18633943e-05
      1.18633943e-05 1.18633943e-05 1.20763816e-05 1.20763816e-05
      1.20763816e-05 1.20763816e-05 1.20763816e-05 1.65399542e-05
      1.90024166e-05 1.87894293e-05 1.87894293e-05 1.87894293e-05
      1.87894293e-05 1.80098741e-05 1.35463006e-05 1.28051579e-05
      1.09911271e-05 1.83337270e-05 -8.79661548e-06 -1.06106472e-05
      -1.06106472e-05 -7.40897940e-06 -6.92026470e-06 3.76863136e-06
      -1.02653294e-05 -1.02653294e-05 1.36636368e-06 1.76445683e-05
      1.44429014e-05 1.22328665e-05 3.66335771e-05 2.55339182e-05
      4.91838764e-05 2.12020259e-05 1.18940816e-05 3.67726898e-05
      1.52974317e-05 -1.07586238e-05 -1.27791081e-05 -3.61287275e-05
      4.79040718e-05 -1.55735906e-05 -4.72789798e-05 1.59850788e-05
      -3.67201937e-05 3.05316971e-05 4.97498222e-05 -5.14077283e-06
      7.21778815e-06 -2.69964657e-05 -1.03213924e-05 4.18780692e-05
      -7.34524065e-07 -2.61843034e-05 4.13773087e-05 1.74237721e-05
      3.05334361e-05 2.28739809e-05 2.28739809e-05 2.28739809e-05
      2.20626680e-05 3.88641893e-05 2.91060496e-05 3.50813898e-05
      3.50813898e-05 3.50813898e-05 -7.17197099e-06 -2.95521968e-05
      1.27011654e-05 1.92458992e-05 1.92458992e-05 1.32705572e-05
      1.32705572e-05 -1.20457535e-05 -1.20457535e-05 -1.38597852e-05
      -2.04045191e-05 -2.04045191e-05 -2.04045191e-05 -2.01915318e-05
      -2.01915318e-05 -3.76068942e-06 6.93881020e-06 6.93881020e-06
      1.14023824e-05 1.38648456e-05 1.36518584e-05 1.36518584e-05
      1.36518584e-05 1.36518584e-05 1.36518584e-05 9.18828573e-06
      8.44714305e-06 8.44714305e-06 1.39757112e-05 1.39757112e-05
      1.39757112e-05 1.39757112e-05 1.71773790e-05 1.76660942e-05
      2.83549889e-05 2.32371840e-05 2.32371840e-05 2.32371840e-05
      2.32371840e-05 2.00355171e-05 1.78254813e-05 4.22261910e-05
      3.11265321e-05 6.64719919e-05 3.84901468e-05 2.91821998e-05
      5.32812519e-05 1.88821832e-05 -2.19186836e-06 -4.21235245e-06
      -2.47443677e-05 6.23396772e-05 4.22437588e-05 -3.87122236e-05
      2.45518331e-05 -2.09018617e-05 3.90370915e-05 4.93390580e-05
      -5.95208485e-06 6.40647568e-06 -2.25016120e-05 3.85114508e-05
      6.56422117e-06 -6.97627474e-05 -5.64759066e-05 -8.85017835e-06
      -1.74668694e-05 -4.35720585e-06 -1.20166596e-05 -1.20166596e-05
      -1.16452259e-06 1.43023699e-05 3.66825952e-05 2.13457497e-05
      2.73210917e-05 2.73210917e-05 -1.49322696e-05 -1.49322696e-05
      -3.54984622e-05 6.75489810e-06 1.32996320e-05 1.32996320e-05
      7.32428998e-06 7.32428998e-06 7.32428998e-06 7.32428998e-06
      7.32428998e-06 7.79556103e-07 7.79556103e-07 7.79556103e-07
      9.92543164e-07 9.92543164e-07 6.57124883e-06 9.92543164e-07
      9.92543164e-07 5.45611601e-06 7.91857838e-06 7.70559109e-06
      7.70559109e-06 7.70559109e-06 7.70559109e-06 7.70559109e-06
      3.24201869e-06 2.50087601e-06 2.50087601e-06 8.02944396e-06
      8.02944396e-06 8.02944396e-06 8.02944396e-06 1.12311118e-05
      1.17198269e-05 2.24087216e-05 1.72909167e-05 1.72909167e-05
      1.72909167e-05 1.72909167e-05 7.38111703e-06 7.33555180e-06
      -3.35334425e-06 -3.35334425e-06 3.15813559e-05 3.59950491e-06
      -5.70844031e-06 1.83906122e-05 -4.98161171e-05 -2.62303711e-05
      -6.03522892e-07 -3.25046676e-05 5.45793773e-05 3.44834589e-05
      -1.19640739e-04 -8.63341702e-05 -6.31552248e-05 3.90370915e-05
      4.93390580e-05 -5.95208485e-06 6.40647568e-06 -3.02619101e-05
      3.62804822e-05 5.54927210e-05 -3.62917599e-05 3.59899350e-05
      3.59899350e-05 -3.02169647e-05 3.36030098e-05 3.36030098e-05
      2.82968413e-05 2.82968413e-05 2.74855302e-05 4.98657573e-05
      3.45289081e-05 4.05042520e-05 4.05042520e-05 -1.74911008e-06
      -1.74911008e-06 -2.41293365e-05 1.81240266e-05 2.46687596e-05
      2.46687596e-05 2.39995843e-05 2.39995843e-05 2.39995843e-05
      2.39995843e-05 2.39995843e-05 1.21486837e-05 1.21486837e-05
      1.21486837e-05 1.23616710e-05 1.79403760e-05 1.79403760e-05
      1.79403760e-05 -7.74670025e-06 -1.03050979e-05 -7.84263557e-06
      -8.05562286e-06 -8.05562286e-06 -8.05562286e-06 -8.05562286e-06
      -8.05562286e-06 -2.38883240e-05 -1.37773295e-05 2.50087601e-06
      8.02944396e-06 8.02944396e-06 8.02944396e-06 8.02944396e-06
      1.12311118e-05 1.17198269e-05 2.24087216e-05 1.72909167e-05
      1.72909167e-05 1.72909167e-05 1.72909167e-05 1.40892498e-05
      3.62799256e-05 2.55910290e-05 2.55910290e-05 6.05257264e-05
      3.25438778e-05 2.32359325e-05 4.73349864e-05 -5.17559783e-05
      -3.90223686e-05 -4.10428547e-05 -8.43130620e-05 1.80689840e-05
      -3.41879900e-06 -1.04310355e-04 -2.98041105e-05 -6.31552248e-05
      3.90370915e-05 7.56092049e-05 -6.36284767e-06 5.62691957e-06
      -2.92274344e-05 3.62804822e-05 -8.55023882e-06 1.79054241e-05
      3.59899350e-05 -3.02169647e-05 -3.02169647e-05 -2.47667558e-05
      -9.42990937e-06 -9.42990937e-06 -9.42990937e-06 -1.02412214e-05
      -9.56526947e-06 -3.03281831e-05 -2.43528411e-05 -2.43528411e-05
      -2.43528411e-05 -2.43528411e-05 -4.11543624e-05 -4.67330683e-05
      -3.94087765e-05 -3.21740190e-05 -2.00624672e-05 2.39995843e-05
      2.39995843e-05 2.39995843e-05 2.39995843e-05 1.74548513e-05
      1.74548513e-05 1.74548513e-05 1.76678368e-05 2.32465427e-05
      2.32465427e-05 2.32465427e-05 1.76678368e-05 2.21314112e-05
      2.45938736e-05 2.43808863e-05 2.43808863e-05 2.43808863e-05
      2.43808863e-05 2.43808863e-05 1.99173137e-05 1.91761701e-05
      1.91761701e-05 2.47047392e-05 2.47047392e-05 2.47047392e-05
      2.47047392e-05 -1.43469560e-05 2.83951213e-05 4.46627237e-05
      -8.28715019e-06 -8.28715019e-06 -8.28715019e-06 -8.28715019e-06
      -1.14888180e-05 5.39569101e-06 -5.29320505e-06 -5.29320505e-06
      2.96414946e-05 -1.95940393e-05 -7.64830111e-06 1.64507510e-05
      -4.28398234e-05 -3.99967175e-05 -4.10428547e-05 -1.06796891e-04
      -4.71025533e-06 -6.54116666e-05 -1.31440698e-04 -5.69344520e-05
      -7.93696163e-05 1.19067490e-05 2.22481649e-05 -8.00260023e-06
      -5.10376158e-05 -8.38335745e-06 6.25506291e-05 1.10196115e-05
      4.41755692e-05 6.22600783e-05 -3.94681956e-06 -3.02169647e-05
      -2.47667558e-05 6.10411826e-06 6.10411826e-06 6.10411826e-06
      5.29280624e-06 2.76730316e-05 1.23361860e-05 1.83115280e-05
      1.83115280e-05 1.83115280e-05 1.83115280e-05 1.51000813e-06
      2.22014478e-05 2.87461826e-05 2.87461826e-05 2.27708388e-05
      2.27708388e-05 -3.49930565e-06 -3.49930565e-06 -3.49930565e-06
      -3.49930565e-06 -1.00440393e-05 3.22093219e-05 3.24223111e-05
      -4.25234703e-06 -4.25234703e-06 -4.25234703e-06 -9.05149682e-06
      -5.36747984e-06 -2.90501725e-06 -2.33844821e-06 -2.33844821e-06
      -2.33844821e-06 -1.78724767e-05 -1.78724767e-05 -2.23360494e-05
      -2.30771911e-05 -2.30771911e-05 -4.00324534e-05 -4.54585206e-05
      -4.54585206e-05 -4.54585206e-05 -4.22568519e-05 -3.61894345e-05
      -2.55005380e-05 -3.06183429e-05 -3.61970488e-05 -3.61970488e-05
      -1.44927753e-05 -1.22683741e-05 9.92230162e-06 -7.66594610e-07
      -7.66594610e-07 3.41681043e-05 -1.50674286e-05 -3.12169095e-06
      2.09773607e-05 -3.83132137e-05 -6.84862753e-05 -3.65162414e-05
      -3.29111317e-05 -8.37623083e-05 -2.27472938e-05 -1.04310355e-04
      -5.10577956e-05 -5.99995728e-05 -4.54484962e-06 -1.54571171e-05
      -1.78515838e-05 -7.34354835e-05 -6.00902058e-05 5.41771215e-06
      -4.45754267e-05 -4.36336231e-05 -3.01387972e-05 -9.63456987e-05
      -9.63456987e-05 -9.08954898e-05 -4.64736368e-05 -4.64736368e-05
      -4.64736368e-05 -4.72849497e-05 -2.49047225e-05 -3.42662279e-05
      4.45816731e-05 4.45816731e-05 7.98476322e-05 7.98476322e-05
      6.30461145e-05 5.74674086e-05 6.40121434e-05 -3.38823156e-07
      -6.31416515e-06 1.42349236e-05 8.80885545e-06 8.80885545e-06
      3.78938603e-05 3.78938603e-05 3.13491255e-05 3.13491255e-05
      3.71408169e-05 3.71408169e-05 3.71408169e-05 5.88450930e-05
      6.42711602e-05 6.31560251e-05 6.56184930e-05 6.54055038e-05
      6.54055038e-05 6.54055038e-05 6.54055038e-05 6.54055038e-05
      6.09419294e-05 6.02007858e-05 6.02007858e-05 6.57293567e-05
      6.57293567e-05 6.57293567e-05 5.01953291e-05 5.33969942e-05
      5.94644152e-05 7.01533136e-05 6.50355069e-05 5.94568010e-05
      3.31866540e-05 3.31866540e-05 2.99849871e-05 5.21756629e-05
      4.14867682e-05 4.14867682e-05 7.64214637e-05 -8.46481362e-06
      3.48092385e-06 2.75799757e-05 3.55536167e-06 -6.18836566e-05
      -1.19964352e-06 -4.42801938e-05 -6.64142499e-05 -5.18322995e-05
      -1.10285699e-04 -4.64681107e-05 -8.12532599e-05 2.81645607e-05
      2.33515057e-05 -5.20475851e-06 -2.02639458e-05 -1.46789689e-05
      2.91246761e-05 -2.62945305e-05 -2.88953888e-05 -5.26629665e-05
      -9.29765883e-05 -5.07232289e-05 -4.52730201e-05 -2.99361745e-05
      -2.99361745e-05 -2.99361745e-05 -1.20222312e-05 1.87630812e-05
      9.40157770e-06 9.40157770e-06 9.40157770e-06 4.16075854e-05
      4.16075854e-05 2.48060660e-05 2.48060660e-05 2.57720931e-05
      -1.66740085e-06 -1.04012827e-06 -1.04012827e-06 -1.04012827e-06
      -1.04012827e-06 -1.04012827e-06 -1.04012827e-06 -7.58486249e-06
      -2.00615659e-06 -1.79316964e-06 -1.79316964e-06 -1.79316964e-06
      -1.79316964e-06 -1.79316964e-06 2.67040309e-06 5.13286568e-06
      4.91987885e-06 -6.58826991e-07 -6.58826991e-07 -6.58826991e-07
      -6.58826991e-07 4.56305969e-07 -2.84836801e-07 -5.86354236e-06
      5.24373172e-06 5.24373172e-06 5.24373172e-06 5.24373172e-06
      8.44539954e-06 8.93411379e-06 -1.56429505e-05 -2.07607554e-05
      -2.07607554e-05 -2.07607554e-05 -2.78289699e-05 -2.29051529e-05
      7.34521091e-05 -1.60846866e-05 4.72291867e-05 8.21638823e-05
      3.29283503e-05 4.48740902e-05 2.53912021e-05 8.93358520e-05
      -2.04904936e-05 1.35077428e-07 1.35071969e-05 -1.32090536e-05
      -9.57893644e-06 -6.34426469e-05 -4.21474761e-06 -2.35423795e-05
      -1.04117198e-05 2.33515057e-05 -5.20475851e-06 -4.64257428e-05
      -8.20280434e-07 1.37893321e-05 -9.72200451e-06 1.99314782e-05
      1.32759988e-05 1.52157354e-05 1.52157354e-05 2.06659442e-05
      3.60027916e-05 3.60027916e-05 3.60027916e-05 3.51914787e-05
      5.19929963e-05 4.82102005e-05 4.82102005e-05 4.82102005e-05
      4.82102005e-05 4.82102005e-05 3.14086792e-05 3.14086792e-05
      3.79534140e-05 3.79534140e-05 3.19780702e-05 3.19780702e-05
      3.19780702e-05 2.63993661e-05 2.63993661e-05 3.19780702e-05
      2.54333372e-05 2.54333372e-05 2.56463245e-05 2.56463245e-05
      2.56463245e-05 1.66028767e-05 -6.32869046e-07 2.97955557e-06
      5.44201839e-06 5.22903110e-06 5.22903110e-06 5.22903110e-06
      5.22903110e-06 5.22903110e-06 5.22903110e-06 2.48677838e-06
      2.43157370e-08 1.81073174e-05 1.81073174e-05 1.81073174e-05
      1.81073174e-05 2.13089843e-05 2.17976994e-05 -6.32202728e-06
      -1.14398326e-05 -1.14398326e-05 -1.14398326e-05 -1.14398326e-05
      -1.14398326e-05 7.54917528e-06 -3.13972077e-06 -3.10644864e-05
      3.22057422e-05 -1.70297917e-05 -3.16566147e-05 -2.40356854e-07
      -2.80395143e-05 -4.43402496e-05 -3.30366965e-05 -5.63155118e-05
      -2.34338586e-05 -1.95651610e-05 -7.80185583e-05 -2.14355186e-05
      -3.49115071e-05 6.21994695e-05 9.59626996e-05 4.38035568e-05
      2.69967622e-05 3.50712980e-05 -3.35987497e-05 -8.35918909e-05
      -6.95958151e-05 -7.16616123e-05 -6.97218711e-05 -6.97218711e-05
      -6.42716623e-05 -4.89348204e-05 -4.89348204e-05 -2.32643306e-05
      -3.41164668e-05 -5.12059851e-05 -1.03881048e-05 8.42606823e-05
      8.42606823e-05 8.42606823e-05 1.10422479e-04 9.36209617e-05
      -1.02782849e-06 5.51690528e-06 5.51690528e-06 4.84773000e-06
      -4.69845545e-05 -4.69845545e-05 -4.69845545e-05 -4.69845545e-05
      -4.69845545e-05 -2.78588013e-05 -2.78588013e-05 -2.76458140e-05
      -2.76458140e-05 -2.76458140e-05 -2.76458140e-05 -3.29519789e-05
      -2.84884081e-05 -2.60259458e-05 -2.60259458e-05 -2.62389312e-05
      -2.62389312e-05 -2.62389312e-05 -2.09327663e-05 -2.09327663e-05
      -2.36750184e-05 -2.61374807e-05 -2.06089135e-05 -2.06089135e-05
      -2.06089135e-05 -2.06089135e-05 -5.06559945e-06 3.72180807e-06
      1.44107044e-05 9.29289854e-06 9.29289854e-06 9.29289854e-06
      9.29289854e-06 3.36936100e-05 2.82819074e-05 1.75930109e-05
      -1.03317561e-05 2.50821740e-05 -2.89967488e-06 1.03694852e-04
      1.65369738e-06 -2.61454588e-05 -4.24461941e-05 -3.28387177e-05
      -5.58383654e-05 -4.73574219e-05 -5.27743396e-05 -7.75414082e-05
      -5.70936609e-05 -1.11741756e-05 1.92676544e-05 4.16618168e-05
      -1.04973205e-05 -8.74631442e-05 -4.78971924e-05 -2.19184512e-05
      -9.26752691e-05 -5.02155272e-05 2.27902256e-05 -5.22800146e-05
      -5.80415763e-05 -5.25913674e-05 -3.06519069e-05 -2.48903452e-05
      4.32601919e-05 3.09150414e-06 2.28019189e-06 9.72020825e-06
      1.52989141e-05 1.52989141e-05 1.52989141e-05 1.52989141e-05
      -1.50260610e-06 -1.50260610e-06 5.04212767e-06 -7.19432194e-07
      -5.72042609e-06 -5.72042609e-06 -5.72042609e-06 -5.72042609e-06
      -5.72042609e-06 -4.76288460e-06 -1.06692578e-05 -1.06692578e-05
      -1.04562705e-05 -1.04562705e-05 -8.10707934e-06 -8.10707934e-06
      -8.10707934e-06 -3.64350626e-06 2.00726390e-05 2.00726390e-05
      1.98596535e-05 1.98596535e-05 1.98596535e-05 1.98596535e-05
      1.98596535e-05 1.71173997e-05 7.41396161e-06 1.19849883e-05
      1.19849883e-05 1.19849883e-05 1.10106403e-05 -8.04364827e-05
      -5.95202146e-05 -6.92588728e-05 -7.43766723e-05 -7.43766723e-05
      -7.43766723e-05 -7.43766723e-05 -2.21768078e-05 -5.53876671e-05
      -1.49561092e-05 -4.28808744e-05 -8.64330275e-07 6.58026111e-05
      3.85801286e-05 -2.42928072e-05 -5.20919639e-05 -6.74183539e-05
      -5.17829794e-05 -6.20302162e-05 -2.82889159e-05 -1.54371719e-05
      -8.74099205e-05 -6.33539821e-05 -5.93589757e-05 1.20536579e-05
      3.56815362e-05 -5.29379213e-05 -1.23301128e-04 -1.02245023e-04
      -1.34768461e-05 -9.18931182e-05 -4.59528746e-05 1.81235064e-05
      -2.21901191e-05 -2.21901191e-05 -2.98495725e-05 -1.40306406e-06
      -1.40306406e-06 -1.41543815e-05 -8.17903947e-06 -8.99035149e-06
      -7.52567712e-06 -7.80754126e-05 -7.24967103e-05 -7.24967103e-05
      -6.58940917e-05 -8.26956166e-05 1.41242681e-05 1.40663878e-05
      1.40663878e-05 8.09104586e-06 8.09104586e-06 -2.66655697e-05
      -2.66655697e-05 -2.66655697e-05 -2.66655697e-05 -4.96129678e-06
      -1.89052716e-05 -2.52370191e-05 -5.15071624e-05 -5.15071624e-05
      -5.15071624e-05 -4.40596195e-05 -4.70435916e-05 -4.45811274e-05
      -5.01096983e-05 -1.85239696e-05 -2.40525387e-05 -2.40525387e-05
      -2.40525387e-05 -2.40525387e-05 -2.12662235e-05 -2.92572549e-05
      -2.37286858e-05 -2.37286858e-05 -2.37286858e-05 -2.37286858e-05
      -2.05270189e-05 -2.00383038e-05 -9.34940817e-06 -1.44672131e-05
      5.36833249e-05 -1.44672131e-05 4.59230287e-05 2.43934883e-05
      1.89817856e-05 8.29289002e-06 -8.87567658e-05 8.38070409e-05
      3.84271916e-05 -5.38846180e-05 -4.25155558e-05 -4.25155558e-05
      -7.34940040e-05 -5.42486450e-05 -7.39824536e-05 -1.64978410e-05
      -4.56973466e-05 -8.50607321e-05 -6.10047864e-05 -4.92494873e-05
      1.13228789e-05 7.72838757e-06 -1.66070276e-05 -1.71841311e-04
      -1.57048649e-04 -5.84535519e-05 -1.18347358e-04 -1.04295323e-04
      4.99075250e-05 2.38802058e-05 3.34454526e-05 3.44336354e-06
      3.11451186e-05 5.72807494e-06 -7.31198234e-05 -6.22038788e-05
      -4.23748497e-05 -4.60929987e-05 -4.60929987e-05 -4.60929987e-05
      -2.62845551e-05 -2.62845551e-05 -3.75073687e-05 -4.27110572e-05
      -3.61663260e-05 -6.52513263e-05 -7.12266701e-05 -8.76782142e-05
      -8.24745293e-05 -8.24745293e-05 -8.24745293e-05 -8.27937038e-05
      -1.03559694e-04 -1.03559694e-04 -1.03346705e-04 -1.03346705e-04
      -1.03346705e-04 -7.42616976e-05 -7.42616976e-05 -4.10769026e-05
      -4.99835005e-05 -4.99835005e-05 -3.46624620e-05 -3.46624620e-05
      -6.37474659e-05 -6.37474659e-05 -6.37474659e-05 -6.64897161e-05
      -6.89521839e-05 -4.83690892e-05 -4.83690892e-05 -4.83690892e-05
      -4.83690892e-05 3.67513749e-05 4.28187959e-05 5.35076942e-05
      4.83898875e-05 4.83898875e-05 4.83898875e-05 2.01810544e-05
      4.45817641e-05 3.91700632e-05 3.98502270e-05 1.73961707e-05
      7.54235225e-05 -1.44752921e-05 -1.16327292e-05 2.50855760e-06
      2.02161227e-05 -1.07623273e-05 7.22733716e-07 -3.08858798e-05
      6.66340711e-05 -1.86725197e-06 -7.01953322e-05 -3.64208317e-05
      -2.90347216e-05 -3.56933233e-05 -1.82968179e-05 6.59802390e-05
      -6.78160359e-05 -9.86248124e-05 -3.24744201e-06 -2.27822948e-05
      -1.97262452e-05 -1.89001821e-05 -6.32567608e-05 -7.05124185e-05
      -1.91770159e-05 -3.84016994e-06 3.53337526e-07 3.53337526e-07
      3.53337526e-07 -4.57974608e-07 1.00669979e-06 1.19226470e-05
      1.76842077e-05 5.64928305e-05 4.55768823e-05 2.61356513e-06
      2.61356513e-06 9.15829878e-06 4.42362507e-05 4.88234473e-05
      4.88234473e-05 4.88234473e-05 5.44021495e-05 5.44021495e-05
      5.44021495e-05 1.55935286e-05 2.65094768e-05 -8.33893318e-06
      -3.98303491e-05 -3.98303491e-05 -3.98303491e-05 -1.39176391e-05
      2.76332357e-05 3.18170205e-05 3.00956999e-05 5.28637065e-05
      5.70130542e-05 5.70130542e-05 4.97973197e-05 5.48030184e-05
      5.42708003e-05 4.95983040e-05 4.95983040e-05 4.95983040e-05
      4.95983040e-05 5.18083398e-05 2.13085532e-05 2.17972683e-05
      3.24861649e-05 5.88597759e-05 2.73683600e-05 3.25720466e-05
      5.69727563e-05 5.69727563e-05 5.15610554e-05 1.29473929e-05
      4.80087911e-05 7.98849651e-05 6.44713946e-05 7.32635090e-05
      9.87312251e-06 3.61432685e-05 -2.80745303e-06 -5.21732545e-06
      8.75362275e-06 3.37366946e-05 -5.98851466e-06 -3.14681347e-05
      2.30636533e-06 3.86211905e-05 -5.89957526e-05 -3.07153932e-05
      7.69058533e-05 -6.24229142e-05 -1.12857415e-04 -1.74800480e-05
      -3.70148991e-05 9.71064310e-06 2.60707329e-05 -1.42428935e-05
      -1.42428935e-05 -1.24288617e-05 -4.75146953e-06 -4.75146953e-06
      -4.75146953e-06 8.35819355e-06 8.35819355e-06 9.01155545e-06
      9.01155545e-06 9.01155545e-06 1.95074404e-06 1.95074404e-06
      -1.48507761e-05 -1.48507761e-05 -8.30604222e-06 -7.49743094e-06
      -8.21054200e-05 -8.21054200e-05 -2.31105605e-05 -2.31105605e-05
      -1.75318546e-05 -1.75318546e-05 -1.75318546e-05 -1.75318546e-05
      -1.73188691e-05 -4.17195770e-05 -4.72982829e-05 -4.72982829e-05
      -1.36119570e-05 -9.14838438e-06 -6.68592202e-06 -6.68592202e-06
      -6.89890885e-06 -2.00085706e-05 -2.00085706e-05 -2.00085706e-05
      -6.89890885e-06 -6.89890885e-06 -1.13624819e-05 -1.38249443e-05
      -1.38249443e-05 -1.38249443e-05 -1.38249443e-05 -1.06232765e-05
      -1.23445961e-05 -1.65570032e-06 -6.77350545e-06 1.76272042e-05
      1.76272042e-05 1.76272042e-05 2.65433591e-05 1.12236621e-05
      -3.10024298e-05 -3.10024298e-05 2.09158534e-05 3.96810428e-05
      4.61017335e-05 -3.27461676e-05 -4.20230790e-05 -4.20230790e-05
      -1.52578659e-05 2.96574290e-05 7.10920431e-05 3.55333032e-05
      -2.87870298e-05 -5.57506746e-06 2.44399871e-05</_></support_vectors>
  <decision_functions>
    <_>
      <sv_count>1</sv_count>
      <rho>-3.1399145220907840e+00</rho>
      <alpha>
        1.</alpha>
      <index>
        0</index></_></decision_functions></my_svm>
</opencv_storage>
