<?xml version="1.0"?>
<opencv_storage>
<my_svm type_id="opencv-ml-svm">
  <svm_type>C_SVC</svm_type>
  <kernel><type>LINEAR</type></kernel>
  <C>1.</C>
  <term_criteria><epsilon>2.2204460492503131e-16</epsilon>
    <iterations>1000</iterations></term_criteria>
  <var_all>4235</var_all>
  <var_count>4235</var_count>
  <class_count>2</class_count>
  <class_labels type_id="opencv-matrix">
    <rows>1</rows>
    <cols>2</cols>
    <dt>i</dt>
    <data>
      -1 1</data></class_labels>
  <sv_total>1</sv_total>
  <support_vectors>
    <_>
      -3.40715487e-05 6.74621333e-05 4.24151476e-05 6.25746725e-06
      7.28516397e-06 -5.47417585e-06 6.04025399e-06 -3.31479278e-05
      -5.77785977e-05 -2.97294555e-05 3.83018742e-05 -6.53146117e-06
      7.19266291e-06 1.48471163e-05 1.48471163e-05 1.48471163e-05
      1.48471163e-05 8.71046814e-06 7.39091729e-06 -1.29605123e-05
      -2.06149653e-05 -2.06149653e-05 -3.40790098e-06 -6.46456283e-06
      -5.54336066e-06 -1.66137761e-05 -1.66137761e-05 -6.58771605e-05
      -6.58771605e-05 -5.48067437e-05 -5.48067437e-05 -5.30696343e-05
      -1.25794641e-05 -4.97900473e-05 -6.08604641e-05 -7.00888049e-05
      -5.15621869e-05 -5.15621869e-05 -5.07676996e-05 -3.78411278e-05
      -3.78411278e-05 -3.57494609e-05 -1.92646403e-05 -1.47224573e-05
      -2.32160273e-05 -3.61172679e-05 -3.61172679e-05 -1.34648275e-04
      -1.35046983e-04 -8.61673252e-05 -8.38821725e-05 -1.60773619e-04
      -5.03576266e-05 7.89342994e-06 7.86848250e-06 -5.84874397e-05
      1.35020964e-05 3.06838774e-05 1.67631460e-05 -2.81511984e-05
      -6.34624012e-05 1.08726817e-05 -1.31588067e-05 -1.39135418e-05
      -1.17055442e-05 4.58183604e-05 9.85024144e-07 9.85024144e-07
      1.44309543e-05 1.86796206e-05 3.27274611e-05 2.03166201e-05
      2.01489493e-05 9.64152423e-06 9.64152423e-06 -3.80440611e-06
      -1.40753727e-05 2.36310570e-05 4.15006156e-07 4.15006156e-07
      2.86924860e-05 1.62816450e-05 1.62816450e-05 1.62816450e-05
      5.69625581e-06 -1.26771511e-05 -1.26771511e-05 -1.02425508e-06
      -1.02425508e-06 -1.75090754e-05 -3.68062356e-05 -3.68062356e-05
      -4.32598536e-05 -1.70032181e-05 1.18924427e-05 2.99645762e-05
      3.20562431e-05 3.20562431e-05 5.16991604e-05 3.77395081e-05
      4.87495818e-05 2.89494947e-05 -2.13509393e-05 -1.65634738e-05
      -5.11936469e-06 -1.25850765e-05 -3.76961871e-05 2.93715948e-05
      4.70431078e-05 2.74019676e-05 -8.90291412e-05 -2.01307303e-05
      2.70558176e-05 -5.07889818e-05 -2.72437355e-05 -2.58678956e-05
      -7.27240240e-06 -3.40855440e-05 4.90730599e-06 1.47924675e-05
      3.24204234e-06 7.21317156e-06 7.21317156e-06 7.21317156e-06
      7.21317156e-06 -2.66066081e-06 -2.66066081e-06 -2.66066081e-06
      -2.66066081e-06 -2.66066081e-06 -1.15788562e-05 1.46808543e-05
      -3.74761203e-06 9.69831763e-06 7.60665080e-06 -2.86198792e-06
      -2.86198792e-06 -2.86198792e-06 7.11685470e-06 -5.29398631e-06
      -5.29398631e-06 -5.29398631e-06 -5.29398631e-06 -5.29398631e-06
      7.11685470e-06 -6.32907495e-06 -6.32907495e-06 -6.32907495e-06
      -2.68218537e-06 -6.32907495e-06 1.60302716e-05 2.22272593e-05
      2.22272593e-05 2.22272593e-05 4.86288918e-05 4.86288918e-05
      -6.60048954e-06 1.43691805e-05 -1.77759848e-05 -1.77860220e-05
      1.14771237e-05 -9.02528791e-06 3.97780605e-06 4.13234411e-05
      1.12904117e-05 -1.34839545e-04 -7.54495559e-05 -1.01035956e-04
      -8.40715729e-05 -8.92565804e-05 -1.77560341e-05 -6.35208344e-05
      -6.00085914e-05 6.08488563e-06 -2.01814260e-06 3.52264396e-06
      -4.29953725e-05 -4.29953725e-05 -4.29953725e-05 -3.35503719e-05
      -3.90911591e-05 1.55173620e-05 2.25576946e-06 -6.17214846e-06
      -5.98475053e-05 -5.43067181e-05 -5.13913328e-05 -7.82657880e-05
      -1.64069297e-05 -3.38363789e-05 -3.38363789e-05 -4.12940208e-05
      -4.12940208e-05 -5.52313250e-05 -5.52313250e-05 -5.52313250e-05
      -7.03002297e-05 -6.51967348e-05 -2.80549739e-05 -1.88532449e-05
      -1.88532449e-05 -1.88532449e-05 -5.82233952e-06 -2.32517887e-05
      -1.35919308e-05 -5.11004437e-05 1.75951918e-05 5.49614851e-05
      4.51929009e-05 5.39070097e-05 5.74474252e-05 2.99768158e-06
      2.26693719e-05 -9.57104203e-06 7.30959709e-06 2.82075689e-05
      1.85894478e-05 6.80598123e-06 3.08133349e-05 -7.99769077e-06
      -1.39213851e-04 -1.26223431e-05 -4.37145463e-05 -3.90662717e-05
      -7.89897531e-05 -2.56419662e-06 -8.75651094e-05 -4.36603550e-05
      -5.73734360e-05 1.16296496e-06 -5.21717482e-07 2.09073296e-05
      -3.25876208e-05 -3.25876208e-05 -3.25876208e-05 -6.87397915e-05
      -7.05382336e-05 -8.88116119e-05 -8.88116119e-05 -9.50525864e-05
      -9.56000731e-05 -7.30288011e-05 -6.61478043e-05 -6.06070171e-05
      -6.06070171e-05 -5.43660390e-05 -5.43660390e-05 -6.50955844e-05
      -7.06363717e-05 -7.30042739e-05 -8.66636765e-05 -7.04152699e-05
      -5.29858189e-05 -5.92267934e-05 -5.63114118e-05 -1.46629282e-05
      5.00062197e-06 1.12415983e-05 1.30400431e-05 3.80133170e-05
      4.34806425e-05 7.14542766e-05 1.62248962e-05 2.17656834e-05
      -1.96488400e-05 -2.78149014e-06 -2.78149014e-06 -9.33461251e-06
      -7.75509307e-06 -1.84201417e-05 -2.96750363e-06 -9.37344248e-06
      -2.31495014e-05 1.37307861e-05 6.43144740e-05 -5.77708488e-05
      -3.04122423e-05 -2.45373958e-05 -2.56970288e-05 -1.12056223e-04
      3.43524807e-05 -2.86750455e-05 -3.78193108e-05 -3.03176671e-06
      -2.36158030e-06 -4.21393361e-06 6.20228529e-05 7.88902034e-05
      7.88902034e-05 7.88902034e-05 7.88902034e-05 7.58335445e-05
      1.10297988e-05 -5.83755173e-06 1.13051774e-05 2.53196254e-06
      2.53196254e-06 3.49412198e-06 -5.99035502e-06 -5.99035502e-06
      -6.68850407e-06 -1.29166747e-05 -1.48435583e-05 -1.48435583e-05
      -3.17109079e-05 -3.85919084e-05 -3.85919084e-05 -1.45076174e-05
      -3.51166382e-05 -4.41575939e-05 -4.07730477e-05 -4.93976368e-05
      -8.77773418e-05 -7.80573100e-05 -7.50006511e-05 -7.24077181e-05
      -7.32022017e-05 -7.32022017e-05 -4.57901770e-05 -4.55147965e-05
      -1.89208113e-05 -3.59181395e-05 -5.55412335e-05 -2.04010712e-06
      -2.39245564e-05 -3.17228623e-05 -1.96893216e-05 9.50131562e-06
      5.09799393e-05 6.54121832e-05 -3.37271449e-05 -3.37709025e-05
      -4.91445280e-05 -6.51334412e-05 -8.44574315e-05 1.58975199e-05
      -4.72079819e-06 4.91180981e-05 6.62746461e-05 5.81716195e-05
      5.84132540e-05 5.84132540e-05 2.58988857e-05 2.58988857e-05
      1.46710754e-05 3.87073051e-05 2.69555712e-05 2.04990265e-05
      2.77531562e-05 2.61253772e-05 2.61253772e-05 3.13398305e-05
      1.87123715e-05 7.69220333e-06 4.80163544e-05 3.33830030e-05
      3.33830030e-05 2.69264565e-05 -2.69292123e-05 -1.64784087e-05
      -5.35349454e-06 -1.71052270e-05 -5.15091051e-05 -1.22563884e-04
      -1.02752339e-04 -5.99459527e-05 -9.20880921e-05 -1.24602462e-04
      -1.24602462e-04 -1.12850736e-04 -9.76209703e-05 -1.15829251e-04
      -1.03606988e-04 -1.05933439e-04 -3.25714755e-05 -1.01633368e-05
      -9.88795910e-06 2.14138108e-05 6.53690804e-05 7.40752293e-05
      1.92921489e-05 5.72562458e-05 5.15167922e-05 9.66486259e-05
      8.48205673e-05 -1.04781811e-05 -3.27031958e-05 1.62423876e-05
      9.72549060e-06 -3.80461061e-05 5.71226847e-05 3.81784375e-05
      6.59964353e-05 5.29902609e-05 5.65401315e-05 -2.21308273e-05
      -3.07504961e-05 -3.07504961e-05 -3.07504961e-05 -3.46959132e-05
      -3.46959132e-05 -3.46959132e-05 -4.64476434e-05 -4.64476434e-05
      -4.64476434e-05 -4.64476434e-05 -4.64476434e-05 -5.91589560e-05
      -4.65938720e-05 -5.81005406e-05 -5.81005406e-05 -4.63488104e-05
      -4.63488104e-05 -4.63488104e-05 -3.78407676e-05 -3.78871446e-05
      2.94696133e-06 2.37759741e-06 2.37759741e-06 2.37759741e-06
      -2.91758852e-06 -4.06196305e-05 -4.00502649e-05 -4.00502649e-05
      -4.00502649e-05 -2.83973695e-05 -1.58322855e-05 -5.32485910e-06
      -1.70765907e-05 -5.32485910e-06 1.48289855e-05 4.10652183e-06
      -1.36572462e-05 -3.69811755e-06 -2.35893185e-05 -4.21419318e-05
      -6.40259213e-06 -3.45196204e-05 1.33704925e-05 9.35576554e-06
      -8.24611780e-05 4.38578536e-05 8.02568320e-05 2.61964942e-05
      -3.03587822e-05 8.08101249e-05 6.18658742e-05 1.16558323e-04
      1.15205054e-04 1.05417341e-04 7.26839789e-05 4.23573038e-05
      -1.28720803e-05 -1.28720803e-05 -1.28720803e-05 -1.28720803e-05
      -1.28720803e-05 -1.28720803e-05 -1.28720803e-05 -2.46238124e-05
      -3.51312374e-05 -3.85500498e-05 -2.06028562e-05 -3.76189382e-05
      -5.03227275e-05 -5.03227275e-05 -5.24143943e-05 -5.24143943e-05
      -5.24143943e-05 -1.15802886e-05 -3.84547420e-05 -3.84547420e-05
      -3.84547420e-05 1.67746421e-05 1.67746421e-05 1.67746421e-05
      4.36490955e-05 1.67746421e-05 -3.84547420e-05 -3.63630752e-05
      -3.63630752e-05 1.01880426e-06 4.43761610e-06 4.43761610e-06
      -3.63964900e-05 -1.39883532e-05 -3.67756093e-06 -8.91266154e-06
      9.70808105e-06 -2.95296577e-05 -3.68382607e-05 -3.96944561e-05
      -4.25564540e-05 -5.63197900e-05 -7.77515888e-05 1.25893484e-05
      3.83574879e-05 5.46407537e-05 -1.90279425e-05 -5.38831919e-05
      5.78550789e-05 3.35182885e-05 5.87629620e-05 6.23922242e-05
      1.12044014e-04 7.58918468e-05 7.58918468e-05 3.10585092e-05
      -2.41708749e-05 -2.41708749e-05 -4.00251593e-05 -4.00251593e-05
      -4.00251593e-05 -4.00251593e-05 -4.00251593e-05 -5.86639726e-05
      -5.86639726e-05 -6.20827850e-05 -8.82422569e-07 -8.82422569e-07
      -2.97408974e-06 -2.97408974e-06 -2.98485411e-05 -7.46818769e-05
      -6.41744482e-05 -7.46818769e-05 -1.94524946e-05 -1.94524946e-05
      2.53808412e-05 2.53808412e-05 2.53808412e-05 2.53808412e-05
      2.53808412e-05 2.53808412e-05 2.53808412e-05 4.13987473e-05
      6.00375606e-05 8.69120122e-05 1.44435908e-04 1.04445615e-04
      1.09837674e-04 -1.12568569e-05 3.17601880e-05 5.03809315e-05
      1.11431937e-05 7.48148113e-06 -7.53086306e-06 -1.29037717e-05
      -4.38741699e-05 -4.77508111e-05 3.23283166e-05 1.33236363e-05
      4.48783176e-05 -5.18628913e-05 -3.14113895e-05 2.44733801e-05
      2.01977127e-05 4.39103896e-05 6.64131803e-05 8.07528049e-05
      -1.66974114e-05 -1.66974114e-05 4.08264932e-05 3.87348264e-05
      4.08264932e-05 2.77924137e-05 8.04092997e-05 8.04092997e-05
      8.04092997e-05 8.04092997e-05 7.86108503e-05 -6.59282068e-06
      -6.59282068e-06 -6.59282068e-06 -4.74363987e-05 -4.74363987e-05
      -4.74363987e-05 -5.84565641e-05 -5.84565641e-05 -5.22283954e-05
      -4.39619143e-05 -4.39619143e-05 -5.44693394e-05 -5.44693394e-05
      -5.44693394e-05 -4.54283836e-05 8.71422571e-07 8.71422571e-07
      5.06434990e-05 1.95102348e-05 9.53402468e-06 -2.32314324e-05
      6.29653659e-05 6.29653659e-05 7.02078760e-05 4.62411226e-05
      -2.17763727e-06 4.57781498e-05 7.20288590e-05 -1.46176699e-05
      -8.61514218e-06 -2.93494268e-05 -2.62453450e-05 -7.39251700e-05
      -1.01434365e-04 3.47550886e-05 1.57504091e-05 1.54786594e-05
      -4.94361157e-05 -3.83990955e-05 8.81942397e-05 -1.96021066e-08
      4.20127435e-05 8.70513541e-05 2.20373367e-05 8.44999813e-05
      9.97251991e-05 8.27091208e-05 7.00053279e-05 7.00053279e-05
      7.00053279e-05 7.20969983e-05 1.03444218e-04 1.03444218e-04
      1.03444218e-04 3.82600156e-05 3.82600156e-05 2.92190598e-05
      2.79346864e-06 -5.27466109e-05 -1.02518687e-04 -1.02518687e-04
      -4.99018061e-05 -4.99018061e-05 -4.99018061e-05 7.62209856e-06
      -4.08608503e-05 -4.28446729e-05 -4.12389854e-05 6.98271760e-05
      8.53309029e-06 8.53309029e-06 3.49586808e-05 8.53309029e-06
      8.53309029e-06 -2.79649703e-05 3.85998865e-05 -1.40169941e-05
      2.43794693e-05 7.41515469e-05 -1.11092986e-05 6.25150860e-05
      -1.38099231e-05 -2.30257592e-05 -5.26577023e-05 5.96170776e-06
      -3.31974370e-05 -7.74136151e-06 -1.82039457e-05 -5.24833740e-05
      1.11935587e-05 -1.23251421e-05 1.23763821e-05 1.70088806e-05
      -5.09099227e-05 -6.79690856e-05 -1.88378681e-06 3.11076037e-05
      4.97206202e-05 1.60709387e-05 7.35948415e-05 7.35948415e-05
      7.35948415e-05 7.35948415e-05 4.47235507e-05 4.47235507e-05
      4.47235507e-05 4.47235507e-05 4.47235507e-05 7.60707699e-05
      7.60707699e-05 1.47766787e-05 1.47766787e-05 1.47766787e-05
      -2.06898676e-05 -5.20370850e-05 -5.20370850e-05 -9.27682049e-05
      -9.27682049e-05 -9.27682049e-05 1.82979584e-05 1.82979584e-05
      1.82979584e-05 4.82667347e-05 3.12506527e-05 1.85468634e-05
      1.67484177e-05 4.29251049e-05 4.47235507e-05 -4.90849088e-05
      1.43008465e-05 1.43008465e-05 -1.21247449e-05 4.11752990e-05
      4.11752990e-05 1.72085420e-05 3.30601215e-05 -7.32117624e-05
      1.43330362e-05 -2.25414169e-05 -4.33800597e-05 -1.21390978e-04
      -3.51619661e-07 1.43039657e-07 -6.27158515e-05 7.83475753e-06
      -1.33268677e-05 1.43602065e-05 1.89927068e-05 -4.46689446e-05
      -6.67499762e-06 1.34955590e-05 3.11076037e-05 1.72647208e-06
      -4.53147259e-05 1.22091787e-05 1.22091787e-05 1.22091787e-05
      1.22091787e-05 1.22091787e-05 1.22091787e-05 1.22091787e-05
      4.47235507e-05 4.47235507e-05 4.47235507e-05 4.47235507e-05
      4.47235507e-05 4.47235507e-05 -1.65705387e-05 -1.65705387e-05
      -1.65705387e-05 1.82979584e-05 1.82979584e-05 1.82979584e-05
      4.47235507e-05 4.47235507e-05 4.47235507e-05 4.47235507e-05
      4.47235507e-05 4.47235507e-05 4.47235507e-05 4.47235507e-05
      4.47235507e-05 3.58951138e-06 3.58951138e-06 5.68117866e-06
      5.68117866e-06 5.68117866e-06 3.25556284e-05 3.25556284e-05
      8.58887506e-06 2.44404528e-05 -3.26052177e-05 5.71336886e-06
      -3.11610856e-05 -2.55741361e-05 -6.00968924e-05 3.48846443e-05
      1.43039657e-07 -3.57208992e-05 9.23333937e-06 -1.60924174e-05
      5.58699230e-06 1.89927068e-05 1.28549582e-05 -6.67499762e-06
      -1.54783957e-05 -1.47455912e-05 2.61250534e-06 -5.39343928e-05
      3.58951138e-06 3.58951138e-06 3.58951138e-06 3.58951138e-06
      3.58951138e-06 3.58951138e-06 1.22091787e-05 1.22091787e-05
      1.22091787e-05 1.22091787e-05 4.47235507e-05 4.47235507e-05
      4.47235507e-05 4.47235507e-05 4.47235507e-05 4.47235507e-05
      1.22091787e-05 4.47235507e-05 4.47235507e-05 4.47235507e-05
      4.47235507e-05 4.47235507e-05 4.47235507e-05 4.47235507e-05
      4.47235507e-05 4.47235507e-05 4.47235507e-05 3.58951138e-06
      3.58951138e-06 3.58951138e-06 5.68117866e-06 5.68117866e-06
      5.68117866e-06 3.25556284e-05 3.25556284e-05 8.58887506e-06
      2.44404528e-05 -3.26052177e-05 5.71336886e-06 -3.11610856e-05
      -2.55741361e-05 -6.87165593e-05 -4.90794555e-05 -3.64800530e-06
      -3.57208992e-05 9.81858193e-06 -2.09960217e-05 -6.97809264e-06
      6.89699082e-05 2.38751254e-05 -1.52946650e-05 -2.88172196e-05
      -3.58453945e-05 2.61250534e-06 -5.39343928e-05 3.58951138e-06
      3.58951138e-06 3.58951138e-06 1.46096791e-05 1.46096791e-05
      1.46096791e-05 1.46096791e-05 1.46096791e-05 1.46096791e-05
      2.32293460e-05 2.32293460e-05 2.32293460e-05 2.32293460e-05
      2.32293460e-05 2.32293460e-05 1.46096791e-05 2.32293460e-05
      2.32293460e-05 2.32293460e-05 5.57437161e-05 5.57437161e-05
      5.57437161e-05 5.57437161e-05 2.32293460e-05 2.32293460e-05
      2.32293460e-05 1.46096791e-05 1.46096791e-05 1.46096791e-05
      1.46096791e-05 1.67013459e-05 1.67013459e-05 1.67013459e-05
      4.35757975e-05 4.35757975e-05 8.58887506e-06 2.47158314e-05
      -3.26052177e-05 5.71336886e-06 -3.11610856e-05 -4.24414866e-05
      -6.35304023e-05 -4.90794555e-05 -3.64800530e-06 -4.57529204e-05
      8.21289450e-06 -2.09960217e-05 -6.97809264e-06 6.89699082e-05
      -2.87417570e-05 -4.27449822e-06 -1.97808768e-05 -5.73381249e-06
      1.16488482e-05 1.26258547e-05 1.26258547e-05 1.26258547e-05
      1.26258547e-05 1.26258547e-05 1.26258547e-05 1.26258547e-05
      1.26258547e-05 1.46096791e-05 1.46096791e-05 1.46096791e-05
      1.46096791e-05 1.46096791e-05 1.46096791e-05 1.46096791e-05
      1.46096791e-05 1.46096791e-05 1.46096791e-05 1.46096791e-05
      2.32293460e-05 2.32293460e-05 2.32293460e-05 2.32293460e-05
      1.46096791e-05 1.46096791e-05 1.46096791e-05 1.46096791e-05
      1.46096791e-05 1.46096791e-05 1.46096791e-05 1.46096791e-05
      1.47175215e-05 1.47175215e-05 1.47175215e-05 4.15919712e-05
      4.15919712e-05 2.79360102e-05 3.57359968e-05 -2.35688749e-05
      1.47497121e-05 1.87093647e-05 -3.34051438e-05 -5.25102332e-05
      -3.50026276e-05 -3.64800530e-06 -3.43605461e-05 -2.07610610e-05
      -7.41512167e-06 -3.88335211e-05 8.20039859e-05 -2.87417570e-05
      -6.25832263e-06 -1.97808768e-05 -5.73381249e-06 1.16488482e-05
      2.91733377e-05 1.26258547e-05 1.26258547e-05 1.10201672e-05
      1.10201672e-05 1.10201672e-05 1.10201672e-05 1.10201672e-05
      1.10201672e-05 1.10201672e-05 1.30039916e-05 1.30039916e-05
      1.30039916e-05 1.30039916e-05 1.30039916e-05 1.30039916e-05
      1.10201672e-05 1.10201672e-05 1.10201672e-05 1.10201672e-05
      1.10201672e-05 1.10201672e-05 1.10201672e-05 1.10201672e-05
      1.30039916e-05 1.30039916e-05 1.30039916e-05 1.30039916e-05
      1.10201672e-05 1.10201672e-05 1.10201672e-05 1.31118341e-05
      1.31118341e-05 1.31118341e-05 3.99862874e-05 3.99862874e-05
      2.63303227e-05 3.00548199e-05 -2.51745623e-05 1.31440247e-05
      1.71036772e-05 -3.50108312e-05 -8.70360907e-07 -3.66083150e-05
      2.33558385e-05 -1.97599056e-05 -2.07610610e-05 -1.08346721e-05
      -3.58783836e-05 1.11636473e-05 -2.87417570e-05 -2.67176219e-05
      -1.85352819e-05 -3.75301670e-06 1.00431616e-05 2.75676521e-05
      2.75676521e-05 2.75676521e-05 2.75676521e-05 2.75676521e-05
      2.75676521e-05 2.75676521e-05 2.75676521e-05 2.75676521e-05
      2.75676521e-05 2.75676521e-05 2.75676521e-05 2.75676521e-05
      2.75676521e-05 1.10201672e-05 1.10201672e-05 1.10201672e-05
      1.10201672e-05 1.10201672e-05 1.10201672e-05 1.10201672e-05
      1.10201672e-05 1.10201672e-05 1.10201672e-05 1.10201672e-05
      1.10201672e-05 1.10201672e-05 1.10201672e-05 1.10201672e-05
      1.10201672e-05 1.10201672e-05 1.31118341e-05 1.31118341e-05
      1.31118341e-05 3.99862874e-05 3.99862874e-05 2.63303227e-05
      3.00548199e-05 -2.51745623e-05 1.31440247e-05 1.71036772e-05
      -3.04608166e-05 -8.70360907e-07 -3.66083150e-05 5.72248655e-06
      -1.97599056e-05 -2.40763293e-05 1.75143987e-06 1.43312091e-05
      -6.63329558e-07 -2.87417570e-05 -5.92319921e-05 1.03530738e-07
      -4.44215084e-06 2.59285207e-05 3.04189325e-05 3.04189325e-05
      3.04189325e-05 3.04189325e-05 3.04189325e-05 3.04189325e-05
      2.75676521e-05 2.75676521e-05 2.75676521e-05 2.75676521e-05
      2.75676521e-05 2.75676521e-05 2.75676521e-05 2.75676521e-05
      2.75676521e-05 2.75676521e-05 2.75676521e-05 2.75676521e-05
      2.75676521e-05 3.04189325e-05 3.04189325e-05 3.04189325e-05
      3.04189325e-05 3.04189325e-05 2.75676521e-05 2.75676521e-05
      2.75676521e-05 2.75676521e-05 2.75676521e-05 2.75676521e-05
      2.75676521e-05 2.96593189e-05 2.96593189e-05 2.96593189e-05
      2.96593189e-05 5.65337687e-05 4.28778076e-05 4.66023048e-05
      -7.21340075e-06 3.33524513e-05 1.71036772e-05 -3.04608166e-05
      -8.70360907e-07 -3.85921376e-05 5.72248655e-06 -2.49460645e-05
      -2.40763293e-05 1.61646960e-06 7.50945992e-06 -4.08214146e-06
      -3.73614239e-05 -6.08376795e-05 -2.54481693e-05 -1.20966042e-05
      2.64412683e-05 3.04189325e-05 3.04189325e-05 3.04189325e-05
      3.04189325e-05 3.04189325e-05 3.04189325e-05 3.04189325e-05
      3.04189325e-05 3.04189325e-05 3.04189325e-05 3.04189325e-05
      3.04189325e-05 3.04189325e-05 3.04189325e-05 3.04189325e-05
      3.04189325e-05 3.04189325e-05 3.04189325e-05 3.04189325e-05
      3.04189325e-05 3.04189325e-05 3.04189325e-05 3.04189325e-05
      3.04189325e-05 3.04189325e-05 3.04189325e-05 3.04189325e-05
      3.04189325e-05 3.04189325e-05 3.04189325e-05 3.04189325e-05
      3.25106012e-05 3.25106012e-05 3.25106012e-05 3.25106012e-05
      5.93850527e-05 4.36374212e-05 5.08672638e-05 -4.36211940e-06
      3.62037317e-05 4.78948168e-05 -1.10620513e-05 1.70759085e-05
      -2.22500348e-05 2.51212514e-05 -5.54729968e-06 -1.92888638e-05
      6.40393455e-06 -6.34188791e-06 -1.67452563e-05 -1.21445082e-04
      -5.60502122e-05 -2.06607037e-05 8.11622431e-06 3.12287339e-05
      3.68910805e-05 3.52063980e-05 3.52063980e-05 3.52063980e-05
      3.52063980e-05 3.52063980e-05 3.52063980e-05 3.52063980e-05
      3.52063980e-05 3.52063980e-05 3.52063980e-05 3.52063980e-05
      3.52063980e-05 3.52063980e-05 3.52063980e-05 3.52063980e-05
      3.52063980e-05 3.52063980e-05 3.52063980e-05 3.52063980e-05
      3.52063980e-05 3.52063980e-05 3.52063980e-05 3.52063980e-05
      3.52063980e-05 3.52063980e-05 3.52063980e-05 3.52063980e-05
      3.52063980e-05 3.52063980e-05 3.52063980e-05 3.72980649e-05
      3.72980649e-05 3.72980649e-05 3.25106012e-05 6.41725128e-05
      4.36374212e-05 5.08672638e-05 -4.36211940e-06 3.48433787e-05
      5.97028993e-05 -1.10620513e-05 1.70759085e-05 -2.22500348e-05
      3.65136257e-05 -1.03112870e-05 -3.71340393e-05 -3.13651035e-05
      -1.96651181e-05 -1.67452563e-05 -1.21445082e-04 -5.60502122e-05
      -2.06607037e-05 1.51268987e-05 3.71106617e-05 2.03435957e-05
      1.86589132e-05 7.63874596e-06 7.63874596e-06 7.63874596e-06
      7.63874596e-06 2.41862308e-05 2.41862308e-05 2.41862308e-05
      2.41862308e-05 2.41862308e-05 2.41862308e-05 2.41862308e-05
      2.41862308e-05 2.41862308e-05 2.41862308e-05 2.41862308e-05
      2.41862308e-05 2.41862308e-05 2.41862308e-05 2.41862308e-05
      2.41862308e-05 2.41862308e-05 2.41862308e-05 2.41862308e-05
      2.41862308e-05 2.41862308e-05 2.41862308e-05 2.41862308e-05
      2.41862308e-05 2.41862308e-05 2.62778976e-05 2.62778976e-05
      2.62778976e-05 3.72980649e-05 6.41725128e-05 4.84248849e-05
      5.56547275e-05 4.25345775e-07 5.77218743e-05 5.97028993e-05
      -6.27458621e-06 1.70759085e-05 -1.08576596e-05 5.16640876e-06
      -1.03112870e-05 -6.79003788e-05 -4.85457967e-05 -1.96651181e-05
      -6.23783080e-06 -1.04590792e-04 -5.60502122e-05 -2.06607037e-05
      -1.42058536e-06 2.05631768e-05 5.13575251e-05 1.35206737e-05
      1.35206737e-05 1.35206737e-05 1.35206737e-05 1.35206737e-05
      1.35206737e-05 1.35206737e-05 1.35206737e-05 1.35206737e-05
      1.35206737e-05 1.78415357e-05 1.78415357e-05 1.19596079e-05
      1.19596079e-05 1.19596079e-05 1.19596079e-05 1.19596079e-05
      1.19596079e-05 2.41862308e-05 2.41862308e-05 2.41862308e-05
      2.41862308e-05 2.85070928e-05 2.85070928e-05 2.85070928e-05
      2.85070928e-05 2.85070928e-05 2.41862308e-05 2.41862308e-05
      2.41862308e-05 2.62778976e-05 2.62778976e-05 2.62778976e-05
      5.31523474e-05 1.23182426e-05 2.05373672e-05 4.46345621e-05
      -1.05948211e-05 4.67017053e-05 4.86827303e-05 -1.72947530e-05
      8.69582323e-07 -2.18778277e-05 1.13533060e-05 -2.13314543e-05
      -3.37803249e-05 -4.85457967e-05 -1.96651181e-05 -6.23783080e-06
      -1.04590792e-04 -5.60502122e-05 -2.78707466e-05 -1.42058536e-06
      9.54300958e-06 5.13575251e-05 1.35206737e-05 1.35206737e-05
      1.35206737e-05 1.35206737e-05 1.35206737e-05 1.35206737e-05
      1.35206737e-05 1.78415357e-05 2.11454280e-05 2.11454280e-05
      2.11454280e-05 2.11454280e-05 2.11454280e-05 2.11454280e-05
      2.11454280e-05 2.11454280e-05 1.35206737e-05 1.35206737e-05
      1.78415357e-05 1.78415357e-05 2.11454280e-05 2.11454280e-05
      2.11454280e-05 2.11454280e-05 2.11454280e-05 1.78415357e-05
      1.78415357e-05 1.78415357e-05 1.78415357e-05 1.78415357e-05
      1.56123406e-05 1.56123406e-05 3.21598236e-05 4.24867940e-05
      1.65268659e-06 2.64192950e-05 -4.71289377e-06 -4.71289377e-06
      4.67017053e-05 4.86827303e-05 -1.72947530e-05 8.69582323e-07
      -2.89493400e-05 -5.19417836e-06 -2.06718742e-05 -3.36126541e-05
      -4.85457967e-05 -1.96651181e-05 -2.97793340e-05 -4.37630006e-05
      -5.60502122e-05 -2.78707466e-05 2.90027674e-06 1.38638716e-05
      6.58611825e-05 1.49902544e-05 1.49902544e-05 1.49902544e-05
      1.49902544e-05 1.49902544e-05 1.82941476e-05 1.82941476e-05
      1.82941476e-05 1.82941476e-05 1.82941476e-05 1.82941476e-05
      1.82941476e-05 1.82941476e-05 1.82941476e-05 1.49902544e-05
      1.49902544e-05 1.82941476e-05 1.82941476e-05 2.11454280e-05
      2.11454280e-05 2.11454280e-05 2.11454280e-05 2.11454280e-05
      2.11454280e-05 2.11454280e-05 2.11454280e-05 2.11454280e-05
      2.11454280e-05 1.78415357e-05 1.78415357e-05 1.70819221e-05
      1.70819221e-05 1.70819221e-05 4.39563737e-05 3.12226734e-06
      1.13413926e-05 -2.00661743e-05 -4.87163788e-06 4.03570120e-05
      4.23380370e-05 -2.03355557e-05 -4.30876889e-06 -5.56150117e-05
      -1.18837625e-06 -3.34287579e-05 -1.42765512e-05 -4.08913402e-05
      -1.96651181e-05 -2.93637531e-05 -4.58787290e-05 -5.07250552e-05
      -1.24983781e-05 6.61974900e-06 1.43164825e-05 6.96778225e-05
      1.82941476e-05 1.82941476e-05 1.82941476e-05 1.82941476e-05
      1.82941476e-05 1.82941476e-05 1.82941476e-05 1.82941476e-05
      1.82941476e-05 1.82941476e-05 1.82941476e-05 1.82941476e-05
      1.82941476e-05 1.82941476e-05 1.82941476e-05 1.82941476e-05
      1.82941476e-05 1.82941476e-05 1.82941476e-05 1.82941476e-05
      1.82941476e-05 1.82941476e-05 1.82941476e-05 1.82941476e-05
      1.82941476e-05 1.82941476e-05 1.82941476e-05 1.82941476e-05
      1.82941476e-05 1.82941476e-05 2.03858144e-05 2.03858144e-05
      2.03858144e-05 4.72602660e-05 6.42615987e-06 4.33449259e-06
      -4.69440465e-06 2.60158936e-06 4.08096239e-05 4.27906489e-05
      -6.31948569e-06 -1.09306193e-05 -5.66678464e-05 2.73075602e-05
      -3.62800420e-05 -1.86484358e-05 -2.27504170e-05 -6.63708634e-05
      -8.10717538e-05 -1.08190099e-04 -5.55125189e-05 -1.72858436e-05
      1.83228394e-06 3.29339637e-05 5.94240119e-05 8.55308190e-06
      8.55308190e-06 8.55308190e-06 8.55308190e-06 1.44350097e-05
      1.44350097e-05 1.44350097e-05 1.44350097e-05 1.44350097e-05
      1.44350097e-05 1.44350097e-05 1.44350097e-05 1.44350097e-05
      1.39222620e-05 1.39222620e-05 1.39222620e-05 1.39222620e-05
      1.39222620e-05 1.39222620e-05 1.39222620e-05 1.39222620e-05
      1.39222620e-05 1.39222620e-05 1.39222620e-05 1.39222620e-05
      1.39222620e-05 1.39222620e-05 1.39222620e-05 1.35066821e-05
      1.35066821e-05 1.55983489e-05 1.55983489e-05 1.55983489e-05
      4.24728023e-05 1.63869458e-06 -4.52972614e-07 -9.48186971e-06
      -2.18587593e-06 3.60221602e-05 4.27906489e-05 -5.90390573e-06
      1.11228910e-05 -5.11270628e-05 3.08645212e-05 -2.37186377e-05
      -4.58294562e-05 -3.32578420e-05 -6.63708634e-05 -8.21301728e-05
      -1.08190099e-04 -5.55125189e-05 -1.97489589e-05 -4.04964385e-06
      3.99446362e-05 5.94240119e-05 8.55308190e-06 8.55308190e-06
      8.55308190e-06 8.55308190e-06 8.55308190e-06 8.55308190e-06
      8.55308190e-06 8.55308190e-06 8.55308190e-06 8.55308190e-06
      8.55308190e-06 8.55308190e-06 8.55308190e-06 8.55308190e-06
      8.55308190e-06 8.55308190e-06 8.55308190e-06 1.44350097e-05
      1.44350097e-05 1.44350097e-05 1.44350097e-05 1.44350097e-05
      1.44350097e-05 1.44350097e-05 1.44350097e-05 1.44350097e-05
      1.44350097e-05 1.44350097e-05 1.44350097e-05 1.44350097e-05
      1.44350097e-05 1.65266774e-05 1.65266774e-05 4.34011272e-05
      2.56702242e-06 4.75355307e-07 -8.55354210e-06 -1.25754798e-06
      3.69504851e-05 3.18138555e-05 -5.90390573e-06 1.11228910e-05
      -3.42597123e-05 3.63394975e-05 -1.82436615e-05 -3.83985862e-05
      -2.70712790e-05 -3.88362932e-05 -1.30940854e-04 -5.98940751e-05
      -4.70764971e-05 -1.93506658e-05 -7.36878064e-06 3.56237761e-05
      6.21138242e-05 1.12428952e-05 1.55637572e-05 1.55637572e-05
      1.55637572e-05 1.55637572e-05 1.55637572e-05 1.55637572e-05
      1.55637572e-05 1.55637572e-05 1.55637572e-05 1.55637572e-05
      1.55637572e-05 8.55308190e-06 8.55308190e-06 8.55308190e-06
      8.55308190e-06 8.55308190e-06 8.55308190e-06 8.55308190e-06
      8.55308190e-06 8.55308190e-06 4.23222036e-06 4.23222036e-06
      4.23222036e-06 4.23222036e-06 4.23222036e-06 4.23222036e-06
      8.55308190e-06 8.55308190e-06 8.55308190e-06 8.55308190e-06
      1.65266774e-05 1.06447496e-05 3.75191994e-05 2.56702242e-06
      4.75355307e-07 -8.55354210e-06 -1.25754798e-06 3.69504851e-05
      3.23266031e-05 -5.39115808e-06 1.16356387e-05 -3.96288924e-05
      3.71673050e-05 -2.36128417e-05 -9.18017577e-07 -9.60068246e-06
      -8.77754792e-05 -1.34244750e-04 -6.94389455e-05 -5.03803894e-05
      -3.14714707e-05 -9.36938306e-07 4.30573418e-05 6.78347060e-05
      1.69637751e-05 1.69637751e-05 1.69637751e-05 1.69637751e-05
      1.69637751e-05 1.22446199e-05 1.12428952e-05 1.12428952e-05
      1.12428952e-05 1.12428952e-05 1.60068830e-05 1.60068830e-05
      1.60068830e-05 1.60068830e-05 1.12428952e-05 1.12428952e-05
      1.12428952e-05 1.12428952e-05 1.59620504e-05 1.36598828e-05
      1.36598828e-05 1.36598828e-05 1.36598828e-05 8.94072764e-06
      7.93900290e-06 1.12428952e-05 1.12428952e-05 1.12428952e-05
      1.12428952e-05 1.12428952e-05 1.12428952e-05 1.33345620e-05
      1.33345620e-05 4.02090118e-05 -6.25092582e-07 -2.71675981e-06
      -1.14702789e-05 -4.44966281e-06 2.67476971e-05 -1.83663578e-05
      -1.55939470e-05 -3.75331069e-06 -3.96288924e-05 3.74426854e-05
      -2.36128417e-05 1.88820723e-05 -9.60068246e-06 -1.38028531e-06
      -1.34244750e-04 -1.19458440e-04 -5.55665465e-05 -3.14714707e-05
      9.75767989e-07 4.78213296e-05 7.37986338e-05 2.29277011e-05
      2.29277011e-05 2.29277011e-05 1.81637151e-05 1.31471352e-05
      1.36598828e-05 1.36598828e-05 1.84238706e-05 1.84238706e-05
      1.84238706e-05 1.84238706e-05 1.84238706e-05 1.84238706e-05
      1.84238706e-05 1.84238706e-05 1.84238706e-05 1.84238706e-05
      1.84238706e-05 1.84238706e-05 1.84238706e-05 1.84238706e-05
      1.84238706e-05 1.84238706e-05 1.84238706e-05 1.84238706e-05
      1.84238706e-05 1.84238706e-05 1.84238706e-05 1.84238706e-05
      1.36598828e-05 1.36598828e-05 1.57515497e-05 1.57515497e-05
      4.26260012e-05 -3.39426401e-06 6.91652804e-06 -9.05329125e-06
      1.51743898e-05 3.61753591e-05 -1.41248538e-05 -8.04855244e-06
      8.97824430e-06 -3.34538927e-05 3.52907118e-05 -3.46375455e-05
      4.57320966e-05 3.24359316e-05 1.60707179e-06 -6.92700851e-05
      -1.19458440e-04 -5.55665465e-05 -3.50519440e-05 -9.95593837e-06
      4.21224213e-05 7.57137750e-05 1.77415423e-05 1.77415423e-05
      1.77415423e-05 1.77415423e-05 1.77415423e-05 1.73259614e-05
      1.73259614e-05 1.73259614e-05 1.73259614e-05 1.73259614e-05
      1.73259614e-05 1.73259614e-05 1.77415423e-05 1.77415423e-05
      1.77415423e-05 1.77415423e-05 1.77415423e-05 1.77415423e-05
      1.82542899e-05 1.82542899e-05 1.82542899e-05 1.82542899e-05
      1.82542899e-05 1.82542899e-05 1.82542899e-05 1.82542899e-05
      1.82542899e-05 1.82542899e-05 1.82542899e-05 1.82542899e-05
      1.82542899e-05 1.05653908e-05 1.05653908e-05 -3.39426401e-06
      -3.39426401e-06 6.91652804e-06 -1.21477833e-05 9.98822998e-06
      3.09891984e-05 -2.73247906e-06 -8.04855244e-06 -2.02999472e-05
      -3.34538927e-05 -3.42064504e-06 -2.32451712e-05 4.57320966e-05
      9.03312957e-06 1.60707179e-06 -6.51434020e-05 -1.19874021e-04
      -4.69411716e-05 -4.21772602e-05 -1.65685069e-05 8.44682436e-05
      6.66028354e-05 1.03152879e-05 1.03152879e-05 1.03152879e-05
      1.03152879e-05 1.73259614e-05 1.73259614e-05 1.73259614e-05
      1.73259614e-05 1.73259614e-05 1.73259614e-05 1.73259614e-05
      1.73259614e-05 1.73259614e-05 1.73259614e-05 1.73259614e-05
      1.73259614e-05 1.73259614e-05 1.73259614e-05 1.73259614e-05
      1.73259614e-05 1.73259614e-05 1.73259614e-05 1.73259614e-05
      1.73259614e-05 1.73259614e-05 1.73259614e-05 1.73259614e-05
      1.73259614e-05 1.73259614e-05 1.73259614e-05 1.73259614e-05
      1.94176300e-05 1.99303777e-05 5.45797502e-06 5.45797502e-06
      -2.20805177e-05 -8.97978407e-06 1.56634760e-05 4.28614330e-05
      4.37576728e-06 -2.14545471e-05 -1.93886899e-05 -3.63983163e-05
      7.93884101e-06 -2.56092717e-05 3.39803664e-05 9.03312957e-06
      5.61629895e-06 -2.29868547e-05 1.66287700e-05 -4.69411716e-05
      -4.91879327e-05 -6.94005735e-07 7.82712596e-05 6.04058514e-05
      4.11829978e-06 4.11829978e-06 4.11829978e-06 4.11829978e-06
      4.11829978e-06 4.11829978e-06 4.11829978e-06 4.11829978e-06
      2.01184157e-05 2.01184157e-05 2.01184157e-05 2.01184157e-05
      4.11829978e-06 4.11829978e-06 4.11829978e-06 4.11829978e-06
      4.11829978e-06 1.11289746e-05 1.11289746e-05 1.11289746e-05
      1.11289746e-05 1.11289746e-05 1.11289746e-05 1.11289746e-05
      1.11289746e-05 1.11289746e-05 1.11289746e-05 1.11289746e-05
      1.11289746e-05 1.11289746e-05 1.11289746e-05 1.32206414e-05
      1.32206414e-05 -7.39012933e-07 -7.39012933e-07 -2.32494658e-05
      -9.49253263e-06 1.47351484e-05 3.61516977e-05 -1.49994294e-05
      -2.34002946e-05 -1.80528332e-05 -3.87095097e-05 -2.28702320e-05
      -2.56092717e-05 2.96079015e-05 -4.00094723e-06 5.61629895e-06
      -9.95602568e-06 1.18647822e-05 -4.27157174e-05 -1.62181623e-05
      1.54756908e-05 9.44409549e-05 4.04233760e-05 2.02879964e-05
      4.28788007e-06 4.28788007e-06 4.28788007e-06 4.28788007e-06
      2.02879964e-05 2.02879964e-05 3.33188254e-05 3.33188254e-05
      3.83354018e-05 3.83354018e-05 2.53045746e-05 2.53045746e-05
      2.53045746e-05 2.53045746e-05 2.53045746e-05 2.53045746e-05
      2.53045746e-05 2.01184157e-05 2.01184157e-05 2.01184157e-05
      2.01184157e-05 2.01184157e-05 2.01184157e-05 2.01184157e-05
      2.01184157e-05 2.01184157e-05 4.11829978e-06 4.11829978e-06
      4.11829978e-06 4.11829978e-06 1.32206414e-05 6.20996707e-06
      -7.74968794e-06 -7.39012933e-07 -2.32494658e-05 -9.49253263e-06
      1.47351484e-05 3.61516977e-05 -2.63918046e-05 -2.34002946e-05
      -1.80528332e-05 -3.66010681e-05 -2.98809064e-05 -5.22774390e-05
      4.19651515e-05 -2.31626495e-06 -4.89808990e-05 -1.96637193e-05
      6.10477800e-05 -2.95153095e-05 -1.17443278e-05 2.37425320e-05
      1.02707796e-04 4.39710602e-05 9.80312780e-06 9.80312780e-06
      9.80312780e-06 9.80312780e-06 2.28339559e-05 2.28339559e-05
      2.28339559e-05 2.28339559e-05 2.28339559e-05 2.28339559e-05
      2.28339559e-05 2.28339559e-05 2.28339559e-05 2.28339559e-05
      2.28339559e-05 2.28339559e-05 2.28339559e-05 2.78505358e-05
      3.25696892e-05 3.35714176e-05 3.35714176e-05 3.35714176e-05
      3.35714176e-05 3.35714176e-05 3.35714176e-05 3.35714176e-05
      2.53045746e-05 2.53045746e-05 2.53045746e-05 9.30445913e-06
      4.58530394e-06 5.67524603e-06 -1.09032881e-05 -2.48629422e-05
      -1.34705679e-05 -3.59810219e-05 -2.36377655e-05 -6.76129366e-06
      1.56569822e-05 -3.54941476e-05 -3.25026376e-05 -1.41243472e-05
      -3.94872222e-05 -3.19725732e-05 -5.19186760e-05 -1.48690278e-05
      -9.05495199e-06 -4.89808990e-05 -1.96637193e-05 4.98249865e-05
      -4.09076856e-05 -2.31367030e-05 2.88976407e-05 9.27932488e-05
      3.77739489e-05 1.76385693e-05 1.76385693e-05 1.76385693e-05
      1.76385693e-05 1.76385693e-05 1.76385693e-05 1.76385693e-05
      1.76385693e-05 1.76385693e-05 1.76385693e-05 1.76385693e-05
      1.76385693e-05 1.76385693e-05 1.76385693e-05 1.76385693e-05
      1.76385693e-05 1.76385693e-05 1.76385693e-05 1.76385693e-05
      1.76385693e-05 1.14415816e-05 1.14415816e-05 1.14415816e-05
      1.14415816e-05 1.14415816e-05 1.14415816e-05 1.14415816e-05
      1.14415816e-05 -1.58924718e-06 -1.58924718e-06 -1.58924718e-06
      5.02419937e-07 5.02419937e-07 -1.34572347e-05 -1.34572347e-05
      -3.59676887e-05 -2.57160991e-05 -1.60748568e-05 6.44474039e-06
      -4.98925474e-05 -1.03726297e-05 -8.86169073e-06 -2.98067789e-05
      -4.27100313e-05 -5.41586196e-05 1.46105731e-06 -1.77741895e-05
      -1.28287302e-05 1.64884514e-05 8.11722057e-05 -4.99486414e-05
      -2.31367030e-05 3.49269576e-05 4.30211730e-05 3.77739489e-05
      2.47398712e-05 2.47398712e-05 1.76385693e-05 1.76385693e-05
      1.76385693e-05 1.76385693e-05 1.76385693e-05 1.76385693e-05
      1.76385693e-05 1.76385693e-05 1.76385693e-05 1.76385693e-05
      1.76385693e-05 1.76385693e-05 1.76385693e-05 1.76385693e-05
      1.76385693e-05 1.76385693e-05 1.76385693e-05 1.76385693e-05
      1.76385693e-05 1.76385693e-05 1.76385693e-05 1.76385693e-05
      1.76385693e-05 1.76385693e-05 1.76385693e-05 1.76385693e-05
      1.76385693e-05 1.76385693e-05 1.97302361e-05 1.97302361e-05
      1.97302361e-05 5.77058154e-06 -4.26406132e-07 -2.50285266e-05
      -2.57160991e-05 -7.47406901e-08 1.76808680e-05 -2.04394310e-05
      -2.10578855e-06 1.46974980e-05 -1.11409818e-05 -2.58426826e-05
      -3.72912691e-05 -1.15697712e-05 -1.77741895e-05 -3.56505952e-05
      -1.00190900e-05 3.87799992e-06 -4.99486414e-05 -1.71073862e-05
      8.50136621e-06 4.30211730e-05 3.77739489e-05 2.47398712e-05
      2.47398712e-05 2.47398712e-05 2.47398712e-05 2.47398712e-05
      2.47398712e-05 2.47398712e-05 1.76385693e-05 1.76385693e-05
      1.76385693e-05 1.76385693e-05 1.76385693e-05 1.76385693e-05
      1.76385693e-05 1.76385693e-05 1.76385693e-05 1.76385693e-05
      1.76385693e-05 1.76385693e-05 1.76385693e-05 1.76385693e-05
      1.76385693e-05 1.76385693e-05 1.76385693e-05 1.76385693e-05
      1.76385693e-05 1.76385693e-05 1.76385693e-05 1.76385693e-05
      1.76385693e-05 1.97302361e-05 1.97302361e-05 1.97302361e-05
      5.77058154e-06 5.77058154e-06 -1.88315389e-05 -6.48828291e-06
      1.07187816e-05 3.69086847e-05 -5.50765508e-05 -2.11997612e-05
      1.46974980e-05 -2.14457559e-05 1.03176944e-06 -3.72912691e-05
      1.81960829e-07 -3.08050185e-05 -4.86814242e-05 -2.75921793e-05
      1.52703742e-05 -5.22148694e-05 -2.17151264e-05 -1.26538580e-05
      2.79060077e-05 3.48508911e-05 2.01321309e-05 2.01321309e-05
      2.01321309e-05 2.01321309e-05 2.01321309e-05 2.01321309e-05
      2.01321309e-05 2.01321309e-05 2.01321309e-05 2.01321309e-05
      2.01321309e-05 2.01321309e-05 2.01321309e-05 2.01321309e-05
      2.01321309e-05 2.01321309e-05 8.73975659e-06 8.73975659e-06
      8.73975659e-06 8.73975659e-06 8.73975659e-06 8.73975659e-06
      8.73975659e-06 8.73975659e-06 2.47398712e-05 2.47398712e-05
      2.47398712e-05 2.47398712e-05 2.47398712e-05 2.47398712e-05
      2.68315398e-05 2.68315398e-05 2.68315398e-05 1.28718848e-05
      5.77058154e-06 -1.88315389e-05 -6.48828291e-06 1.07187816e-05
      2.58382679e-05 -6.24122040e-05 -6.20338687e-05 -6.99828452e-05
      -6.22798616e-05 -6.14206074e-05 -5.12509250e-05 4.76689138e-06
      -3.78729856e-05 -4.40964941e-05 -1.16148740e-05 -5.67982897e-05
      -5.89760821e-05 -2.84763428e-05 -1.94150743e-05 2.11447914e-05
      2.80896766e-05 1.33709163e-05 1.33709163e-05 1.33709163e-05
      1.33709163e-05 1.33709163e-05 1.33709163e-05 1.33709163e-05
      1.33709163e-05 1.33709163e-05 1.33709163e-05 1.33709163e-05
      1.33709163e-05 1.33709163e-05 1.33709163e-05 7.10130280e-06
      7.10130280e-06 7.10130280e-06 7.10130280e-06 7.10130280e-06
      7.10130280e-06 7.10130280e-06 7.10130280e-06 7.10130280e-06
      2.01321309e-05 2.01321309e-05 2.01321309e-05 2.01321309e-05
      2.64017453e-05 2.64017453e-05 2.64017453e-05 1.71010361e-05
      1.71010361e-05 1.71010361e-05 -3.12823090e-06 -3.12823090e-06
      -2.77303516e-05 6.88263299e-06 1.78200844e-05 2.45052779e-05
      -6.23315136e-05 -4.86629506e-05 -6.28815396e-05 -1.06009400e-04
      -1.09548688e-04 -9.93790018e-05 -1.56464539e-05 -3.78729856e-05
      -3.27041162e-05 -1.16148740e-05 -5.67982897e-05 -6.07745278e-05
      -2.43928589e-05 -2.41342295e-05 2.01430666e-05 6.71794169e-06
      1.33709163e-05 1.33709163e-05 1.33709163e-05 1.33709163e-05
      1.33709163e-05 1.33709163e-05 1.33709163e-05 1.33709163e-05
      1.33709163e-05 1.33709163e-05 1.33709163e-05 1.33709163e-05
      1.33709163e-05 1.33709163e-05 1.33709163e-05 1.33709163e-05
      1.33709163e-05 1.33709163e-05 1.33709163e-05 1.33709163e-05
      1.33709163e-05 1.33709163e-05 1.33709163e-05 1.33709163e-05
      1.33709163e-05 1.33709163e-05 1.33709163e-05 1.48234112e-05
      1.33709163e-05 1.33709163e-05 1.54625832e-05 1.54625832e-05
      1.54625832e-05 1.50292863e-06 1.50292863e-06 -9.77514173e-06
      -1.15914308e-05 8.08958157e-06 8.50516153e-06 -7.83316282e-05
      -5.04613963e-05 -6.46799890e-05 -1.06009400e-04 -7.08373336e-05
      -9.72873386e-05 -1.77891488e-05 -7.74439686e-05 -2.40229510e-05
      -4.98542468e-05 -5.64991497e-05 -6.07745278e-05 -1.53259807e-05
      -2.59326735e-05 1.83446209e-05 4.91949640e-06 4.47116781e-06
      4.47116781e-06 4.47116781e-06 4.47116781e-06 4.47116781e-06
      4.47116781e-06 4.47116781e-06 4.47116781e-06 4.47116781e-06
      4.47116781e-06 4.47116781e-06 4.47116781e-06 1.15724706e-05
      1.15724706e-05 1.15724706e-05 1.15724706e-05 1.15724706e-05
      1.15724706e-05 1.15724706e-05 1.15724706e-05 1.15724706e-05
      1.15724706e-05 1.15724706e-05 1.15724706e-05 1.29328246e-05
      1.15724706e-05 2.20918446e-05 2.20918446e-05 2.06393506e-05
      1.15724706e-05 1.36641384e-05 1.36641384e-05 1.36641384e-05
      -2.95516600e-07 -2.95516600e-07 -2.28059707e-05 -2.25305921e-05
      6.74435023e-06 -4.23244455e-06 -7.80384071e-05 -6.43698440e-05
      -6.25883185e-05 -9.52980627e-05 -4.82864089e-05 -9.72873386e-05
      4.09197455e-05 -3.26106310e-05 -2.40229510e-05 -3.83984188e-05
      -5.64991497e-05 -5.17335720e-05 -8.37480457e-06 -1.68657953e-05
      7.00822784e-05 -6.14900409e-06 1.35380478e-05 1.35380478e-05
      1.35380478e-05 1.35380478e-05 1.35380478e-05 1.35380478e-05
      1.35380478e-05 1.35380478e-05 1.35380478e-05 1.35380478e-05
      1.35380478e-05 1.35380478e-05 1.35380478e-05 1.35380478e-05
      1.35380478e-05 1.35380478e-05 1.49905427e-05 1.49905427e-05
      1.35380478e-05 1.35380478e-05 2.06393506e-05 2.06393506e-05
      2.06393506e-05 3.34555298e-05 3.34555298e-05 3.20951767e-05
      2.20918446e-05 2.20918446e-05 2.06393506e-05 2.06393506e-05
      2.27310175e-05 2.27310175e-05 2.27310175e-05 8.77136335e-06
      8.77136335e-06 -3.06064394e-05 -1.34637121e-05 1.58112307e-05
      1.62268097e-05 -8.20023561e-05 -2.69323482e-05 -5.55619008e-05
      -7.22715340e-05 -4.59796538e-05 -8.33276863e-05 3.46501329e-05
      -2.23954230e-05 9.21731771e-06 -3.83984188e-05 -1.99014048e-05
      -7.76337765e-06 -2.80090694e-06 1.39143185e-05 8.15380990e-05
      5.30682155e-06 2.49938730e-05 2.49938730e-05 2.49938730e-05
      2.49938730e-05 2.49938730e-05 2.49938730e-05 2.49938730e-05
      2.49938730e-05 2.49938730e-05 2.49938730e-05 2.49938730e-05
      2.49938730e-05 2.49938730e-05 2.63542261e-05 2.63542261e-05
      2.49938730e-05 2.64463688e-05 2.64463688e-05 2.49938730e-05
      2.49938730e-05 2.49938730e-05 2.49938730e-05 2.49938730e-05
      2.63542261e-05 2.63542261e-05 2.64463688e-05 2.64463688e-05
      2.64463688e-05 2.64463688e-05 2.49938730e-05 2.70855398e-05
      2.70855398e-05 -1.37485658e-05 1.31258857e-05 1.31258857e-05
      -2.62519188e-05 -9.10918970e-06 8.09787434e-06 3.45409862e-05
      -5.22958071e-05 -5.33340935e-05 -7.79998372e-05 -2.41434500e-05
      2.69591260e-06 -3.51996023e-05 3.46501329e-05 -1.09202483e-05
      2.26632474e-05 -4.46680315e-05 -1.75513505e-05 -1.60632717e-05
      -9.07051981e-06 9.95589835e-06 -1.57643649e-06 8.35653566e-07
      2.05227043e-05 2.05227043e-05 2.05227043e-05 2.05227043e-05
      2.05227043e-05 2.05227043e-05 2.05227043e-05 2.67923187e-05
      2.19752001e-05 2.05227043e-05 2.67923187e-05 2.67923187e-05
      2.67923187e-05 2.81526718e-05 2.81526718e-05 2.82448127e-05
      2.82448127e-05 2.82448127e-05 2.05227043e-05 1.87242604e-05
      1.87242604e-05 2.24590221e-05 2.38193770e-05 2.38193770e-05
      2.00846134e-05 2.15371092e-05 2.01767543e-05 2.01767543e-05
      2.01767543e-05 1.87242604e-05 2.08159272e-05 2.08159272e-05
      -2.00181785e-05 6.85627265e-06 -4.83731092e-05 -3.25215333e-05
      -1.53788023e-05 1.82826136e-06 3.20061372e-05 -5.52615275e-05
      1.89529067e-06 -2.27704513e-05 -2.55959458e-05 -1.21152743e-05
      -6.89212393e-05 5.49629694e-05 -1.09202483e-05 2.63980091e-05
      -3.57471108e-05 -7.51106782e-05 -3.28755368e-06 -3.53731230e-06
      -1.27349294e-05 3.88963272e-05 4.57041597e-06 2.42574679e-05
      2.42574679e-05 2.42574679e-05 2.42574679e-05 2.42574679e-05
      2.56178209e-05 2.42574679e-05 2.57099618e-05 2.57099618e-05
      2.57099618e-05 2.42574679e-05 2.42574679e-05 2.56178209e-05
      2.56178209e-05 2.56178209e-05 2.57099618e-05 2.57099618e-05
      2.57099618e-05 2.57099618e-05 2.42574679e-05 2.42574679e-05
      2.42574679e-05 2.56178209e-05 2.56178209e-05 2.70703167e-05
      2.70703167e-05 2.57099618e-05 2.57099618e-05 2.57099618e-05
      2.42574679e-05 2.63491347e-05 2.63491347e-05 -1.44849710e-05
      1.05910349e-05 -4.46383492e-05 -2.87867697e-05 -1.16440406e-05
      4.63971301e-05 1.99382575e-05 -5.66218805e-05 1.89529067e-06
      -2.27704513e-05 -4.31763438e-05 -5.87429804e-06 -6.89212393e-05
      -1.26422665e-05 -5.57535859e-05 3.77697725e-05 -3.42946150e-05
      4.38168754e-05 1.01637879e-05 3.47336231e-06 -6.39638574e-06
      2.98294453e-05 -4.49646359e-06 1.51905879e-05 1.51905879e-05
      1.51905879e-05 1.51905879e-05 1.65509409e-05 1.65509409e-05
      2.11009574e-05 2.11930983e-05 3.02599783e-05 3.02599783e-05
      2.57099618e-05 2.57099618e-05 2.70703167e-05 1.80034367e-05
      1.80034367e-05 1.80034367e-05 1.66430837e-05 1.66430837e-05
      2.57099618e-05 2.57099618e-05 2.57099618e-05 2.70703167e-05
      2.70703167e-05 2.70703167e-05 2.70703167e-05 2.70703167e-05
      2.57099618e-05 2.57099618e-05 2.57099618e-05 2.57099618e-05
      2.63491347e-05 1.72822547e-05 -1.44849710e-05 1.23894797e-05
      -4.28399035e-05 -2.69883240e-05 -9.84559574e-06 2.13211242e-05
      2.17367033e-05 4.05946821e-07 1.89529067e-06 -2.27704513e-05
      -4.31763438e-05 -5.87429804e-06 -6.89212393e-05 -1.11830768e-05
      -5.57535859e-05 -7.06356195e-06 -2.52023401e-05 3.83635597e-05
      3.92850052e-06 -1.24993276e-05 -4.26862352e-05 3.34310607e-05
      -1.76369722e-05 3.73476246e-06 3.73476246e-06 3.73476246e-06
      8.28477732e-06 9.64513129e-06 2.11009574e-05 2.25534513e-05
      2.25534513e-05 2.25534513e-05 2.25534513e-05 1.10976262e-05
      1.10976262e-05 1.10976262e-05 1.10976262e-05 1.10976262e-05
      2.25534513e-05 2.25534513e-05 2.25534513e-05 2.25534513e-05
      2.25534513e-05 2.25534513e-05 3.16203332e-05 3.16203332e-05
      3.16203332e-05 3.16203332e-05 2.70703167e-05 1.80034367e-05
      1.66430837e-05 5.18725756e-06 1.66430837e-05 1.66430837e-05
      1.87347505e-05 -2.20993552e-05 3.32260061e-06 -5.19067835e-05
      -3.57798272e-05 -1.89124748e-05 3.91286958e-05 1.26698242e-05
      -7.20843764e-06 6.29366355e-07 -2.13179555e-05 -4.07588523e-05
      -7.96596487e-06 -7.10129098e-05 -3.97890944e-05 -5.43932292e-05
      -1.55642483e-05 -8.14915038e-05 3.83635597e-05 8.79980780e-06
      -7.50641766e-06 -3.27073940e-05 4.34099056e-05 -8.09404628e-06
      1.32776877e-05 1.32776877e-05 1.32776877e-05 1.31855468e-05
      1.31855468e-05 1.46380416e-05 1.46380416e-05 1.46380416e-05
      1.46380416e-05 1.46380416e-05 1.46380416e-05 1.46380416e-05
      1.46380416e-05 1.46380416e-05 1.46380416e-05 1.10976262e-05
      1.10976262e-05 1.10976262e-05 2.25534513e-05 2.25534513e-05
      2.25534513e-05 2.25534513e-05 2.55085906e-05 1.40527645e-05
      1.40527645e-05 1.10976262e-05 1.10976262e-05 6.54761152e-06
      6.54761152e-06 6.54761152e-06 5.18725756e-06 7.27892439e-06
      -3.35551813e-05 -6.68073017e-06 -5.15993197e-05 -4.57831557e-05
      -2.75554521e-05 3.04857185e-05 1.54826721e-05 -2.89294530e-06
      -1.46230082e-06 -3.06780566e-05 -4.98257323e-05 -7.96596487e-06
      -7.10129098e-05 -1.44851701e-05 -5.43932292e-05 -1.79386570e-05
      -3.11386939e-05 4.71558669e-05 8.02018349e-06 -1.55420494e-05
      -1.96540022e-05 4.54431283e-05 2.02968458e-05 1.89364910e-05
      1.89364910e-05 2.02968458e-05 2.40316076e-05 1.75931800e-05
      1.75931800e-05 1.75931800e-05 1.75931800e-05 1.38584173e-05
      1.38584173e-05 1.38584173e-05 1.38584173e-05 1.38584173e-05
      1.75931800e-05 1.75931800e-05 1.75931800e-05 1.75931800e-05
      1.75931800e-05 1.75931800e-05 1.75931800e-05 1.75931800e-05
      1.75931800e-05 1.75931800e-05 1.75931800e-05 1.75931800e-05
      1.75931800e-05 1.38584173e-05 1.75931800e-05 1.75931800e-05
      1.75931800e-05 1.75931800e-05 1.96848468e-05 -2.11492588e-05
      5.72519275e-06 -3.91933972e-05 -3.79272497e-05 -2.10598973e-05
      3.69812733e-05 1.50724163e-05 -8.35000810e-06 2.07811445e-06
      -2.71376430e-05 -4.44868747e-05 -4.42554983e-06 -6.74724943e-05
      -1.45589911e-05 -5.45305011e-05 1.21478752e-05 -2.74777540e-05
      5.21771617e-05 4.00052340e-06 -1.18811076e-05 -2.70132277e-05
      -6.68006123e-07 2.39577876e-05 2.39577876e-05 2.39577876e-05
      2.39577876e-05 2.39577876e-05 2.39577876e-05 2.39577876e-05
      2.39577876e-05 2.39577876e-05 2.39577876e-05 2.39577876e-05
      2.39577876e-05 2.39577876e-05 2.39577876e-05 2.39577876e-05
      2.25052918e-05 2.25052918e-05 2.62400536e-05 2.62400536e-05
      2.62400536e-05 2.62400536e-05 2.62400536e-05 2.25052918e-05
      2.25052918e-05 2.25052918e-05 2.25052918e-05 2.25052918e-05
      2.25052918e-05 2.39577876e-05 2.39577876e-05 2.39577876e-05
      2.39577876e-05 1.96110268e-05 -2.12230789e-05 -2.12230789e-05
      -3.92672191e-05 -3.71119968e-05 -1.65098827e-05 4.15312861e-05
      1.50724163e-05 -4.68906637e-06 2.07811445e-06 -2.71376430e-05
      -4.44868747e-05 -4.42554983e-06 -4.76724017e-05 -2.96024573e-05
      -5.90805175e-05 7.59786008e-06 -6.46847475e-05 -9.11692496e-06
      1.30414792e-05 -1.17134368e-05 -3.68913352e-05 4.91040701e-05
      2.39577876e-05 2.39577876e-05 2.39577876e-05 2.39577876e-05
      2.39577876e-05 2.39577876e-05 2.39577876e-05 2.39577876e-05
      2.39577876e-05 2.39577876e-05 2.25052918e-05 2.25052918e-05
      2.11449369e-05 2.11449369e-05 2.11449369e-05 2.11449369e-05
      2.11449369e-05 2.11449369e-05 2.11449369e-05 2.11449369e-05
      2.11449369e-05 2.11449369e-05 2.11449369e-05 2.11449369e-05
      2.11449369e-05 2.25052918e-05 2.25052918e-05 2.25052918e-05
      2.25052918e-05 2.25052918e-05 2.25052918e-05 2.25052918e-05
      2.45969586e-05 -1.62371471e-05 -1.62371471e-05 -3.42812855e-05
      -2.84651214e-05 -1.15977709e-05 4.64433979e-05 5.20074209e-05
      2.96866233e-07 7.06404671e-06 -1.04172238e-06 -3.80484453e-05
      -3.05014928e-05 -3.49930015e-05 -6.77216376e-05 -6.05330133e-05
      -2.02802257e-05 -6.92347603e-05 4.76271489e-05 -3.46695488e-05
      -1.62634515e-05 -1.48480876e-05 -5.05035041e-06 1.95754419e-05
      1.95754419e-05 1.95754419e-05 1.81229479e-05 1.81229479e-05
      1.81229479e-05 1.79552771e-05 1.65949223e-05 1.65949223e-05
      1.65949223e-05 1.65949223e-05 1.65949223e-05 1.65949223e-05
      1.65949223e-05 1.65949223e-05 1.65949223e-05 1.65949223e-05
      1.65949223e-05 1.65949223e-05 1.67625931e-05 1.67625931e-05
      1.67625931e-05 1.67625931e-05 2.13126095e-05 2.11449369e-05
      2.11449369e-05 2.11449369e-05 2.11449369e-05 2.11449369e-05
      2.11449369e-05 2.11449369e-05 2.11449369e-05 2.32366056e-05
      -1.61838234e-05 -1.59084448e-05 -3.39525832e-05 -2.84117978e-05
      -1.15444473e-05 4.64967234e-05 5.20074209e-05 2.71713179e-05
      3.39384969e-05 2.43802333e-05 -1.97936624e-05 -4.79338451e-06
      8.73573845e-06 -5.52095007e-05 -4.21666009e-05 -1.91381605e-06
      -6.68963839e-05 5.65093160e-06 -1.92970947e-05 -7.91161347e-06
      -5.59077525e-05 -3.13693931e-06 2.01285002e-05 2.01285002e-05
      2.01285002e-05 2.01285002e-05 2.01285002e-05 2.30836376e-05
      2.30836376e-05 2.30836376e-05 2.30836376e-05 2.30836376e-05
      2.65669278e-05 2.65669278e-05 2.65669278e-05 2.65669278e-05
      2.65669278e-05 2.95220652e-05 2.95220652e-05 2.95220652e-05
      2.95220652e-05 2.95220652e-05 2.95220652e-05 2.95220652e-05
      2.95220652e-05 2.95220652e-05 2.95220652e-05 2.95220652e-05
      2.95220652e-05 2.95220652e-05 2.65669278e-05 2.95220652e-05
      2.95220652e-05 2.95220652e-05 3.16137339e-05 1.09041866e-06
      1.09041866e-06 -2.27144974e-05 -2.82441270e-05 -1.13767755e-05
      4.66643942e-05 5.08147386e-05 4.54300207e-05 3.41061677e-05
      2.45479059e-05 -2.10784856e-05 -4.19831485e-05 8.90340925e-06
      -3.44059554e-05 -3.35912810e-05 6.66150481e-06 -5.67796014e-05
      1.74523957e-05 -3.05365597e-06 1.53524416e-05 -1.91039671e-05
      2.65655435e-05 3.86262509e-05 3.86262509e-05 3.86262509e-05
      3.86262509e-05 3.86262509e-05 3.86262509e-05 3.50858354e-05
      3.50858354e-05 3.50858354e-05 3.50858354e-05 3.50858354e-05
      3.50858354e-05 3.86262509e-05 3.86262509e-05 3.86262509e-05
      3.86262509e-05 3.86262509e-05 3.86262509e-05 4.68534745e-05
      4.68534745e-05 4.68534745e-05 4.68534745e-05 4.68534745e-05
      4.38983334e-05 4.38983334e-05 4.38983334e-05 4.38983334e-05
      3.68777182e-05 3.68777182e-05 3.68777182e-05 3.68777182e-05
      3.80440615e-05 4.01357283e-05 -6.98376709e-07 -6.98376709e-07
      -2.90533080e-05 -2.35125208e-05 -7.81151357e-06 5.31847945e-05
      6.89057706e-05 4.52360109e-05 2.26503435e-05 2.45479059e-05
      -2.10784856e-05 -4.08168053e-05 1.75650239e-05 -3.32576492e-05
      -3.01509190e-05 -1.22898291e-05 -1.06684674e-05 -4.52638560e-05
      -6.71459748e-06 -4.85598412e-06 -2.27649070e-05 2.29046018e-05
      4.39899777e-05 4.39899777e-05 4.39899777e-05 4.39899777e-05
      4.39899777e-05 4.39899777e-05 4.39899777e-05 4.39899777e-05
      4.39899777e-05 4.39899777e-05 4.39899777e-05 4.39899777e-05
      4.39899777e-05 4.39899777e-05 4.39899777e-05 4.39899777e-05
      4.39899777e-05 4.39899777e-05 4.39899777e-05 4.39899777e-05
      4.39899777e-05 4.39899777e-05 4.39899777e-05 4.39899777e-05
      4.39899777e-05 4.39899777e-05 4.39899777e-05 4.39899777e-05
      4.39899777e-05 4.39899777e-05 4.39899777e-05 4.39899777e-05
      4.46679696e-05 3.83386168e-06 3.83386168e-06 -2.45210686e-05
      -1.89802831e-05 -2.11293218e-06 5.73419165e-05 6.14922610e-05
      4.78222537e-05 2.27419878e-05 2.71341469e-05 -1.84922428e-05
      -3.82305625e-05 2.01512648e-05 1.32839123e-05 4.16035218e-05
      8.32899532e-05 -1.09438452e-05 -7.58861961e-06 -6.98997565e-06
      7.50565334e-07 -1.20201184e-05 3.56632991e-05 4.37146009e-05
      4.37146009e-05 4.37146009e-05 4.37146009e-05 4.37146009e-05
      4.37146009e-05 4.37146009e-05 4.37146009e-05 4.37146009e-05
      4.37146009e-05 4.37146009e-05 4.37146009e-05 4.37146009e-05
      4.37146009e-05 4.37146009e-05 4.37146009e-05 4.23009224e-05
      4.23009224e-05 4.23009224e-05 4.23009224e-05 4.23009224e-05
      4.23009224e-05 4.23009224e-05 4.23009224e-05 4.23009224e-05
      4.23009224e-05 4.23009224e-05 4.23009224e-05 4.23009224e-05
      4.23009224e-05 4.23009224e-05 4.23009224e-05 4.43925892e-05
      3.55848374e-06 3.55848374e-06 -5.16709006e-05 -1.92556618e-05
      -2.38831012e-06 5.56528612e-05 1.58536495e-05 3.96112955e-05
      2.27419878e-05 2.71341469e-05 -1.84922428e-05 -3.82305625e-05
      2.01512648e-05 2.93987105e-05 5.63046451e-05 7.15654824e-05
      -1.38951009e-05 -1.93130891e-05 -1.86015927e-06 -1.09739049e-05
      -2.37445893e-05 2.39388301e-05 4.50242078e-05 3.19901301e-05
      3.19901301e-05 3.19901301e-05 3.19901301e-05 3.19901301e-05
      3.19901301e-05 3.19901301e-05 3.19901301e-05 3.19901301e-05
      3.19901301e-05 3.19901301e-05 3.19901301e-05 3.19901301e-05
      3.19901301e-05 3.19901301e-05 3.19901301e-05 3.19901301e-05
      3.19901301e-05 3.19901301e-05 3.19901301e-05 3.19901301e-05
      3.19901301e-05 3.19901301e-05 3.19901301e-05 3.19901301e-05
      3.19901301e-05 3.19901301e-05 3.19901301e-05 3.19901301e-05
      3.19901301e-05 3.19901301e-05 3.40817969e-05 -6.75230831e-06
      -6.75230831e-06 -6.19816929e-05 -2.95664522e-05 4.50796188e-06
      5.56528612e-05 2.76461487e-05 3.96112955e-05 2.90116004e-05
      2.71341469e-05 -1.84922428e-05 -3.82305625e-05 2.01512648e-05
      1.57482737e-05 3.15028010e-05 6.32484589e-05 -3.10424912e-05
      -4.41149350e-05 -2.66620027e-05 -4.04913335e-05 -1.85087974e-05
      3.03329756e-07 2.12210361e-05 2.12210361e-05 2.12210361e-05
      2.12210361e-05 2.12210361e-05 2.12210361e-05 2.12210361e-05
      2.12210361e-05 2.12210361e-05 2.12210361e-05 2.12210361e-05
      2.12210361e-05 2.12210361e-05 2.12210361e-05 2.12210361e-05
      2.12210361e-05 2.12210361e-05 2.12210361e-05 8.18695935e-06
      8.35463015e-06 8.35463015e-06 8.35463015e-06 8.35463015e-06
      8.35463015e-06 2.13887070e-05 2.13887070e-05 2.13887070e-05
      2.13887070e-05 2.13887070e-05 2.13887070e-05 2.13887070e-05
      2.12210361e-05 2.33127030e-05 -5.45352441e-06 -5.45352441e-06
      -6.06829090e-05 -2.82676683e-05 5.80674578e-06 4.68085236e-05
      1.70447256e-05 4.63499018e-05 -2.08751153e-05 4.76492278e-05
      -4.48977044e-05 -6.77861899e-05 -9.98895575e-06 -3.66975632e-06
      9.24505639e-06 6.32484589e-05 -5.52868323e-06 -3.20470572e-05
      -3.11416079e-05 -2.95897989e-05 -7.60726198e-06 3.99084856e-05
      3.21225707e-05 3.21225707e-05 3.21225707e-05 3.21225707e-05
      2.51019555e-05 2.51019555e-05 2.51019555e-05 2.51019555e-05
      2.51019555e-05 2.51019555e-05 2.51019555e-05 3.32889140e-05
      3.21225707e-05 3.21225707e-05 3.32889140e-05 3.32889140e-05
      3.32889140e-05 3.32889140e-05 3.32889140e-05 3.32889140e-05
      3.32889140e-05 3.32889140e-05 3.21225707e-05 3.21225707e-05
      3.21225707e-05 3.21225707e-05 3.21225707e-05 3.21225707e-05
      3.21225707e-05 3.21225707e-05 3.21225707e-05 3.21225707e-05
      3.42142375e-05 -6.61986769e-06 -6.61986769e-06 -6.18492486e-05
      -2.94340116e-05 4.64040249e-06 4.58900904e-05 2.19803242e-05
      3.00232041e-05 -2.22091294e-05 2.66577190e-05 -4.62317184e-05
      -6.79538643e-05 -4.77448193e-05 6.79243476e-06 1.42923182e-05
      6.82957252e-05 7.10819359e-06 -3.90676723e-05 -4.40441509e-05
      -3.66104141e-05 -1.41151304e-05 3.28878705e-05 5.39732464e-05
      5.39732464e-05 5.39732464e-05 5.39732464e-05 5.39732464e-05
      1.34830789e-05 5.39732464e-05 5.39732464e-05 5.39732464e-05
      5.39732464e-05 5.39732464e-05 5.39732464e-05 5.39732464e-05
      5.39732464e-05 5.39732464e-05 5.39732464e-05 5.39732464e-05
      2.51019555e-05 2.51019555e-05 2.51019555e-05 2.51019555e-05
      2.51019555e-05 2.51019555e-05 5.39732464e-05 5.39732464e-05
      5.39732464e-05 5.39732464e-05 5.39732464e-05 5.39732464e-05
      5.39732464e-05 5.39732464e-05 5.39732464e-05 5.60649132e-05
      1.52308094e-05 1.52308094e-05 -3.44577857e-05 -5.62719606e-07
      3.35116965e-05 7.47613813e-05 2.31113772e-05 2.90649059e-05
      -2.81086504e-05 5.55290135e-05 -2.39898964e-05 -3.90825699e-05
      -4.71201893e-05 2.26268403e-05 1.60405452e-05 5.18109009e-05
      -5.46259855e-07 -3.90676723e-05 -4.40441509e-05 -1.97561276e-05
      -1.41151304e-05 2.93474550e-05 5.39732464e-05 4.09391723e-05
      4.09391723e-05 5.81462336e-05 4.09391723e-05 4.49001362e-07
      4.09391723e-05 4.09391723e-05 4.09391723e-05 4.09391723e-05
      5.39732464e-05 5.39732464e-05 5.39732464e-05 5.39732464e-05
      5.39732464e-05 5.39732464e-05 5.39732464e-05 5.39732464e-05
      5.39732464e-05 5.39732464e-05 5.39732464e-05 5.39732464e-05
      5.39732464e-05 5.39732464e-05 5.39732464e-05 5.39732464e-05
      5.39732464e-05 5.39732464e-05 5.39732464e-05 5.39732464e-05
      5.39732464e-05 5.39732464e-05 4.39970354e-05 3.16293108e-06
      3.16293108e-06 -4.65256635e-05 -1.96512137e-05 2.14438169e-05
      7.47613813e-05 2.78988427e-05 2.13244948e-05 -2.81086504e-05
      4.43271492e-05 -2.83107584e-05 -3.73752446e-05 -6.69202782e-05
      1.99613205e-05 1.57059967e-05 4.27171544e-05 -1.25785118e-05
      -1.79965009e-05 -4.26304759e-05 -1.13317747e-05 -1.32141995e-05
      3.07611335e-05 4.23528472e-05 4.23528472e-05 4.23528472e-05
      5.95599122e-05 1.86267960e-06 1.86267960e-06 1.86267960e-06
      2.99420080e-05 4.23528472e-05 4.23528472e-05 4.09391723e-05
      4.09391723e-05 4.09391723e-05 7.06590436e-05 5.36429579e-05
      4.09391723e-05 2.88712927e-05 2.88712927e-05 2.88712927e-05
      4.19053686e-05 4.19053686e-05 4.19053686e-05 2.88712927e-05
      2.88712927e-05 2.88712927e-05 2.88712927e-05 2.88712927e-05
      2.88712927e-05 2.88712927e-05 2.88712927e-05 2.88712927e-05
      2.88712927e-05 3.09629613e-05 -9.87114618e-06 -9.87114618e-06
      -5.95597412e-05 -3.26852896e-05 8.40974008e-06 4.96594257e-05
      -2.18591376e-05 4.98652435e-06 -4.44466204e-05 3.04985842e-05
      -4.13448361e-05 -5.04093223e-05 -7.99543559e-05 -5.42931521e-05
      3.63811819e-06 3.06492766e-05 -9.92762943e-06 -3.00643787e-05
      -3.34351716e-05 -3.74216029e-06 1.12297012e-05 2.53166709e-05
      2.10711714e-05 1.41367821e-06 1.86207417e-05 1.86207417e-05
      -2.21193409e-06 -1.94189979e-05 -2.30658879e-05 8.66032951e-06
      2.10711714e-05 4.99424641e-05 4.99424641e-05 4.99424641e-05
      4.99424641e-05 4.99424641e-05 4.99424641e-05 4.99424641e-05
      4.99424641e-05 4.99424641e-05 4.85287856e-05 4.85287856e-05
      4.85287856e-05 4.85287856e-05 4.85287856e-05 4.85287856e-05
      8.03861622e-06 4.85287856e-05 2.88712927e-05 2.88712927e-05
      2.88712927e-05 2.88712927e-05 2.88712927e-05 2.88712927e-05
      3.09629613e-05 -9.87114618e-06 -9.87114618e-06 -2.98398700e-05
      -1.99815022e-05 8.40974008e-06 5.10731043e-05 -1.55895250e-05
      4.98652435e-06 -5.12683691e-05 4.36995324e-05 -4.13448361e-05
      -3.93257869e-05 -1.08825647e-04 -1.05473060e-04 3.63811819e-06
      3.06492766e-05 -2.05309952e-05 -3.59463047e-05 -3.96761498e-05
      -9.65989602e-06 -2.51886968e-06 1.32996647e-05 3.79254561e-05
      4.34662434e-05 5.51325211e-05 5.51325211e-05 -2.21193409e-06
      -3.68484471e-05 -3.54767290e-05 2.25992317e-05 2.55146151e-05
      -2.78914540e-05 -2.12619816e-05 -4.35197253e-05 -4.35197253e-05
      -4.35197253e-05 -4.35197253e-05 -4.35197253e-05 -3.52532443e-05
      3.01623659e-05 5.90336567e-05 8.12914004e-05 7.50632316e-05
      -2.12619816e-05 1.28124329e-05 -8.40098946e-05 -3.70893576e-05
      -3.70893576e-05 6.25882531e-05 1.56677143e-05 3.79254561e-05
      1.96574929e-05 1.96574929e-05 1.96574929e-05 2.17491597e-05
      2.17491597e-05 -1.90849460e-05 -4.18990894e-05 -4.04854109e-05
      6.09618382e-07 1.36913548e-06 -2.48033248e-05 -4.22727544e-06
      -7.33345996e-06 2.47806292e-05 -5.57214771e-05 -5.37024280e-05
      -8.36503968e-05 -1.05473060e-04 1.39429094e-05 6.16043762e-05
      3.01158252e-05 -3.37185556e-05 2.17390407e-05 2.97729275e-05
      3.19060928e-05 7.65959194e-05 1.01221711e-04 1.06762498e-04
      1.53923858e-04 1.03410523e-04 9.24549604e-05 4.54304172e-05
      -8.73841509e-06 -1.16537994e-05 6.25989969e-06 1.76027188e-05
      2.42321912e-05 2.42321912e-05 2.42321912e-05 2.42321912e-05
      2.42321912e-05 8.18139451e-05 8.18139451e-05 4.62037970e-05
      4.62037970e-05 2.39460551e-05 2.39460551e-05 5.83066067e-05
      5.83066067e-05 6.73707802e-07 -1.65333568e-05 -1.65333568e-05
      1.28655220e-05 2.52763639e-05 2.52763639e-05 8.44638053e-05
      8.44638053e-05 1.06721549e-04 1.08813212e-04 1.08813212e-04
      6.79791046e-05 1.00394347e-04 6.23720262e-05 8.62599918e-05
      9.18888109e-05 6.94532500e-05 9.03046748e-05 -2.54130337e-05
      6.98852309e-05 -5.22915398e-05 -2.60484321e-05 -8.07412507e-05
      -8.49278222e-05 -3.64385196e-05 2.81450866e-05 3.09802563e-05
      -3.06223301e-05 -2.80976910e-05 -1.33285066e-05 -3.34530851e-05
      1.34836937e-05 4.14033202e-05 5.86103852e-05 1.81202158e-05
      1.25794286e-05 -4.85002010e-06 -8.49690969e-06 -4.23497513e-05
      -2.49203022e-05 -3.71408714e-05 -9.15661894e-06 -9.15661894e-06
      5.48303724e-05 3.58542857e-05 5.21754964e-06 1.13324804e-05
      -2.53468697e-05 -2.53468697e-05 1.38237492e-05 -2.66664192e-05
      -2.66664192e-05 -1.01815995e-05 3.15472680e-05 2.12364757e-05
      -2.74863032e-05 -1.39291851e-05 -3.76413700e-05 -6.33479704e-06
      -1.69407122e-05 3.59603000e-05 5.89508309e-05 6.66052802e-05
      6.66052802e-05 6.86969506e-05 6.86969506e-05 2.75874645e-05
      6.02780819e-05 2.22557628e-05 5.65356049e-06 4.69032457e-05
      1.71938063e-05 3.70271046e-05 1.48783968e-07 1.94381282e-05
      7.40081396e-06 -7.25263408e-06 -3.96877076e-05 -6.41120423e-05
      -4.69050917e-07 2.26579359e-05 4.98241252e-06 -6.34192256e-05
      -6.12567819e-05 -5.11262733e-05 -4.72455067e-05 2.15557193e-05
      2.08126166e-05 2.08126166e-05 2.08126166e-05 1.52718294e-05
      -2.15761861e-06 -1.82153490e-05 -2.11307342e-05 -1.05822855e-05
      -7.78182584e-06 -3.13072924e-05 -2.02392675e-05 3.82692042e-06
      3.82692042e-06 -1.43203533e-05 -2.68084277e-05 -4.40154909e-05
      -2.68084277e-05 -2.68084277e-05 -1.03236071e-05 9.89593082e-06
      1.58192470e-05 1.60699383e-05 8.32952628e-06 1.91935760e-06
      -4.45323749e-05 -4.52192835e-05 -6.53417301e-05 -5.87794602e-05
      -5.29980898e-05 -4.63686156e-05 -2.77365270e-05 -2.77365270e-05
      -9.16004046e-06 -1.18163789e-05 -4.75258530e-05 2.09644986e-06
      -5.31329315e-05 -2.92449658e-05 1.20047198e-05 -3.42166568e-05
      -1.11259624e-06 -2.49196328e-05 -1.76367837e-06 -1.39339372e-05
      -4.83836993e-05 -4.22013109e-05 -3.72550858e-05 5.44127943e-05
      6.96643983e-05 4.62779353e-05 -2.83186250e-06 -1.32248942e-05
      -1.39869499e-05 -2.59027165e-05 -3.46442334e-06 6.25022003e-05
      5.14820349e-05 5.14820349e-05 6.28085982e-05 1.24540675e-05
      1.24540675e-05 9.53868312e-06 2.08983292e-05 7.81231120e-06
      2.08311303e-05 1.30938115e-05 2.02926476e-05 2.02926476e-05
      1.58361381e-05 1.58361381e-05 1.58361381e-05 1.58361381e-05
      3.42529711e-06 3.42529711e-06 3.48228532e-05 3.92793627e-05
      6.03334502e-06 4.92558399e-07 -1.69368905e-05 -1.76510421e-05
      -2.05664255e-05 -3.13697706e-06 -1.30005601e-05 -3.20417575e-06
      -3.20417575e-06 1.58361381e-05 2.20331258e-05 2.41247926e-05
      2.70632972e-05 2.27740361e-06 2.64021874e-05 -3.55867960e-05
      -2.85661790e-05 -2.89121454e-06 -9.27306883e-06 3.65932356e-05
      7.20400749e-06 2.99274761e-05 2.27810033e-05 -1.82482763e-05
      -3.95744428e-06 -6.35059114e-05 1.15687144e-05 2.68591066e-05
      -4.71327112e-05 -1.06065738e-04 -9.81932899e-05 -9.02105385e-05
      -8.26593969e-05 -8.97486025e-05 -3.03578508e-05 -3.03578508e-05
      -2.59013432e-05 -5.79978478e-05 -6.35386314e-05 -8.37743282e-05
      -3.88920998e-05 -3.12352713e-05 -1.23921454e-05 -1.29615091e-05
      2.09532609e-05 -2.59672779e-05 -1.51215518e-05 8.46788396e-07
      -1.60205618e-05 -1.60205618e-05 1.23112895e-05 1.44029564e-05
      3.89030083e-06 2.10458620e-05 2.10458620e-05 2.10458620e-05
      1.55050748e-05 -8.74612215e-06 -2.56134736e-05 -2.85288570e-05
      -1.11586605e-05 -1.85826211e-05 -3.45302433e-05 -7.09228916e-05
      -1.73728786e-05 -6.35271135e-06 -8.57148279e-06 -8.57148279e-06
      -4.43775425e-05 -1.75030927e-05 -7.89294645e-05 -7.19088493e-05
      -1.80128045e-05 -4.56151574e-05 -1.02315435e-05 -2.75512616e-06
      9.58193959e-06 4.04115281e-06 -2.91869710e-05 -2.57368060e-06
      3.25690708e-05 8.86085618e-05 -1.78980144e-06 -3.27399939e-05
      -2.90757544e-05 -2.60538181e-05 -2.58673717e-05 -2.52134105e-05
      7.11274743e-06 -2.57642168e-05 -8.74167381e-06 -3.15615143e-05
      -3.15615143e-05 -2.83619684e-05 -2.58707005e-05 -1.97236805e-05
      -3.25155015e-05 -3.25155015e-05 -3.30848670e-05 -2.58338314e-05
      4.01740408e-06 3.02380300e-07 -7.19231912e-06 4.31818044e-05
      -1.24515082e-05 -1.03598413e-05 4.70170835e-06 -1.48194076e-05
      2.83870413e-05 8.46590992e-05 9.12885735e-05 9.58619275e-05
      9.58619275e-05 4.93657717e-05 3.24984212e-05 -3.43645079e-05
      -5.88805124e-05 -7.16336726e-05 -7.95396554e-05 -7.43702185e-05
      -9.09524024e-05 -9.24633132e-05 -8.86072085e-05 -1.76457790e-04
      -9.06457572e-05 -1.30146320e-04 -1.47081868e-04 -1.00610705e-04
      -4.25642138e-05 9.08324910e-06 -1.64244011e-05 2.88967331e-05
      2.33559458e-05 6.43462272e-06 4.11838591e-05 2.51251440e-05
      -2.36865508e-05 -2.98306804e-05 6.48175337e-05 -6.26854453e-05
      -4.72417196e-05 -3.92134134e-05 -2.66707902e-05 -1.38121686e-06
      -1.06099242e-05 1.50306414e-05 1.87447295e-05 1.87447295e-05
      1.83562333e-05 -2.03801974e-05 -1.68944935e-05 -2.95920145e-05
      -3.16836813e-05 -9.86965188e-06 2.84423240e-05 2.92368113e-05
      2.98061750e-05 2.98061750e-05 8.67066701e-05 -9.63958610e-06
      1.21095736e-05 6.92341382e-06 3.84409141e-05 3.84409141e-05
      4.66414676e-05 3.97604672e-05 2.92530403e-05 -1.12371290e-05
      -7.29702890e-07 -7.29702890e-07 -1.86529887e-05 3.04417676e-06
      2.57293723e-05 7.36595393e-06 -1.97991249e-05 -3.04111518e-06
      -1.12542393e-05 -6.82306563e-05 -9.84255821e-05 2.87038856e-05
      -2.14508764e-05 -6.63128085e-05 -8.60790078e-06 -1.09999019e-05
      2.63703987e-05 5.13993996e-07 3.49312031e-05 2.39237797e-05
      5.76747261e-05 3.30481489e-05 6.12239382e-05 2.07531502e-05
      4.68574290e-05 1.54470894e-04 9.59489262e-06 3.31056399e-05
      2.30216374e-05 -5.24728493e-05 -2.71832741e-05 5.21467227e-05
      2.28755525e-05 -1.99991809e-05 -4.33650021e-05 -5.99253508e-05
      -6.41810402e-05 -6.56322009e-05 -3.57282806e-05 -3.83893130e-05
      -3.06489019e-05 -4.23017955e-05 -3.69036679e-05 -2.00493796e-05
      2.53533199e-05 1.95528664e-05 3.21519583e-05 -2.88300253e-05
      -2.88300253e-05 -5.86767346e-05 -4.39141186e-05 -3.13678975e-05
      -3.51827766e-05 -6.65920015e-05 -8.09618141e-05 -5.41383197e-05
      1.08325985e-05 3.46880406e-05 4.24284553e-05 4.55110530e-05
      1.86284924e-05 5.33707826e-05 4.42272103e-05 3.49265028e-05
      -7.59566392e-05 -1.16790739e-04 -2.05967863e-05 -3.28529277e-05
      -1.35853352e-05 -5.30674843e-05 -3.20665131e-05 1.22597448e-05
      -2.78099748e-07 2.02954870e-05 5.94861776e-05 -2.36452943e-05
      2.51858346e-05 5.49055185e-05 5.81848290e-05 7.58895840e-05
      9.92093701e-05 3.27355046e-05 8.76148624e-05 6.28993876e-05
      2.01567509e-05 -5.03947776e-05 5.69012045e-05 1.28623578e-05
      1.28623578e-05 4.78114453e-05 3.43655156e-05 4.15320064e-05
      3.84753475e-05 3.50262999e-05 5.16763066e-05 5.16763066e-05
      4.29030915e-05 4.29030915e-05 4.29030915e-05 5.26414478e-05
      5.90979944e-05 6.11896612e-05 3.36301018e-05 2.58896907e-05
      1.94331460e-05 1.11444906e-05 2.94425136e-05 2.93328285e-05
      3.76426033e-05 -2.04506632e-05 -6.59398211e-05 -2.71736226e-05
      -7.37353321e-06 -1.54218906e-05 -1.23652289e-05 -7.12332337e-07
      7.84868189e-06 -1.82091426e-05 -6.59014186e-05 -1.84070504e-05
      -1.04074490e-04 -8.87795977e-05 -3.13331475e-05 -7.50205163e-06
      3.33320531e-05 -2.79257802e-05 -3.61266802e-06 -9.69396660e-06
      1.03102575e-05 3.62949540e-05 -6.45574764e-05 -3.21591210e-06
      2.22543640e-05 3.68004366e-05 6.07964375e-06 2.56471849e-05
      -4.66262900e-05 -6.76156778e-05 -6.77516728e-05 -9.65940853e-05
      -7.47106315e-05 -1.18999060e-05 -1.05506078e-04 -1.04923332e-04
      -1.27201740e-04 -1.28260159e-04 -3.62343635e-05 -4.92684412e-05
      -4.92684412e-05 -4.92684412e-05 -5.58166175e-05 -5.24136813e-05
      -5.24136813e-05 -5.24136813e-05 -1.80877705e-05 -1.25772922e-05
      -8.28048724e-05 -8.99143924e-05 -8.94614350e-05 -4.65890189e-05
      -4.62794305e-05 -4.75250636e-05 -2.77249765e-05 -6.83815306e-05
      -6.83815306e-05 -7.20284224e-05 -2.07015037e-05 -2.07015037e-05
      -2.07015037e-05 -1.38797541e-05 3.21842672e-05 2.35646003e-05
      2.70312557e-06 -3.79045468e-06 -4.25328944e-05 -5.42846246e-05
      -9.91179622e-05 -6.45243490e-05 -4.00730933e-05 3.14791578e-05
      -1.22980991e-05 6.06071717e-06 -2.05812842e-08 8.68852112e-06
      4.65377016e-05 -7.82783536e-05 -1.43825982e-05</_></support_vectors>
  <decision_functions>
    <_>
      <sv_count>1</sv_count>
      <rho>-2.0785312243574920e+00</rho>
      <alpha>
        1.</alpha>
      <index>
        0</index></_></decision_functions></my_svm>
</opencv_storage>
